{
  "layer_sizes": [
    784,
    64,
    16,
    10
  ],
  "data": [
    {
      "weights": [
        [
          -0.92331696,
          -0.80050945,
          -0.44818103,
          0.44956172,
          -0.10964227,
          -0.7629237,
          -0.0463084,
          -0.14157188,
          -0.25123,
          -0.81231844,
          0.9889194,
          0.9640888,
          -0.26708233,
          -0.42472446,
          -0.5373397,
          -0.8787589,
          0.38835347,
          0.5819458,
          -0.21204066,
          0.62752795,
          -0.2324338,
          0.8931682,
          -0.6754137,
          0.09630871,
          -0.07958007,
          -0.3262937,
          -0.1495974,
          -0.8600179,
          -0.61414874,
          -0.852901,
          -0.3211372,
          -0.7273301,
          -0.19543853,
          0.3240373,
          0.86953986,
          0.5623381,
          -0.08669149,
          -0.5034188,
          0.6619681,
          0.24722967,
          0.67147315,
          -0.38145095,
          -0.5137159,
          -0.32142156,
          0.76384974,
          0.4386965,
          -0.5635769,
          -0.44819722,
          -0.18978007,
          -0.16636792,
          0.5639282,
          0.64780784,
          0.5563669,
          -0.65317106,
          0.21959364,
          -0.88447976,
          0.89956856,
          0.6629064,
          -0.61164117,
          -0.5000173,
          -0.28180382,
          0.4219375,
          0.37247783,
          -0.16907908,
          0.7159909,
          -0.3028351,
          -0.10041193,
          0.71592623,
          -0.8141507,
          0.90665215,
          -0.023336446,
          0.8029052,
          0.6138391,
          -0.24667916,
          -0.21863766,
          -0.14667302,
          -0.6649684,
          0.98727745,
          0.9804169,
          -0.1705977,
          -0.86691713,
          0.27942398,
          -0.589216,
          0.7500578,
          -0.4068874,
          0.837808,
          -0.58871704,
          0.41686353,
          0.82636046,
          0.6197768,
          -0.57833993,
          0.30221066,
          0.9222222,
          -0.55355793,
          0.97987115,
          0.05581062,
          0.06851783,
          0.57347107,
          -0.06841232,
          0.5649497,
          0.085319,
          -0.9297971,
          -0.560421,
          0.071671106,
          0.23219177,
          -0.7514278,
          0.8112951,
          0.4858859,
          0.8885742,
          -0.4271163,
          -0.7744577,
          0.3852917,
          0.021667123,
          -0.2526337,
          -0.6237821,
          -0.23677085,
          0.8080961,
          0.012765526,
          -0.38920036,
          -0.8111279,
          0.38469356,
          -0.97073925,
          -0.15761325,
          0.27570906,
          8.777448E-06,
          0.32576492,
          -0.78221744,
          -0.8667446,
          -0.8681952,
          0.54977447,
          0.8048197,
          0.40260735,
          0.72933245,
          0.77588916,
          0.5673738,
          0.9875532,
          -0.22434892,
          0.88539094,
          0.7918498,
          -0.0604432,
          0.40482295,
          0.35234916,
          0.11055135,
          0.84582436,
          -0.47281492,
          0.64292216,
          -0.88348913,
          0.818234,
          0.45882037,
          -0.2265119,
          -0.4722028,
          0.551473,
          -0.75327635,
          -0.62362,
          -0.4109673,
          -0.47771537,
          0.12145882,
          -0.6612594,
          0.9774501,
          0.84425163,
          0.028275138,
          0.27788472,
          -0.616473,
          -0.08411114,
          0.625277,
          -0.66902614,
          -0.023553452,
          -0.60971296,
          0.37836897,
          -0.48182324,
          -0.5328399,
          0.80008936,
          0.015536978,
          -0.013333354,
          -0.51731455,
          -0.22589052,
          -0.15132652,
          0.9831353,
          0.4533052,
          -0.49570253,
          -0.5613626,
          -0.3569956,
          0.37963593,
          -0.01723985,
          0.5443466,
          -0.9375011,
          0.8473051,
          -0.42192295,
          -0.18381472,
          0.44707203,
          -0.5470357,
          0.7733708,
          0.00013778033,
          0.20301658,
          0.8614302,
          0.011941479,
          -0.27266192,
          0.96916556,
          0.84704524,
          0.30042857,
          -0.7487888,
          0.8162641,
          -0.32087365,
          -0.7079066,
          0.712793,
          0.64710253,
          0.46070647,
          0.37698293,
          -0.90415555,
          -0.7481301,
          -0.56087494,
          -0.17477366,
          -1.1040367,
          -0.69270056,
          -0.9485093,
          -0.6108049,
          -0.5532701,
          0.26355922,
          0.08598012,
          -0.85375744,
          0.8150532,
          -0.42374587,
          0.91274935,
          -0.1478144,
          -0.44791785,
          -0.13265489,
          0.8443431,
          0.1807288,
          0.16680801,
          0.22785863,
          0.3813806,
          -0.04157626,
          -0.30314595,
          0.36476186,
          -0.8933972,
          -0.6964304,
          -0.85657495,
          0.29155475,
          0.7720203,
          0.53201896,
          0.76728785,
          0.43537638,
          -1.0334047,
          0.92886394,
          -0.71867174,
          0.038153294,
          -0.74461573,
          -0.694833,
          -0.74863607,
          0.9443225,
          0.7485078,
          0.9737014,
          0.54364055,
          -0.39393607,
          -0.5307638,
          0.70959806,
          -0.29734674,
          -0.9551523,
          -0.061448254,
          0.8179321,
          0.425686,
          0.84107727,
          0.064468965,
          0.2180179,
          0.8624014,
          -0.1999429,
          0.8232863,
          -0.078059874,
          -0.32816407,
          0.19670752,
          -0.5260431,
          0.28824043,
          0.28839877,
          -0.2517456,
          0.34444773,
          -0.49817243,
          -0.3484213,
          0.93133825,
          0.9925324,
          0.7859949,
          -0.56855154,
          0.2997191,
          0.19205552,
          -0.13653485,
          -0.8743669,
          0.31138667,
          0.48325762,
          0.5768892,
          -0.5969407,
          0.26654074,
          0.16536622,
          0.51123685,
          -0.23621958,
          0.5071449,
          0.54202753,
          -0.6486627,
          -0.50271577,
          0.026598027,
          -0.7924324,
          0.66377395,
          0.33667895,
          -0.31831846,
          -0.21185216,
          0.93593127,
          0.84722185,
          -0.708315,
          0.18242347,
          -0.60185194,
          -0.8261869,
          0.031773474,
          0.46306285,
          -0.26411456,
          0.025333913,
          -0.21230745,
          -0.9820507,
          0.11622143,
          -0.5558058,
          -0.009901154,
          -0.3423713,
          0.6931878,
          0.21080245,
          -0.37373102,
          0.8013316,
          -0.47938514,
          0.50992584,
          0.8152693,
          -0.5563749,
          0.22566022,
          -0.32440317,
          0.17730056,
          -0.72469395,
          -0.24551384,
          0.65113634,
          -0.09108535,
          -0.11318048,
          0.032437824,
          -0.7430487,
          -0.63302445,
          -0.8393286,
          -0.31951693,
          -0.7934873,
          0.128949,
          0.26685712,
          0.5728158,
          -0.838856,
          0.3787896,
          0.88611203,
          -0.749684,
          -0.7309519,
          -0.2628434,
          -0.6671237,
          -0.95187604,
          0.31694743,
          -0.24850123,
          0.6608374,
          0.06942381,
          -0.7610269,
          0.21374111,
          -0.044715267,
          0.44091076,
          0.8273955,
          -0.35600618,
          -0.23208867,
          0.34194326,
          0.09051665,
          0.29420358,
          -0.16376966,
          -0.52743506,
          -0.6341019,
          0.9582081,
          -0.8892343,
          -0.10582295,
          -0.39825988,
          0.15754941,
          0.41382778,
          -0.35070592,
          0.67174196,
          -1.0372334,
          0.6363777,
          0.11084221,
          -0.9700161,
          0.7186608,
          -0.9322885,
          -0.9419847,
          0.07701344,
          1.0136843,
          0.48150727,
          -0.15413703,
          -0.20019713,
          -0.37257746,
          0.4125492,
          0.14733556,
          -0.136328,
          0.6865223,
          0.31885588,
          -0.65045047,
          0.8407107,
          -0.39320257,
          0.432712,
          1.0106812,
          -0.46972474,
          0.056103263,
          0.45775053,
          -0.54990727,
          -0.2883054,
          0.12417806,
          0.7799124,
          -0.52824736,
          0.5108111,
          0.83363676,
          -0.9015616,
          -0.14835675,
          0.6003766,
          0.9304055,
          0.24261759,
          -0.86726576,
          0.064092934,
          -0.5962243,
          -0.5663015,
          0.50070375,
          -0.35307902,
          0.2634106,
          0.3576089,
          0.27475485,
          0.1617974,
          -0.9072658,
          -0.9377953,
          -0.41681445,
          0.6965814,
          0.4272612,
          -0.41795856,
          -0.42777714,
          -0.46393993,
          -0.16786605,
          0.852111,
          -0.33703524,
          0.77542794,
          -0.14199251,
          -0.780886,
          0.8841975,
          0.48428234,
          -0.5458163,
          -0.5827311,
          0.2963316,
          -0.04002258,
          -0.3845781,
          0.48447296,
          -0.17136051,
          0.31715414,
          -0.07951568,
          0.17647207,
          -0.23082864,
          0.7177508,
          0.10620088,
          0.6436089,
          0.92973995,
          -0.8798679,
          -0.92676294,
          0.26008058,
          0.35634708,
          -0.4005207,
          -0.6756193,
          -0.5015919,
          0.62155163,
          0.57842636,
          0.26733527,
          0.79275084,
          0.18099454,
          0.20314603,
          0.7631589,
          -0.2636787,
          0.48115826,
          0.87194693,
          -0.08228128,
          -0.06270488,
          -0.57517165,
          0.9051045,
          -0.446195,
          0.47517452,
          0.57449204,
          -0.07332299,
          0.76678556,
          0.6623231,
          1.0743994,
          0.76557356,
          -0.98240805,
          -0.57017505,
          0.29376763,
          0.02478961,
          -0.6866082,
          0.3350979,
          -0.47201374,
          -0.39056563,
          -0.20263113,
          0.3795516,
          -0.65114486,
          0.3983624,
          0.050370816,
          0.4018125,
          -0.4481122,
          -0.11401652,
          -0.5842273,
          0.8157219,
          0.79051113,
          -0.0030767133,
          -0.13965163,
          0.68409526,
          0.8111058,
          -0.319774,
          -0.71037626,
          -0.24207586,
          0.08387614,
          -0.2417698,
          -0.567771,
          -0.7362174,
          0.66264653,
          -0.8389994,
          0.34521013,
          -0.48269922,
          0.81289864,
          -0.7953736,
          -0.17415576,
          -0.7035987,
          -0.09665565,
          -0.24279974,
          -0.2981258,
          0.6488018,
          0.52919745,
          -0.5899833,
          -0.38012806,
          -0.5393904,
          -0.07252795,
          0.57862425,
          -0.5263537,
          -0.07423656,
          0.99927145,
          -0.58125305,
          0.092824794,
          0.029603155,
          -0.2410538,
          0.684936,
          0.13412318,
          -0.91012156,
          -0.2692385,
          -0.5001004,
          -0.13033102,
          -0.4843839,
          0.2726436,
          0.033421535,
          -0.79696923,
          -0.4824724,
          0.9164347,
          1.0231985,
          -0.8336869,
          -0.9276032,
          0.53256196,
          -0.17736442,
          0.057269227,
          0.08784863,
          0.094009556,
          0.59697723,
          -0.43725964,
          0.18356559,
          -0.69335693,
          0.4699304,
          -0.6877982,
          0.3846874,
          -0.34742904,
          0.21152963,
          -0.30197558,
          0.30809197,
          0.13240924,
          0.60189575,
          0.06612343,
          -0.48225203,
          0.5534305,
          0.74245673,
          0.069295436,
          0.22327572,
          0.66639775,
          0.0948441,
          -0.8869498,
          0.96392953,
          0.62028414,
          0.27956635,
          0.7630324,
          0.3429986,
          -0.6558115,
          0.57828677,
          -0.13962176,
          0.17527151,
          -0.95664024,
          -0.30161133,
          -0.10885163,
          -0.6850155,
          0.9291026,
          0.77168006,
          -0.8710938,
          0.1440378,
          -0.30228847,
          0.1691013,
          -0.9308839,
          -0.007770562,
          0.3613323,
          0.5448987,
          -0.87272304,
          0.5037619,
          0.78413904,
          -0.87490904,
          0.91997147,
          0.22747229,
          0.82203716,
          -0.632772,
          0.81378394,
          -0.4508739,
          -0.22957371,
          0.7131967,
          0.8501772,
          -0.05056868,
          -0.6773498,
          -0.6778125,
          -0.73113745,
          0.97151506,
          -0.08698698,
          0.041487597,
          -0.7182134,
          -0.6352088,
          -0.58058673,
          0.87017345,
          -0.5479735,
          0.73314375,
          0.15073235,
          0.07678281,
          0.941235,
          0.1445315,
          0.29819852,
          0.9383958,
          0.31323883,
          -0.15101792,
          0.2357215,
          -0.27887228,
          -0.263568,
          -0.67887926,
          -0.6972089,
          0.9451227,
          0.8542769,
          -0.47421056,
          -0.5484227,
          -0.4832572,
          -0.6616941,
          -0.6186641,
          0.3393605,
          -0.8079456,
          0.17796855,
          -0.39260504,
          0.5701574,
          -0.13622303,
          0.39817378,
          0.6593462,
          0.21037921,
          0.21687503,
          -0.73347,
          0.6375072,
          -0.07983389,
          0.4106572,
          -0.99774,
          -0.4070963,
          0.8920258,
          0.2586292,
          -0.87080336,
          0.3536262,
          0.71235096,
          0.94689584,
          -0.63112307,
          -0.5173386,
          -0.7066939,
          -0.6378882,
          0.5874404,
          -0.71763724,
          0.49412078,
          -0.8647879,
          -0.73883635,
          0.5122761,
          -0.61622596,
          -0.95606303,
          0.5395217,
          -0.17685206,
          -0.11368613,
          0.8676692,
          0.5770784,
          0.7664449,
          -0.041715816,
          -0.05580029,
          -0.6079629,
          0.6733311,
          0.044149883,
          -0.534502,
          -0.6631475,
          -0.15353158,
          0.9282119,
          0.13576388,
          -0.52441585,
          0.44289085,
          0.19482912,
          -0.6585664,
          -0.38191745,
          0.86457425,
          -0.42388692,
          -0.16628374,
          0.31758654,
          0.76521355,
          -0.5138223,
          -0.29725707,
          0.6589445,
          0.80231905,
          -0.41606727,
          -0.9941216,
          0.79170126,
          0.21380325,
          -0.6859325,
          -0.19944158,
          0.15629071,
          0.3800212,
          0.3005867,
          -0.6438872,
          0.6867945,
          0.66476357,
          0.6380305,
          -0.121406436,
          0.21365535,
          -0.43169332,
          0.28684878,
          0.8006994,
          0.014028345,
          0.56118613,
          -0.48937538,
          0.40223673,
          0.75293493,
          -0.6722772,
          -0.11290777,
          -0.7957436,
          0.76169205,
          -0.81175405,
          -0.3745051,
          0.14240585,
          0.632015,
          -0.32309097,
          0.048832797,
          -0.4212922,
          -0.3082097,
          -0.91457814,
          0.55522615,
          -0.39707878,
          -0.5843981,
          0.09343529,
          0.7843132,
          -0.5832807,
          0.11015928,
          -0.59823835,
          0.39169574,
          -0.26563334,
          0.99691564,
          0.19668645,
          0.49988517,
          0.5819154,
          0.73754776,
          -0.79181933,
          -0.98701096,
          0.23753382,
          -0.012928759,
          -0.8738925,
          0.514916,
          0.47068152,
          0.47114754,
          0.44060284,
          0.3259903,
          -0.19487514,
          -0.8948683,
          0.12250852,
          -0.97508854,
          0.3864758,
          0.37115133,
          -0.08090675,
          -0.5635681
        ],
        [
          -0.29128873,
          0.31679237,
          0.9423046,
          0.08032417,
          -0.20286107,
          0.00012123585,
          -0.8474014,
          -0.11994982,
          -0.55590165,
          0.98120606,
          0.69481575,
          -0.9238956,
          0.14379925,
          0.16275541,
          0.55585384,
          -0.8248062,
          0.8398924,
          -0.6575128,
          -0.40833127,
          0.23116267,
          0.2692126,
          -0.3381034,
          -0.07917273,
          0.12143493,
          0.1553067,
          0.106704354,
          -0.9749551,
          -0.90264165,
          0.018458366,
          0.703702,
          -0.18435085,
          0.58032,
          0.6612635,
          -0.4322263,
          -0.08860257,
          -0.33731332,
          -0.2621537,
          -0.24935147,
          0.36312708,
          -0.25486633,
          0.8877004,
          -0.20465343,
          -0.32507905,
          0.2279279,
          0.026031453,
          -0.20631908,
          -0.966143,
          0.83727944,
          0.96450734,
          0.7141515,
          0.28568727,
          -0.66036445,
          0.06981051,
          -0.30604577,
          0.118219376,
          0.81329954,
          0.18852317,
          -0.640478,
          0.24620758,
          0.83672607,
          -0.00047144934,
          0.1069714,
          -0.97115725,
          -0.41628197,
          -0.65705305,
          0.8022881,
          0.98741955,
          0.7387101,
          0.6925997,
          0.90564704,
          0.42575595,
          0.25984946,
          0.016360177,
          0.9837727,
          -0.26792654,
          0.6507011,
          0.68317217,
          0.14685696,
          0.7867517,
          0.696432,
          0.31636778,
          0.17633115,
          -0.47594845,
          -0.63739955,
          -0.2499057,
          0.5582348,
          -0.973344,
          -0.5075162,
          -0.51003075,
          -0.17946538,
          -0.96389174,
          -0.9619862,
          -0.77701235,
          0.66569865,
          0.6836921,
          -0.875284,
          0.73389125,
          -0.87249047,
          -0.087888926,
          0.17424743,
          0.31934598,
          0.41389978,
          0.32591262,
          -0.3439267,
          0.9708551,
          0.7332299,
          -0.6083637,
          -0.2604989,
          0.61376655,
          0.04641452,
          0.7321701,
          -0.039334774,
          0.450994,
          -0.8799852,
          0.3413307,
          -0.49771768,
          -0.79962087,
          -0.074659236,
          -0.83657956,
          -0.35666227,
          0.42104074,
          0.88076955,
          0.7886068,
          0.06598456,
          -0.074742086,
          -0.91542053,
          0.7546823,
          0.4049387,
          0.91652495,
          -0.16763964,
          0.9059054,
          -0.58361924,
          -0.4567135,
          -0.07996373,
          0.33012676,
          -0.05991865,
          -0.3244655,
          0.65694654,
          0.8680434,
          0.3878946,
          -0.54546547,
          0.80000734,
          -0.661448,
          0.9548511,
          0.7592086,
          -0.24122751,
          0.86729896,
          -0.608107,
          -0.0044515003,
          -0.44832298,
          0.35318154,
          0.82927006,
          0.17292275,
          0.14049195,
          -0.7327085,
          -0.40187073,
          0.08144746,
          -0.10044428,
          0.70114166,
          0.19171824,
          -0.80978626,
          -0.12006183,
          0.12607682,
          0.23442276,
          -0.43067807,
          -0.40011853,
          0.5605443,
          0.933382,
          -0.53707504,
          -0.94837195,
          -0.8824668,
          0.7776416,
          -0.30715236,
          0.23043917,
          0.012734424,
          -0.012810688,
          0.9344718,
          -0.013881707,
          -0.6011049,
          -0.4730171,
          -0.45450193,
          -0.695779,
          0.83575153,
          -0.08992038,
          -0.26285613,
          -0.13705552,
          0.450838,
          -0.3704171,
          -0.47095883,
          0.6630206,
          0.33223087,
          0.034553908,
          0.8393947,
          0.07049458,
          0.48095956,
          -0.4369885,
          -0.7392692,
          0.41585153,
          0.35015154,
          -0.6705783,
          -0.602653,
          -0.52069175,
          0.6301428,
          -0.86620945,
          0.06476645,
          -0.90964043,
          0.34715778,
          0.6135547,
          0.7694136,
          0.49970898,
          0.5920619,
          0.25132027,
          -0.43204385,
          -0.9210557,
          -0.18578145,
          -0.89848197,
          -0.14966919,
          -0.086228624,
          -0.31166807,
          0.76739746,
          -0.42003778,
          -0.21571729,
          0.7735667,
          -0.38640338,
          0.63811886,
          -0.5612381,
          -0.8564278,
          0.6824014,
          0.5352106,
          0.95580673,
          0.6857146,
          -0.4108203,
          0.2797657,
          -0.7169262,
          -0.091114186,
          -0.5080769,
          0.96075296,
          0.01812093,
          -0.59652925,
          0.16145499,
          -0.36325693,
          -0.7304581,
          -0.26945764,
          -0.3703433,
          -1.020001,
          -0.5072398,
          -0.5994821,
          -0.24659932,
          0.75996804,
          0.2587637,
          0.7992634,
          0.676375,
          -0.94403046,
          -0.3634533,
          0.18969421,
          -0.5229601,
          -0.4382966,
          0.3183001,
          -0.3486999,
          -0.50749826,
          0.23809843,
          -0.052187428,
          0.23596093,
          0.47137046,
          -0.81567585,
          0.7391108,
          -0.21553124,
          0.5337806,
          0.20503266,
          -0.18941867,
          -1.0887345,
          -0.2339701,
          0.847681,
          -0.7668884,
          0.19636674,
          -0.55025303,
          0.7195992,
          -0.90289307,
          -0.8978453,
          -0.20709658,
          0.116507,
          0.56905043,
          0.7466314,
          0.023255942,
          0.39975736,
          0.8844089,
          -0.19752721,
          0.7158571,
          0.14947073,
          0.5710801,
          0.33840862,
          0.31437168,
          -0.8500617,
          -0.048439685,
          0.48830435,
          -0.45970774,
          -0.27879706,
          0.7005979,
          -0.8755939,
          -0.5616561,
          0.7053259,
          -0.66466045,
          -0.28242433,
          -0.022017857,
          -0.6819838,
          0.2404725,
          -0.37463292,
          0.8062485,
          -0.83902836,
          0.6741233,
          0.8578987,
          -0.5621664,
          0.672191,
          -0.7966644,
          0.91173667,
          -0.783294,
          -0.24754098,
          -0.5956484,
          -0.5280308,
          0.91443723,
          -0.6094495,
          0.10776397,
          0.15860589,
          0.47000065,
          0.31903142,
          0.7236351,
          0.110422306,
          0.28530326,
          0.044045087,
          0.101813406,
          -0.35415253,
          -0.7681237,
          0.6240958,
          -0.47744742,
          -0.56909513,
          -0.423123,
          -0.90208846,
          -0.33773512,
          -0.65370506,
          -0.23222123,
          0.83382595,
          0.03750197,
          0.26650372,
          0.39755917,
          0.471974,
          0.69868326,
          0.424813,
          -0.6637165,
          1.0669012,
          -0.68862736,
          0.93746674,
          0.78555524,
          -0.07471106,
          0.17929195,
          -0.040990572,
          -0.4283148,
          0.083097935,
          0.27134663,
          0.7386603,
          0.6696845,
          -0.1302776,
          -0.03649473,
          -0.51690406,
          0.52443457,
          -0.8392942,
          -0.42302954,
          0.86769795,
          0.15441652,
          0.42340773,
          -0.004050729,
          0.22647552,
          0.56196594,
          -0.77149117,
          -0.5788429,
          0.36228254,
          0.14341027,
          -0.28694463,
          -0.23623037,
          -0.67633116,
          0.10595367,
          0.4822958,
          0.5997508,
          -0.15554728,
          -0.8492497,
          -0.09386804,
          0.3117674,
          -0.025541889,
          0.29165846,
          -0.17177033,
          0.6329802,
          0.9720735,
          0.19173151,
          -0.03235032,
          -0.011421781,
          0.553755,
          0.13917147,
          -0.13248655,
          -0.31326586,
          0.09729269,
          0.8566652,
          -0.90771365,
          0.034096047,
          -0.48589948,
          0.13110898,
          0.6738609,
          -0.7003937,
          -0.026899144,
          0.20473996,
          -0.32067102,
          0.9070782,
          0.4716524,
          0.51388586,
          -0.11819656,
          0.50376403,
          -0.4395794,
          0.63689756,
          -0.4471313,
          -0.44338226,
          -0.08275434,
          0.96985215,
          -0.07584439,
          -0.1903826,
          -0.11005836,
          0.64850855,
          -0.89998883,
          0.17656076,
          0.66209567,
          -0.5068395,
          -0.23357771,
          0.27848262,
          -0.8586173,
          0.8585226,
          -0.97006303,
          -0.18621325,
          -0.4562353,
          -0.11518039,
          -0.83059245,
          -0.32846713,
          1.0272008,
          -0.6645159,
          0.88346285,
          -0.72265744,
          -0.73119116,
          0.38466033,
          0.48029765,
          -0.5917564,
          0.34441212,
          -0.37059665,
          0.033188436,
          -0.027765399,
          0.3848774,
          0.53898597,
          0.44357568,
          0.69144833,
          -0.51700956,
          -0.8443833,
          -0.36631146,
          0.53711224,
          -0.83688056,
          -0.9650674,
          0.04237873,
          -0.72779626,
          -0.17211635,
          0.5349971,
          0.5621669,
          0.27157855,
          0.55554235,
          -0.10282018,
          -0.14661714,
          0.7583568,
          -0.14354107,
          -0.9654712,
          0.35494828,
          -0.92305934,
          0.91698927,
          0.51483095,
          -0.7374841,
          0.27850842,
          -0.20171168,
          -0.012346282,
          -1.0115304,
          -0.6494858,
          0.47686002,
          0.94339836,
          -0.56630474,
          0.3053965,
          -0.32866937,
          -0.79825985,
          -0.83979005,
          0.7338731,
          -0.7239784,
          -0.47387135,
          0.06878311,
          0.38664928,
          -0.44762823,
          -0.62643296,
          0.95165,
          -0.9983122,
          0.40454084,
          -0.75182194,
          -0.82881653,
          -0.33909908,
          -0.98260534,
          0.20719774,
          0.56468284,
          -0.2836694,
          0.90427697,
          0.5673259,
          0.82668895,
          0.3843438,
          -0.4694,
          -0.4036827,
          -0.46254548,
          -0.37663016,
          0.48099822,
          -0.20586757,
          -0.37187588,
          0.48958758,
          0.71379346,
          0.022606237,
          -0.012711966,
          -0.77774245,
          0.5278299,
          -0.02750811,
          0.8181924,
          -0.4671132,
          0.30289277,
          -0.23441033,
          0.7132713,
          0.42393437,
          -0.8000507,
          0.36288962,
          0.0595023,
          0.94753104,
          0.93859726,
          -0.4657718,
          0.6104273,
          0.046137646,
          -0.8311356,
          -0.92255306,
          0.029678356,
          0.53491735,
          -0.26517472,
          -0.41614306,
          -0.53705764,
          -0.08921971,
          0.5997768,
          -0.43007496,
          0.3784337,
          0.55937517,
          0.35749263,
          0.24866733,
          -0.01497354,
          -0.69635314,
          -1.0105413,
          -0.53714734,
          -0.11618208,
          -0.8042793,
          -0.37616345,
          0.1294744,
          -0.26546812,
          0.06953131,
          -0.26650968,
          -0.6159985,
          0.3446624,
          0.35172045,
          -0.41120616,
          0.60565084,
          -0.47964257,
          -0.3538123,
          0.8002361,
          -0.5523712,
          0.19159095,
          0.5344348,
          0.030765686,
          0.87352693,
          0.7262023,
          -0.27025095,
          -0.11880078,
          0.50262105,
          -0.73684824,
          -0.8936802,
          -0.6611421,
          0.85660905,
          -0.6461919,
          0.49755618,
          -0.28962007,
          0.34465456,
          -0.83212453,
          -0.999815,
          0.98753506,
          -0.9601667,
          0.6352068,
          0.55913866,
          -0.70445216,
          0.8716974,
          0.302541,
          -1.0111475,
          -0.55130976,
          -0.8208013,
          -0.23057635,
          -0.5139372,
          0.084880404,
          0.21062297,
          -0.004899352,
          0.9080191,
          0.6693453,
          0.6691285,
          -0.736057,
          -0.23205371,
          0.15245257,
          -1.0094259,
          0.9930923,
          -0.8619843,
          0.16934362,
          -0.80556613,
          0.15650336,
          -0.29418048,
          -0.72438705,
          0.9865127,
          -0.6750845,
          0.104678735,
          -0.2716083,
          0.045958232,
          0.12511928,
          0.32570103,
          0.35459858,
          -0.8269944,
          -0.530486,
          -0.27134684,
          -0.16702388,
          -0.9406638,
          0.39431146,
          -0.4331577,
          0.8592984,
          -0.07691138,
          -0.5566686,
          -0.16163303,
          -0.36584023,
          -0.7852548,
          -0.5376095,
          -0.37970462,
          0.4341486,
          -0.8424948,
          0.60908914,
          -0.71228456,
          -0.6587932,
          0.71589714,
          -0.8336399,
          0.73574996,
          0.54488385,
          0.5292412,
          -0.12244712,
          -1.0036558,
          -0.68585205,
          -0.5715404,
          0.68981504,
          0.26959872,
          0.844476,
          -0.52866703,
          0.3336662,
          0.095150076,
          -0.64733493,
          -0.587767,
          -0.26948544,
          -0.31336874,
          0.9885614,
          -0.8649511,
          -0.9201329,
          0.33765203,
          -0.7659002,
          -0.44349837,
          -0.42601275,
          -0.67968416,
          0.3934024,
          0.030703757,
          -0.49450305,
          -0.65080833,
          0.2879973,
          0.6223957,
          -0.024077373,
          0.28591412,
          0.5004087,
          -0.49272937,
          -0.3735217,
          0.65552557,
          0.2777647,
          -0.2302166,
          0.2548594,
          0.30173466,
          0.5904434,
          -0.9239551,
          0.0809511,
          0.827819,
          -0.5967029,
          -0.1338159,
          0.14922409,
          0.8572854,
          -0.26839808,
          -0.7091836,
          -0.8894694,
          0.4753195,
          -0.57993895,
          -0.9750211,
          0.5523565,
          -0.71579957,
          -0.04153743,
          0.11843056,
          0.78488517,
          -0.9901199,
          -0.25038546,
          -0.0027674197,
          0.079249315,
          -0.16900854,
          -0.88394135,
          -0.30902338,
          0.22873956,
          0.24001688,
          -0.5125823,
          0.18792585,
          0.8190406,
          0.78803396,
          0.9285255,
          -0.09165097,
          -0.8288226,
          -0.32949495,
          0.57631946,
          0.40635097,
          0.6916982,
          -0.86512387,
          -0.54377496,
          -0.3339927,
          0.64149827,
          0.34916437,
          0.8787029,
          -0.48759493,
          -0.22844374,
          0.32484716,
          0.13449076,
          0.74530745,
          -0.7791174,
          0.4659761,
          0.6690661,
          0.43116644,
          0.17315109,
          0.88719624,
          -0.6473687,
          0.14926592,
          0.8845885,
          -0.15077993,
          -0.41243985,
          0.5942772,
          0.71269435,
          -0.076449595,
          -0.48517323,
          -0.54130816,
          -0.86672425,
          -0.32521594,
          0.2791208,
          -0.66206527,
          -0.16489303,
          -0.5450963,
          0.43678448,
          0.27410394,
          -0.45407984,
          -0.49619552,
          -0.6073792,
          0.56904256,
          -0.13958748,
          0.4876752,
          -0.34715718,
          -0.6843579,
          -0.23301846,
          -0.55500764,
          0.97953075,
          -0.73783153,
          -0.0691839,
          -0.116491914,
          0.17080896,
          0.6407475,
          0.7945664,
          -0.21174169,
          0.6787782,
          -0.4125893
        ],
        [
          -0.75321984,
          -0.90715253,
          -0.036387563,
          -0.08295035,
          0.6711652,
          -0.45555878,
          -0.1655643,
          0.6148064,
          -0.38843858,
          0.51127636,
          -0.85900116,
          -0.66950834,
          -0.80277693,
          0.20847538,
          0.4289451,
          -0.34282708,
          -0.17363632,
          0.93649566,
          -0.08796215,
          0.2812214,
          0.222018,
          0.9621866,
          0.2478019,
          0.97155654,
          -0.009869933,
          -0.9704629,
          -0.6055033,
          0.2999053,
          -0.3796078,
          0.063949466,
          -0.31841958,
          0.07783508,
          0.061923385,
          -0.28191447,
          -0.01734531,
          -0.02089093,
          -0.26480368,
          0.040959004,
          -0.88325524,
          0.8086209,
          -0.486785,
          0.09656209,
          0.11665151,
          0.57822526,
          0.758419,
          0.9558059,
          0.19048585,
          -0.9949212,
          -0.33742726,
          -0.032850556,
          -0.110512696,
          -0.6471771,
          -0.83016753,
          0.7713959,
          0.9985031,
          0.6516293,
          -0.57963574,
          -0.68209887,
          0.06895149,
          -0.20918895,
          -0.26897013,
          -0.3611009,
          0.28376564,
          0.27098262,
          -0.5594695,
          0.89912885,
          -0.96071684,
          -0.62563884,
          -0.0077899722,
          -0.25404292,
          -0.23919766,
          0.71735907,
          -0.3390135,
          -0.3554255,
          -0.36159366,
          -0.9687207,
          0.11910512,
          -0.3431945,
          0.73175776,
          0.24246211,
          -0.00024952966,
          -0.67818654,
          -0.2894361,
          -0.22639167,
          -0.52495897,
          0.68643343,
          -0.11440523,
          -0.7466182,
          -0.12344895,
          -0.22720788,
          0.6522858,
          -0.9167215,
          -0.25323582,
          -0.86455524,
          0.4070819,
          -0.83131146,
          -0.091926694,
          -0.7515961,
          0.5512631,
          -0.27328166,
          -0.3463582,
          0.8825676,
          -0.09676936,
          -0.74628747,
          -0.073401995,
          -0.46841738,
          0.37661114,
          0.13844323,
          0.098659664,
          0.9557104,
          -0.53632593,
          0.23172331,
          -0.076925635,
          0.16943283,
          0.8089729,
          -0.10709414,
          0.7287308,
          -0.09621434,
          -0.30482247,
          -0.9280235,
          -0.15498236,
          -0.49132147,
          0.6915932,
          0.25085533,
          -0.9462973,
          0.33357438,
          0.49085656,
          -0.17425227,
          -0.26082575,
          0.4622927,
          0.3174228,
          0.91733533,
          -0.15015844,
          0.9837467,
          -0.12797311,
          -0.8886915,
          0.15190952,
          -0.906765,
          0.4066067,
          -0.3655312,
          0.19495368,
          0.9612137,
          0.6463517,
          0.084837906,
          -0.95812976,
          0.97153986,
          0.012479993,
          -0.22086605,
          -0.6923272,
          0.5463166,
          0.72133976,
          0.24649519,
          0.13913694,
          0.8138002,
          -0.61902404,
          0.120672755,
          0.9357175,
          -0.9449944,
          0.8002331,
          -0.17475505,
          -0.5769098,
          0.86023045,
          -0.61064,
          -0.7507384,
          0.13231863,
          0.37523583,
          -0.78895444,
          0.56960946,
          -0.9185927,
          0.39501894,
          0.8888515,
          0.88865656,
          0.12558685,
          -0.14406858,
          0.9688011,
          0.699808,
          0.0056079794,
          0.082042396,
          -0.87555736,
          0.8691023,
          -1.0148942,
          -0.5775225,
          -0.6831533,
          -0.4448034,
          0.73517406,
          0.46892455,
          0.47222722,
          0.07191368,
          -0.58946913,
          0.847225,
          -0.46411064,
          0.6631808,
          -0.8220708,
          0.9429176,
          -0.5716845,
          -0.13589005,
          0.16135593,
          0.6240861,
          -0.9480488,
          0.29711813,
          -0.69967264,
          -0.1595144,
          -0.33128345,
          0.8119732,
          0.1980519,
          0.53088826,
          -0.12627818,
          -0.44379592,
          0.012678348,
          0.09145097,
          0.53303176,
          0.92173254,
          0.09347832,
          -1.0034878,
          -0.46912092,
          -0.9649613,
          -0.9346243,
          0.92073536,
          -0.4570784,
          0.5376001,
          0.8799699,
          -0.23615913,
          -0.89945734,
          -0.84814334,
          -0.29378575,
          0.6666059,
          0.16896968,
          0.68488073,
          -0.5736918,
          -0.64297706,
          0.87704724,
          0.53726786,
          -0.7386695,
          0.9745057,
          -0.3088701,
          0.077336766,
          -0.8733456,
          -0.3059435,
          0.06805346,
          -0.95125073,
          -0.5179404,
          -0.88542306,
          0.70029503,
          -0.23522966,
          0.65833104,
          0.86520314,
          -0.7329891,
          0.39437744,
          -0.2575404,
          0.8654556,
          -0.54401916,
          0.9819862,
          -0.8399033,
          -0.5775205,
          -0.43842903,
          -0.43434295,
          -0.8567034,
          0.10655404,
          0.92896324,
          -0.32777908,
          -0.82260066,
          -0.28249884,
          -0.37354967,
          -0.16256589,
          0.9886277,
          0.9529308,
          0.35488605,
          -0.5943495,
          0.030668966,
          -0.09002438,
          -0.48356023,
          0.3177662,
          -0.73532575,
          0.42413476,
          -0.84564394,
          0.09102873,
          -0.99262035,
          -0.8901353,
          -0.2474408,
          -0.5730688,
          0.24184643,
          -0.8372983,
          0.6052873,
          -0.5826751,
          0.7324916,
          -0.3976276,
          -0.8011377,
          -0.896311,
          -0.9577822,
          -0.10089833,
          0.121577546,
          0.6699298,
          -0.52446574,
          -0.4924095,
          -0.37052658,
          -0.6660148,
          -0.008119542,
          -0.72226214,
          0.71389925,
          0.34516117,
          -0.75360686,
          0.18650971,
          0.6965855,
          -0.8815974,
          -0.90724057,
          -0.81065273,
          -0.12542413,
          -0.12941135,
          0.5643875,
          0.08386656,
          0.046077132,
          -0.5776905,
          -0.30491564,
          -0.5636316,
          0.6595484,
          0.7912758,
          -0.9471687,
          -0.87565637,
          0.57988894,
          0.5640027,
          0.23861519,
          -1.0190384,
          -0.22554101,
          0.30554417,
          -0.83769256,
          0.56082237,
          0.5883565,
          0.9109637,
          -0.13587484,
          -0.9383876,
          0.5634489,
          0.64306897,
          0.72465885,
          -0.09297328,
          0.98534673,
          0.3077543,
          0.15715112,
          0.51719517,
          -0.08672373,
          0.83194417,
          0.8025159,
          0.91209525,
          -0.66102415,
          0.56292635,
          0.36846864,
          -0.15013516,
          -0.8108062,
          0.67750746,
          0.85263324,
          -0.90581214,
          0.6780753,
          -0.6290767,
          0.7280496,
          0.49437416,
          -0.37035945,
          -0.43401557,
          0.6270281,
          -0.3386879,
          -0.3522172,
          0.42831677,
          0.36610916,
          -0.077195756,
          0.04091765,
          0.8563061,
          -0.1921884,
          0.037471842,
          -0.96891445,
          0.7852162,
          -0.48383886,
          -0.7590569,
          0.819261,
          -0.31599805,
          -0.31469622,
          -0.3162545,
          0.64095634,
          -1.0585644,
          0.011647791,
          0.49678996,
          -0.7021687,
          -0.12604357,
          0.59343314,
          -0.36199287,
          0.5013515,
          -0.7704883,
          0.57239777,
          0.01396878,
          0.50808007,
          0.123538196,
          0.955287,
          0.68228614,
          -0.29035422,
          -0.837229,
          0.37236592,
          -0.506781,
          0.28431427,
          -0.74714303,
          -0.4794022,
          0.88354826,
          0.18036215,
          -0.96523637,
          -0.7350131,
          -0.9887742,
          -0.12038431,
          0.6188864,
          0.31975052,
          0.06083279,
          -0.5246012,
          -0.23247238,
          -0.403278,
          0.9363131,
          -0.8587737,
          -0.5011373,
          -0.008427256,
          0.7545856,
          0.41447553,
          -0.03168332,
          0.9945607,
          -0.24904741,
          0.85757685,
          0.5919697,
          -0.54369295,
          -0.46665454,
          0.2503769,
          0.36975837,
          -0.23535368,
          0.10519061,
          -0.54804015,
          0.006096289,
          0.23959312,
          -0.9113385,
          -0.51059985,
          0.046030995,
          -0.9588012,
          -0.32383624,
          0.300508,
          -0.4794435,
          0.09770676,
          -0.36724183,
          -0.35235175,
          -0.1256317,
          -0.52530974,
          -0.30724394,
          0.678744,
          0.24555016,
          0.7014061,
          0.23748939,
          0.94657815,
          0.041107696,
          -0.3555716,
          -0.9319439,
          -0.9019375,
          0.09920086,
          0.66595274,
          -0.23034051,
          -0.68580073,
          -0.325253,
          -0.60468477,
          -0.14481652,
          0.43753257,
          -0.13614216,
          0.13561347,
          -0.97327155,
          -0.9771174,
          0.023778647,
          -0.7859231,
          -0.5676378,
          -0.2886304,
          0.32715076,
          -0.7454155,
          -0.47692338,
          0.38542256,
          0.53146636,
          -0.3858204,
          -0.9750271,
          -0.42240083,
          -0.08736773,
          0.42067873,
          -0.6084939,
          -0.62881964,
          -0.9300069,
          -0.31817383,
          0.9676824,
          0.59436154,
          0.5528843,
          -0.65826553,
          -0.7214788,
          0.4199649,
          -0.9221955,
          -0.7376286,
          0.22870806,
          0.3965297,
          0.857788,
          -0.16021246,
          -0.38307413,
          0.25032204,
          -0.8102403,
          -0.44676438,
          -1.0132979,
          -0.7835268,
          -0.96638894,
          0.6888837,
          0.089551404,
          0.2451866,
          -0.8288751,
          0.39503637,
          -0.36895946,
          -0.65870273,
          -0.375034,
          0.2843396,
          0.15977804,
          0.19188903,
          -0.21202044,
          0.3175827,
          -0.5010152,
          -0.5668614,
          -0.45511705,
          0.9679463,
          -0.6690791,
          0.5764162,
          0.22148694,
          -0.5404154,
          -0.07973064,
          0.67371196,
          -0.7335758,
          0.8943613,
          -0.77949935,
          -0.039302643,
          -0.81606185,
          -0.17618583,
          0.05506599,
          0.48092565,
          -0.1929009,
          -0.86225307,
          0.92924476,
          0.49924123,
          0.37530807,
          -0.28730056,
          0.036480363,
          0.4832888,
          0.55154294,
          -0.47639892,
          -0.35155034,
          0.16957143,
          0.03797111,
          -0.5690338,
          0.57233137,
          0.118040666,
          -0.917272,
          -0.51963043,
          -0.98567706,
          -0.6364402,
          0.51155835,
          -0.46107462,
          -0.51821524,
          -0.2696053,
          0.1715987,
          0.52553415,
          -0.16327134,
          0.7434245,
          0.29785642,
          -0.12108064,
          0.11630329,
          0.7342757,
          -0.46471226,
          -0.041622028,
          -0.872834,
          0.7825264,
          -0.020873232,
          0.5764627,
          -0.8606954,
          -0.6678591,
          0.5247554,
          -0.20860967,
          -0.053804222,
          0.09751118,
          -0.7463021,
          0.88434535,
          -0.8305042,
          -1.0145965,
          -0.97895724,
          0.65647596,
          -0.9252445,
          0.95195174,
          -0.29835063,
          0.52342606,
          0.31801417,
          -0.46225667,
          0.64603084,
          0.14081025,
          -0.06762836,
          0.918659,
          0.45832872,
          -0.177562,
          0.101069145,
          -0.25781292,
          -0.12700243,
          0.24293159,
          -0.89209384,
          0.9237319,
          -0.3777572,
          -0.73377454,
          -0.25578663,
          0.36199436,
          0.861949,
          -0.40105173,
          0.45100558,
          -0.37750047,
          0.8797105,
          0.33822992,
          0.9309612,
          0.18722807,
          -0.65312964,
          0.020685513,
          0.90158796,
          -0.36831942,
          -0.07652736,
          0.7109071,
          0.691749,
          0.33503893,
          -0.32260218,
          -0.53155917,
          0.70115,
          0.8003388,
          0.5259456,
          -0.3142672,
          -0.725949,
          -0.7516945,
          -0.9234786,
          -0.74741864,
          -0.27464858,
          -0.55388176,
          0.00078718155,
          -0.16486531,
          0.9428365,
          0.10089711,
          0.8966978,
          -0.16791794,
          -0.9776586,
          -0.28131482,
          -0.5184403,
          0.6401325,
          -0.40242267,
          -0.45981053,
          0.7849196,
          -0.4270017,
          -0.6372149,
          -0.8404373,
          -0.23956974,
          0.6995355,
          -0.37719092,
          0.1963141,
          0.2051225,
          0.45411256,
          0.45905873,
          0.88710177,
          0.5260352,
          0.8096616,
          0.70384103,
          -0.6295845,
          0.30491942,
          -0.689499,
          0.749099,
          0.0033215638,
          -0.7554677,
          0.30005583,
          0.37508515,
          -0.75705105,
          0.5247121,
          -0.8979403,
          0.3234768,
          -0.8226697,
          0.29278684,
          -0.20205343,
          0.9052068,
          0.5778463,
          0.33917063,
          0.004462229,
          0.07557679,
          -0.63532025,
          0.94727767,
          -0.22141047,
          0.27915198,
          0.96007705,
          -0.67255473,
          0.71141624,
          -0.9324573,
          -0.008216523,
          0.86714756,
          -0.25846347,
          -0.35690653,
          0.47427645,
          0.66054463,
          -0.28753367,
          -0.3987556,
          -0.6333745,
          0.27822733,
          -0.49926057,
          0.7341529,
          -0.9033581,
          0.8289329,
          0.48473787,
          -0.5977701,
          0.436281,
          0.58561033,
          0.98661983,
          0.52737916,
          0.7614325,
          0.24527206,
          0.14593874,
          -0.6685686,
          -0.58382654,
          0.76692337,
          0.4119993,
          -0.47750095,
          -0.63316685,
          -0.22893447,
          0.6573143,
          0.2068264,
          0.21544544,
          0.69724077,
          -0.56187767,
          -0.99011767,
          -0.22688219,
          0.36847675,
          -0.5832619,
          -0.9537457,
          0.5490984,
          0.008127689,
          0.97893155,
          -0.66454065,
          0.426499,
          -0.3849265,
          0.7675429,
          0.25892735,
          0.8630294,
          0.3656944,
          0.32250273,
          -0.68273914,
          0.8865959,
          0.80515516,
          0.11076807,
          0.23044683,
          0.5001535,
          0.016470697,
          0.20715989,
          0.7594689,
          -0.14934404,
          0.79248923,
          -0.8000521,
          0.7193399,
          -0.7516618,
          -0.61825174,
          -0.10663724,
          -0.31943172,
          -0.67834055,
          -0.052054644,
          -0.23360252,
          0.9942943,
          -0.23477006,
          0.36632705,
          -0.18884648,
          -0.52241826,
          0.47136566,
          0.10540274,
          0.19224566,
          0.44544753,
          -0.94974214,
          0.16224805,
          0.11776844,
          0.13183874,
          -0.84824485,
          -0.3556896,
          0.28375036,
          -0.8202159,
          0.41287476,
          0.30350772,
          -0.32423624,
          -0.429038,
          0.6679926,
          -0.9727051,
          0.10937178,
          -0.4752071,
          0.6988976,
          0.75332284
        ],
        [
          -0.13808155,
          0.97656894,
          0.71581256,
          -0.57587886,
          0.68507373,
          -0.36986232,
          -0.79135823,
          0.9778414,
          0.46510983,
          0.6448597,
          0.058645725,
          0.40717256,
          -0.8503519,
          -0.19296025,
          -0.9287905,
          -0.74791473,
          0.7762457,
          0.027434587,
          -0.45387733,
          0.60489357,
          0.35980284,
          0.42444634,
          -0.7369751,
          0.06495881,
          0.9495089,
          0.99888015,
          -0.6133379,
          0.093360424,
          0.57722867,
          -0.643216,
          0.1569351,
          -0.18749356,
          0.17839074,
          -0.90353334,
          -0.78692454,
          -0.3999263,
          -0.47553736,
          0.059026673,
          0.5045707,
          0.11561533,
          -0.85410035,
          -0.31177887,
          -0.88013744,
          0.43587884,
          -0.56852275,
          -0.07090939,
          0.74220157,
          0.7915111,
          -0.16336282,
          0.5236303,
          -0.31946158,
          -0.05192829,
          -0.9079485,
          0.7192633,
          -0.32361805,
          -0.06436968,
          -0.9814117,
          0.49674177,
          0.92734945,
          0.48231512,
          -0.5371252,
          0.7903391,
          -0.77916956,
          -0.6764031,
          0.36020714,
          0.4756712,
          0.542223,
          -0.8868248,
          0.26081136,
          0.20954064,
          -0.6443023,
          0.33083364,
          -0.7439736,
          0.9869308,
          0.5097493,
          0.5269753,
          0.072537154,
          -0.65038186,
          0.16822197,
          0.5049126,
          -0.71374977,
          0.43050757,
          0.68211377,
          0.5703163,
          -0.789207,
          0.015403986,
          -0.16344428,
          0.5118795,
          0.21752042,
          -0.69138944,
          -0.54513687,
          0.9770149,
          -0.9940333,
          -0.34657165,
          -0.6166514,
          -0.76718646,
          -0.31707984,
          -0.5942412,
          -0.43163025,
          -0.49587607,
          -0.3884568,
          0.9620939,
          0.057523653,
          0.36631614,
          -0.2743466,
          -0.13849641,
          0.90852964,
          0.6819258,
          -0.809239,
          0.73069966,
          0.7625039,
          -0.5818696,
          0.58170235,
          -0.27214187,
          -0.12879321,
          0.050156564,
          -0.5997061,
          -0.07747347,
          0.925141,
          -0.60785836,
          -0.47030005,
          0.6887886,
          0.36657694,
          0.5929774,
          -0.5817655,
          -0.61114806,
          -0.77431023,
          -0.43086466,
          0.3774814,
          0.40943038,
          0.043783497,
          0.47069257,
          -0.31838682,
          0.77725905,
          -0.16920455,
          0.1080492,
          0.915813,
          0.45902112,
          -0.7262421,
          -0.84149474,
          0.52335024,
          -0.53043723,
          0.09153318,
          0.4560565,
          -0.06937407,
          0.0008730582,
          0.3946792,
          0.64502954,
          -0.8638696,
          -0.13558769,
          -0.5775365,
          0.9269978,
          0.63354295,
          -0.8917141,
          0.45293108,
          0.6762399,
          -0.2922219,
          -0.60903066,
          -0.6182937,
          0.8824815,
          -0.23212764,
          0.63004094,
          -0.79935724,
          0.887183,
          0.7618448,
          0.7323381,
          0.51811844,
          0.2668984,
          -0.042778254,
          0.9431408,
          0.4914764,
          0.4976217,
          0.71090084,
          0.7854577,
          -0.5598921,
          -0.11375268,
          -0.003955852,
          0.77180046,
          -0.5693046,
          -0.869591,
          0.35928574,
          -0.87962216,
          -0.41553947,
          0.44379497,
          -0.61414635,
          -0.8589599,
          0.3692852,
          -0.22640319,
          -0.901552,
          -0.05126286,
          0.73274475,
          0.86233056,
          0.21745756,
          0.801539,
          -0.6261955,
          0.038223486,
          -0.03335664,
          -0.4664298,
          -0.80670935,
          -0.78080875,
          -0.7116115,
          -0.11784882,
          -0.7888725,
          0.34767824,
          0.761505,
          -0.091572866,
          0.45413205,
          0.80298924,
          0.24979135,
          -0.21166931,
          0.683251,
          0.5193175,
          -0.92205703,
          -0.47565335,
          0.40019664,
          0.2079734,
          0.92650217,
          -0.57306874,
          -0.3327639,
          -0.11264873,
          0.23965703,
          0.66505647,
          0.46262863,
          -0.77655333,
          0.309721,
          0.3249211,
          0.39722568,
          -0.15958178,
          0.67568946,
          -0.3864586,
          -0.45255494,
          0.74818087,
          -0.052219674,
          0.24743341,
          -0.5867391,
          0.4326103,
          -0.9201027,
          -0.44810146,
          0.16163713,
          -0.04804846,
          0.030601684,
          0.43190777,
          0.23406458,
          0.7507577,
          -0.30383927,
          0.64931726,
          0.008897573,
          -0.6105815,
          -0.7364146,
          -0.49264476,
          -0.83061546,
          -0.1605166,
          0.76284325,
          0.021689473,
          -0.8801372,
          -0.72654724,
          0.4358829,
          -0.29667726,
          -0.92047536,
          -0.23668325,
          -0.6139726,
          0.14899436,
          -0.70738894,
          0.54903126,
          -0.8365217,
          0.9076209,
          0.7574936,
          0.38096154,
          -0.7047885,
          -0.88028795,
          0.7880021,
          0.5249841,
          -0.88130087,
          0.9058491,
          0.85459477,
          -0.35289064,
          0.26845893,
          0.031926665,
          -0.80377746,
          -0.5587943,
          -0.92918515,
          0.34545827,
          -0.69973886,
          0.056747667,
          0.92494243,
          -0.39234415,
          -0.53991985,
          -0.7859018,
          0.1965007,
          -0.64043087,
          -0.22405298,
          -0.47700626,
          0.04471807,
          -0.7618381,
          0.5081397,
          0.18830264,
          -0.9192583,
          -0.67701393,
          0.12723212,
          0.8469161,
          -0.28908405,
          -0.78017694,
          0.029649124,
          -0.11873257,
          -0.87895334,
          0.29828897,
          -0.40000528,
          -0.923262,
          -0.8769344,
          0.38694665,
          -0.79200685,
          0.28064016,
          0.81938434,
          -0.24960268,
          0.5171828,
          0.66810745,
          0.25555372,
          -0.9039197,
          0.5133838,
          -0.26446488,
          0.90908766,
          -0.45020735,
          0.42203712,
          -0.34505758,
          0.4642968,
          -0.32791337,
          0.42102394,
          -0.006089702,
          -0.3272519,
          -1.0440605,
          -0.3739413,
          -0.4612101,
          -0.92793787,
          0.33018434,
          -0.45684236,
          -0.2798381,
          -0.7088453,
          0.5260318,
          -0.0967477,
          -0.87824976,
          -0.66490316,
          0.79671943,
          0.49039418,
          0.012410257,
          0.7393364,
          0.86279726,
          0.30251196,
          -0.9755948,
          -0.10484973,
          -0.03868662,
          0.16078596,
          0.017941719,
          0.5450464,
          0.07383445,
          0.92618465,
          -0.5621013,
          -0.52422595,
          -0.79628754,
          -0.18392418,
          -0.2295521,
          -0.17743585,
          -0.607446,
          -0.49194473,
          0.71887296,
          0.6606218,
          0.7994665,
          -0.9864856,
          0.63499856,
          -0.9285432,
          -0.33572903,
          -0.74758226,
          -0.48696256,
          0.91163486,
          0.084453225,
          0.89169127,
          -0.60106164,
          -0.03426758,
          0.6525828,
          0.78995776,
          0.7669688,
          -0.22852366,
          0.39179042,
          0.27664024,
          -0.1340532,
          -0.6065182,
          -0.25389627,
          -0.93688226,
          -0.8247146,
          -0.4793958,
          -0.40421808,
          -0.76532286,
          0.26967385,
          -0.504793,
          -0.79528487,
          0.8169978,
          -0.273204,
          0.7221845,
          0.7891475,
          -0.95583713,
          0.07890943,
          0.7500128,
          0.8925165,
          -0.84255886,
          0.19527669,
          0.3893269,
          0.048305288,
          -0.7990576,
          0.15706487,
          0.6242028,
          0.15418074,
          -0.19876091,
          -0.57242393,
          0.38477054,
          0.14315523,
          -0.60190696,
          -0.10914218,
          0.31697932,
          0.092850275,
          0.23925084,
          -0.411148,
          -0.50577396,
          0.8562212,
          0.2435421,
          -0.31554538,
          -0.71358943,
          0.8102353,
          0.23611169,
          -0.44280893,
          -0.08202996,
          -0.24543968,
          1.0043765,
          0.080636695,
          -0.53310025,
          -0.5424701,
          0.8799544,
          -0.8443906,
          0.32819968,
          0.5910412,
          -0.85330534,
          -0.5416251,
          -0.3419252,
          -0.82428056,
          -0.08808473,
          -0.12591359,
          -0.9056043,
          0.6682465,
          0.7122137,
          -0.71639645,
          -0.8108921,
          -0.34893024,
          -0.96988565,
          -0.67425203,
          0.47908056,
          0.77356106,
          0.9184541,
          -0.35039747,
          0.9381366,
          0.57511467,
          -0.5413305,
          -0.12146817,
          -0.79899436,
          -0.23547634,
          0.7906967,
          -0.4363002,
          0.29418048,
          0.3776167,
          -0.00085588865,
          0.96427834,
          -0.70561177,
          -1.0356035,
          0.80395746,
          -0.32017362,
          0.9713267,
          0.8539294,
          0.22028603,
          0.31446558,
          -0.41279972,
          -0.47216052,
          -0.45654118,
          -0.85608715,
          -0.1559567,
          -0.23710218,
          -0.3181377,
          -0.24330023,
          0.6181534,
          0.64675236,
          0.8286807,
          0.03078936,
          0.3011153,
          -0.009008499,
          -0.7997744,
          0.04945021,
          -0.39602986,
          0.2897097,
          -0.43063968,
          0.56403255,
          0.8153183,
          0.5289464,
          0.5285126,
          -0.106356606,
          -0.15365562,
          -0.37738186,
          -0.25255483,
          0.95566535,
          0.10099129,
          -0.17015786,
          -0.89970934,
          0.5452118,
          -0.24504231,
          0.71182334,
          0.037140705,
          -0.7781158,
          0.7393999,
          -0.9968163,
          0.45449272,
          -0.034586333,
          0.7490889,
          -0.7712787,
          -0.9487909,
          -0.19175062,
          -0.72526735,
          -0.614434,
          -0.9024574,
          0.67050993,
          0.56157964,
          -0.9602934,
          0.62372756,
          -0.82633585,
          0.11703299,
          0.017522883,
          0.893378,
          -0.6678072,
          -0.7129265,
          -0.722237,
          0.15055566,
          -0.97026986,
          -0.7212476,
          -0.7488654,
          -0.19442254,
          0.12039052,
          -0.60416347,
          0.48897794,
          -0.20969296,
          -0.8196849,
          -0.35321546,
          -0.6496827,
          -0.75381684,
          -0.36126027,
          0.8457398,
          0.3628995,
          -0.80566305,
          -0.77781314,
          0.9926861,
          0.4467577,
          0.3927175,
          -0.7979474,
          0.883158,
          0.9994037,
          0.0070783696,
          -0.91048443,
          0.6363702,
          0.7772474,
          -0.8777915,
          0.30442,
          0.76340896,
          -0.49067554,
          -0.5936952,
          -0.7545841,
          0.17789353,
          -1.0377451,
          -1.0487517,
          -1.0132003,
          0.2391113,
          0.5567857,
          0.18679191,
          -0.4852488,
          0.11257261,
          -0.5389121,
          0.8257764,
          0.14070368,
          -0.32347727,
          0.9016507,
          -0.6846465,
          -0.55545795,
          0.003670343,
          0.83094686,
          0.85846835,
          0.53035504,
          -0.66174996,
          0.23187275,
          0.06128364,
          0.87355965,
          -0.7680822,
          0.37155008,
          -0.36069724,
          0.11546412,
          -0.7061652,
          -1.0442667,
          -0.6443104,
          -0.60292536,
          0.70906395,
          -0.9748622,
          -0.41676325,
          0.72936743,
          0.7268477,
          0.69472146,
          0.79789335,
          -0.12922174,
          -0.24363713,
          -0.55805266,
          -0.63541985,
          0.06353707,
          -0.90664303,
          0.73360676,
          0.13663061,
          0.42107877,
          -0.52459896,
          -0.4755206,
          -0.6507338,
          -0.51188076,
          -0.14829355,
          -0.085066326,
          -0.9747666,
          -0.41168353,
          -0.48935813,
          -0.14527455,
          -0.9349161,
          0.15622029,
          0.4484438,
          -0.6789678,
          0.85431033,
          -0.14685966,
          0.8766146,
          0.8410543,
          -0.13130677,
          0.8928593,
          0.8419656,
          0.18916021,
          -0.6588123,
          0.34899467,
          -0.3459868,
          0.15962403,
          -0.44344896,
          -0.36293605,
          0.20194244,
          0.88110447,
          -0.35733387,
          0.9452282,
          -0.022347901,
          0.25089717,
          0.02445667,
          0.94916415,
          0.6793897,
          0.038838066,
          -0.27949485,
          -0.39380145,
          -0.38489765,
          -0.12363078,
          0.84107,
          -0.47576433,
          -0.91953075,
          0.60472083,
          0.537642,
          -0.24772672,
          0.16161744,
          0.43179834,
          -0.7456579,
          0.83010757,
          -0.9590138,
          0.9804669,
          0.9432355,
          0.8773148,
          -0.1377604,
          0.7843008,
          -0.22195706,
          -0.005039684,
          -0.21428734,
          -0.35216337,
          0.9775049,
          0.76513547,
          -0.16939795,
          -0.3828892,
          0.021886745,
          -0.55306774,
          -0.50231534,
          -0.31625965,
          0.8912667,
          0.6350926,
          -0.72997123,
          -0.38155794,
          -0.22869928,
          -0.6424697,
          0.0826754,
          0.2657498,
          -0.39426094,
          -0.4300639,
          -0.67500013,
          0.7767712,
          0.18706673,
          -0.98604786,
          0.41228998,
          0.7560382,
          0.6796297,
          0.22720413,
          -0.5733979,
          -0.81251425,
          -0.7236719,
          0.7993818,
          -0.66403407,
          -0.48300058,
          0.4123601,
          -0.8309007,
          0.19528154,
          -0.6678094,
          -0.5737007,
          0.88752604,
          0.30327305,
          -0.07162708,
          -0.26043397,
          0.20382194,
          -0.94553965,
          -0.03483321,
          0.3451973,
          0.1945353,
          -0.42746696,
          -0.92634004,
          -0.078373894,
          -0.6091372,
          0.5932406,
          -0.40437388,
          0.36676002,
          0.73108214,
          0.99204475,
          -0.3812973,
          -0.82616764,
          0.09159551,
          -0.30495837,
          -0.5810832,
          0.26485404,
          0.6218355,
          -0.5549736,
          -0.92881626,
          0.027203996,
          0.96576226,
          0.94564354,
          -0.19960636,
          0.79470605,
          -0.25344244,
          0.50695026,
          -0.3899977,
          0.98079807,
          -0.40242615,
          0.8780428,
          -0.46904787,
          0.245314,
          -0.35995674,
          0.9382292,
          -0.9851483,
          0.19398546,
          0.5716535,
          -0.4819622,
          -0.72739923,
          -0.85835993,
          -0.72240204,
          -0.99484605,
          -0.9265711,
          0.8218739,
          0.28477803,
          -0.09657256,
          0.5003571,
          -0.41665792,
          -0.43555856,
          -0.8827857,
          -0.12319639,
          0.88025,
          -0.9911788,
          -0.7718589,
          -0.79014707,
          -0.15271504,
          -0.7781018,
          0.49365866,
          -0.95502377,
          0.10738754,
          0.61583996
        ],
        [
          -0.8536079,
          -0.47850788,
          0.66838527,
          0.2768389,
          -0.77740407,
          0.87143695,
          -0.3384509,
          0.19935405,
          0.41595078,
          0.8534092,
          0.80849147,
          0.5169375,
          -0.26658988,
          0.091367826,
          0.7288952,
          0.45145655,
          -0.13161004,
          -0.9507022,
          -0.9057087,
          0.30301607,
          -0.9176787,
          -0.12530291,
          0.27416408,
          -0.9842948,
          -0.8044487,
          -0.37348568,
          0.5115695,
          -0.98241985,
          0.2532668,
          -0.27072418,
          0.8124943,
          -0.9474783,
          -0.20442714,
          -0.5261924,
          -0.98499155,
          -0.15895206,
          0.07390885,
          0.36602503,
          -0.33218387,
          0.6981274,
          0.92025226,
          -0.70618194,
          0.4732548,
          -0.98944986,
          -0.32262963,
          -0.9136323,
          -0.5085613,
          -0.79012275,
          0.20897779,
          0.13019706,
          0.8895377,
          0.17974448,
          -0.9392779,
          0.29649282,
          -0.014868975,
          0.7476574,
          0.37721217,
          -0.28093565,
          -0.960096,
          -0.52973396,
          0.06658476,
          0.6370608,
          -0.5141534,
          -0.16145293,
          -0.77826196,
          -0.0074286927,
          0.05748212,
          0.14512755,
          0.39681673,
          -0.46076176,
          0.517525,
          0.17134824,
          -0.49959433,
          -0.28803685,
          0.12472221,
          0.78799355,
          -0.22240226,
          0.23728497,
          0.8924784,
          0.1276595,
          0.13977674,
          0.19469248,
          -0.53920233,
          0.00872314,
          0.26504338,
          0.38822246,
          0.44614533,
          0.29031134,
          0.69731295,
          0.8769968,
          0.95375884,
          0.69170195,
          0.56805915,
          -0.8863547,
          -0.7366347,
          0.9701391,
          -0.47765455,
          -0.4495994,
          -0.80833054,
          -0.61682415,
          0.4901265,
          -0.7759797,
          0.37246904,
          -0.4157189,
          0.7192154,
          0.35515565,
          0.74852633,
          0.5043412,
          0.120837085,
          0.5270739,
          -0.8457455,
          -0.7680484,
          0.08006203,
          0.591926,
          -0.04263117,
          0.12451506,
          0.38092577,
          0.53004056,
          -0.08498428,
          -0.35874674,
          0.35870388,
          -0.12847792,
          0.80497587,
          -0.64326495,
          -0.79266655,
          -1.0046036,
          0.15346494,
          0.30164966,
          0.1852439,
          -0.8083762,
          0.89040726,
          0.8815044,
          0.998583,
          -0.2176056,
          -0.98311013,
          0.33787918,
          0.08151816,
          -0.7889176,
          -0.50573593,
          0.9192159,
          0.379169,
          -0.8392304,
          -0.8411107,
          -0.40493292,
          -0.8622828,
          -0.34172618,
          0.44447196,
          -0.36443657,
          -0.06206779,
          -0.9450336,
          0.25424677,
          -0.032463387,
          0.80247366,
          -1.0088539,
          -0.1418421,
          -0.13873772,
          0.5147409,
          0.4688426,
          -0.04502634,
          0.2730852,
          -0.081185326,
          0.89742094,
          0.53080523,
          0.2735966,
          0.7587706,
          0.7918374,
          0.8088798,
          -0.36738846,
          -0.15960729,
          -0.37254122,
          -0.96168137,
          0.52204055,
          -0.9913416,
          0.11041662,
          -0.77987266,
          0.65412545,
          -0.9201013,
          -0.5578523,
          -0.9821093,
          -0.21822783,
          0.1054854,
          -0.9672178,
          -0.80182403,
          -0.4064877,
          -0.34378025,
          -0.9499847,
          -0.813136,
          -0.25312343,
          -0.52580816,
          -0.51131326,
          -0.38934958,
          0.3995056,
          -0.54568756,
          -0.32473224,
          0.93302923,
          -0.5143991,
          0.7835376,
          -0.6064943,
          0.23999412,
          0.094926454,
          0.52118295,
          -0.93866485,
          -0.20789891,
          0.021320127,
          -0.56962687,
          -0.9145371,
          -0.8920461,
          0.43255484,
          -0.7331695,
          -0.52075297,
          -0.347686,
          -0.09831047,
          -0.2559216,
          -0.22939809,
          -0.64998966,
          -0.9246867,
          0.25626984,
          -0.16227977,
          -0.54474354,
          -0.6973841,
          -0.4846896,
          -0.41520488,
          0.58758235,
          0.4180125,
          -0.12955888,
          -0.122115865,
          0.80476475,
          0.5072454,
          -0.65368325,
          0.49677938,
          -0.10590032,
          0.3907461,
          0.5644168,
          0.45807981,
          0.40276733,
          0.4902922,
          -0.5068616,
          -0.524958,
          0.011230971,
          -0.17988859,
          -0.24244033,
          0.8004588,
          -0.63809353,
          -0.27693102,
          -0.69367564,
          0.21092795,
          0.8510079,
          0.009668384,
          0.44525212,
          0.7701322,
          -0.12757051,
          -0.18124473,
          -0.020434678,
          -0.7399686,
          0.4379058,
          -0.24737124,
          0.6042821,
          -0.8079264,
          -0.8314426,
          0.86969745,
          -0.18362667,
          0.7668945,
          0.5914439,
          -0.36308,
          -0.60273147,
          0.5526001,
          0.36292574,
          -0.18620962,
          0.36765316,
          0.38811138,
          0.63729745,
          -0.15723743,
          0.5561222,
          -0.06877546,
          0.097555675,
          0.6643315,
          0.13717291,
          -0.12902723,
          -0.5570303,
          0.005441564,
          0.7471626,
          -0.81507283,
          0.023014892,
          0.90333,
          -0.56563497,
          0.4181698,
          0.40060335,
          0.4949439,
          0.4137627,
          0.6152212,
          -0.4481933,
          0.0826738,
          0.4246929,
          -0.10950312,
          -0.31281412,
          0.15310822,
          -1.0593001,
          0.66048145,
          0.28956932,
          0.12590878,
          0.82629025,
          0.71632034,
          0.030332476,
          -0.29224518,
          -0.8933583,
          0.5257127,
          -0.9366745,
          -0.4095179,
          0.8883493,
          0.48277575,
          0.52180177,
          0.56784916,
          0.6560011,
          0.3685603,
          0.6499741,
          -0.30244222,
          0.3019442,
          0.89881736,
          1.01653,
          0.32570267,
          -0.2805635,
          0.54790354,
          0.06167084,
          0.08833144,
          -0.008094168,
          0.31330138,
          0.7825886,
          0.8470443,
          0.49368757,
          -0.74316114,
          0.82539344,
          0.8154703,
          -0.23477972,
          -0.8558684,
          0.79369354,
          -0.65260845,
          -0.94966143,
          -0.4352303,
          0.18336906,
          0.7216429,
          -0.528784,
          0.4735614,
          -0.15383649,
          -0.6270283,
          -0.07874981,
          0.9219936,
          -0.8384931,
          0.3543656,
          -0.3039771,
          -0.10843255,
          0.49870846,
          0.47877952,
          0.4896336,
          -0.24462566,
          0.5428791,
          0.7681217,
          0.843254,
          0.14453113,
          -0.3297207,
          0.32822266,
          0.84413564,
          0.95854294,
          -0.7707376,
          -0.3779455,
          -0.7874117,
          0.7679289,
          -0.7300765,
          -0.96176225,
          -0.8056151,
          0.7125303,
          -0.6592145,
          1.0117389,
          0.99692374,
          -0.058158286,
          0.51011014,
          0.383092,
          0.24658911,
          -0.26503402,
          -0.56567276,
          0.81459755,
          0.55634576,
          -0.45223165,
          -0.35233966,
          -0.27648228,
          -0.35089976,
          0.7294774,
          0.44164473,
          -0.21582393,
          0.93521345,
          0.8694878,
          -0.7379125,
          -0.95791143,
          -0.28333476,
          -0.24275193,
          0.5218323,
          -0.42594072,
          0.902374,
          0.58076787,
          0.69045454,
          -0.3105551,
          0.8534511,
          0.9534511,
          -0.24233063,
          -1.0379326,
          -0.7390108,
          0.35210204,
          -0.27557296,
          0.015970554,
          0.5334589,
          0.70825773,
          0.661732,
          -0.064611934,
          0.5443553,
          -0.3151303,
          -0.782112,
          -0.58242166,
          -0.9699461,
          -0.6308115,
          0.37362888,
          -0.78740525,
          -0.87873644,
          -0.668235,
          -0.73471564,
          -0.70226634,
          -0.6254125,
          0.6920914,
          -0.96705604,
          -0.44540113,
          -0.9861769,
          -0.5208378,
          0.7884946,
          0.8945414,
          -0.72195864,
          0.11776751,
          0.5061012,
          0.7551572,
          -0.41887516,
          0.44849905,
          0.20125319,
          -0.33194944,
          -0.7041233,
          0.63135105,
          0.35445026,
          -0.24296188,
          -0.09882158,
          -0.4694725,
          0.7954539,
          -0.72851735,
          -0.763646,
          -0.24266839,
          0.76255727,
          -0.9355887,
          -0.51457566,
          -0.7173444,
          -0.99801075,
          -0.8548865,
          0.15110083,
          -0.018889187,
          0.5131376,
          0.43789762,
          0.58622706,
          0.8868428,
          -0.6117989,
          -0.069236144,
          0.80901957,
          -0.14516178,
          -0.93170416,
          0.09714828,
          -0.75910616,
          0.112809695,
          0.27664256,
          -0.56928414,
          0.7383723,
          -0.87206554,
          0.24809006,
          -0.15003228,
          0.21744728,
          -0.18242441,
          -0.63986367,
          0.19293718,
          -0.29442495,
          0.5488974,
          -0.717923,
          0.27140465,
          0.3663926,
          0.58320284,
          1.0278397,
          -0.12581591,
          -0.03915396,
          -0.43232056,
          -0.008801624,
          -0.2828615,
          -0.53814393,
          0.052604288,
          -0.35984844,
          -1.0050839,
          0.4750178,
          0.41289732,
          -0.2647662,
          0.43180078,
          0.37463868,
          0.2596994,
          -0.75418735,
          0.02496745,
          -0.9962789,
          0.98477745,
          0.693768,
          0.5206027,
          0.43868724,
          -0.15883666,
          0.9494451,
          -0.8832555,
          0.11512503,
          0.649054,
          0.3888846,
          0.8382865,
          0.9852713,
          0.9083698,
          -0.8878212,
          -0.84873426,
          0.23158082,
          -0.9382715,
          -0.00079806685,
          -0.3299192,
          -0.7213084,
          0.7290565,
          -0.5889223,
          0.56373197,
          -0.122838564,
          -0.57445,
          0.89882123,
          0.06100102,
          -0.17011237,
          -0.8715783,
          0.839788,
          -0.46831957,
          0.14185907,
          -0.9472635,
          0.29714572,
          0.35827616,
          -0.008533491,
          0.23266663,
          -0.650597,
          0.76353854,
          1.0027711,
          -0.82157147,
          0.045279827,
          0.6835179,
          -0.21882519,
          -0.2573927,
          -0.15998317,
          -1.0469362,
          0.49294674,
          0.12738381,
          0.21272689,
          -0.040408406,
          -0.6814098,
          0.37922817,
          -0.9126962,
          -0.47208294,
          0.22769165,
          -0.63099045,
          0.20466226,
          -0.42907733,
          0.56820685,
          -0.60691977,
          -0.53860664,
          0.7226724,
          0.49910876,
          0.31681475,
          0.88866645,
          0.8964772,
          -0.8649148,
          0.9764123,
          -0.9228247,
          0.5755076,
          -0.15634097,
          -0.64013416,
          -0.82333577,
          0.6691591,
          0.6190356,
          0.25599483,
          0.02388841,
          0.45247716,
          -0.7126822,
          0.71991134,
          -0.75041384,
          0.8602643,
          -0.4748814,
          0.65866935,
          0.24674706,
          0.28916982,
          0.4945521,
          0.564985,
          0.90437764,
          0.12329597,
          0.9249316,
          -0.20531957,
          -0.8014644,
          0.52645415,
          -0.23374142,
          -0.7155005,
          0.5098276,
          -0.6029222,
          -0.49159753,
          0.7526534,
          -0.62801033,
          0.23639445,
          -0.5338636,
          -0.18249324,
          0.62168735,
          0.8376332,
          -0.91056836,
          -0.9634169,
          0.99424595,
          -0.3112831,
          -0.47576058,
          -0.5384714,
          0.47517672,
          0.78882366,
          0.5690728,
          0.5062515,
          -0.815218,
          0.026943358,
          0.36155033,
          0.3008445,
          -0.63194317,
          0.92612016,
          0.5071149,
          0.8026515,
          0.504228,
          0.58451706,
          -0.9640999,
          -0.043643344,
          -0.38525853,
          -0.66456544,
          -0.6657127,
          -0.0051503894,
          0.9161656,
          -0.27790198,
          -0.06284,
          0.3556872,
          0.81561345,
          -0.82209885,
          -0.5608704,
          -0.45744228,
          0.42049563,
          0.6980249,
          -0.02884484,
          0.2242761,
          -0.6867766,
          -0.8802991,
          -0.31905064,
          -0.2443197,
          -0.22485639,
          0.6468631,
          -0.6197767,
          -0.2719328,
          -0.41907102,
          0.94971627,
          -0.37815127,
          -0.53861344,
          0.6919395,
          0.30718338,
          -0.009301682,
          0.74116844,
          -0.2957616,
          0.20815353,
          -0.65810937,
          -0.52993524,
          0.76716423,
          -0.84431946,
          -0.88019943,
          0.7837099,
          -0.6005626,
          0.41304117,
          0.62169904,
          -0.4270004,
          -0.6144195,
          -0.13248645,
          0.12752718,
          0.42125693,
          -0.1656615,
          0.6355685,
          -0.89839226,
          0.29708287,
          0.98365223,
          -0.9085778,
          0.6595807,
          -0.77624494,
          0.124833845,
          -0.5245135,
          -0.4053119,
          -0.97753215,
          0.38574427,
          0.028786942,
          0.55416507,
          0.415928,
          -0.34101543,
          0.08138645,
          -0.56976104,
          0.78383815,
          0.019264432,
          -0.19007674,
          0.019533485,
          0.9509021,
          0.32456553,
          -0.40820953,
          0.23525374,
          -0.855042,
          -1.0037613,
          -0.37063104,
          0.51892394,
          0.88769144,
          0.40118143,
          -0.08555866,
          0.67743677,
          -0.43162552,
          -0.022873467,
          0.8733569,
          -0.93925047,
          -0.87217516,
          0.24356091,
          0.4792491,
          -0.41199082,
          -0.41567016,
          0.101577945,
          0.7516122,
          0.23698056,
          0.7528688,
          0.6942265,
          0.90814817,
          -0.043099884,
          0.7684128,
          0.16733612,
          0.49756113,
          0.1697252,
          0.3308423,
          -0.7682794,
          -0.94480336,
          -0.5017469,
          0.11695096,
          0.6342969,
          -0.74577475,
          -0.4388023,
          -0.9487111,
          -0.74609536,
          -0.6456918,
          -0.9771017,
          0.18041147,
          0.82466245,
          0.29513496,
          0.47095168,
          -0.15945673,
          -0.40385914,
          -0.35613465,
          -0.72157085,
          0.12589157,
          0.9156265,
          0.22221088,
          -0.44852495,
          0.6485826,
          -0.221809,
          0.5480774,
          0.23142833,
          -0.95011055,
          -0.6696533,
          -0.58206224,
          0.082022965,
          -0.20840411,
          -0.7138657,
          -0.52782375,
          -0.99059904,
          0.06341454,
          0.52049816,
          0.2510719,
          0.84841794,
          -0.13729072,
          0.07063052,
          0.59670615,
          0.75672567,
          0.6410692,
          -0.35393572,
          -0.779493
        ],
        [
          0.7456312,
          -0.40204656,
          -0.45651507,
          0.2777481,
          0.373981,
          0.45045698,
          0.85405934,
          -0.23773706,
          0.546319,
          -0.15329456,
          0.31345797,
          -0.08473694,
          0.6403347,
          -0.14254744,
          0.31723055,
          0.3844578,
          -0.24032068,
          -0.8571688,
          0.97229517,
          0.43151033,
          0.6565993,
          -0.7932466,
          0.13730466,
          -0.32380533,
          0.78330195,
          -0.124340296,
          0.17588902,
          0.5667758,
          -0.7243358,
          0.65279925,
          -0.215868,
          0.26292312,
          -0.93921053,
          0.9656513,
          -0.40747666,
          -0.034918547,
          -0.8730733,
          -0.02380838,
          0.9345931,
          -0.27982828,
          -0.7995559,
          0.86851346,
          -0.7769374,
          0.7319904,
          0.4056056,
          -0.9461861,
          0.0958721,
          -0.9245833,
          0.39094338,
          -0.53852713,
          -0.18564507,
          -0.72718775,
          0.41470325,
          -0.7110394,
          0.8809196,
          0.37651098,
          -0.5462339,
          0.40385664,
          0.32932734,
          0.6423259,
          -0.26437035,
          -0.07329166,
          0.863656,
          -0.026871677,
          0.7556926,
          0.43214262,
          -0.66084766,
          0.261999,
          -0.86435467,
          -0.97011614,
          -0.77018815,
          -0.73936373,
          0.31081417,
          -0.6981324,
          0.15042084,
          -0.5508931,
          0.83383846,
          -0.784382,
          -0.77499104,
          -0.16817592,
          0.19429809,
          -0.5315965,
          0.50744784,
          -0.58868456,
          0.57631123,
          -0.1484927,
          0.18551931,
          0.72471505,
          0.51896703,
          0.5153362,
          0.09625965,
          0.578833,
          0.057761133,
          0.5046711,
          0.798348,
          -0.30890793,
          -0.7980895,
          -0.71852237,
          0.9242002,
          -0.51446354,
          0.3929427,
          0.9489024,
          0.2959703,
          0.8978361,
          0.56393594,
          -0.56249356,
          -0.4429239,
          0.6493054,
          1.0018175,
          -0.6693962,
          0.77128625,
          0.07579851,
          -0.08294475,
          0.82194686,
          0.60737395,
          0.9253706,
          0.91003287,
          -0.1578243,
          0.908341,
          0.10831228,
          -0.3127477,
          0.9764893,
          -0.02070149,
          -0.7708978,
          0.6875456,
          0.63938564,
          0.8455912,
          -0.74280906,
          0.17922942,
          0.7417837,
          0.18759976,
          -0.78104156,
          -0.09302172,
          -0.2274283,
          -0.54634714,
          0.49817887,
          -0.81317705,
          0.773918,
          -0.7221222,
          -0.9345841,
          0.4663136,
          -0.9863862,
          0.56787765,
          0.22065124,
          0.7507158,
          -0.9879932,
          0.88205004,
          0.39654097,
          0.025583714,
          -0.18415357,
          0.6220543,
          0.9476166,
          -0.49503157,
          -0.4949065,
          0.14914715,
          -0.16939564,
          0.74796563,
          0.45212305,
          0.8577305,
          0.8856518,
          0.79371136,
          0.1871598,
          0.7167156,
          -0.8159966,
          -0.92459875,
          0.9215411,
          0.99393904,
          0.19438937,
          0.37334895,
          0.92074734,
          -0.022181766,
          0.07908528,
          0.42522258,
          -0.63794535,
          0.7029786,
          -0.83013433,
          0.7389439,
          0.61817074,
          -0.97873485,
          0.85630745,
          0.620943,
          -0.0806421,
          -0.67967415,
          0.9345104,
          0.21755114,
          -0.8215857,
          -0.55724424,
          -0.57017475,
          -0.41337526,
          0.89700425,
          0.7477017,
          0.7653411,
          -0.49348313,
          0.3106633,
          -0.9690818,
          -0.017969739,
          -0.6447321,
          -0.899689,
          -0.5348291,
          -0.2872673,
          0.39212632,
          -0.15097895,
          0.09935603,
          -0.26905206,
          0.5538922,
          0.2402059,
          -1.0200217,
          -0.2089782,
          0.45845717,
          0.9180418,
          -0.32541338,
          0.8830894,
          -0.6768101,
          -0.6491213,
          0.2629327,
          -0.77857286,
          0.73656714,
          0.039321113,
          -0.36220202,
          0.77002805,
          -0.42128083,
          -0.7605247,
          0.41077772,
          -0.6233697,
          0.88947415,
          -0.29537764,
          -0.8424069,
          -0.35381517,
          -0.5092242,
          0.9035738,
          0.3077827,
          -0.36618754,
          0.85382825,
          -0.86145246,
          -0.23553464,
          0.6919201,
          -0.7498992,
          0.50336623,
          0.4648627,
          -0.11864742,
          -0.40761778,
          0.1470331,
          -0.8130843,
          -0.105614066,
          0.08291413,
          -1.0054972,
          -0.92214084,
          -0.31005663,
          -0.66597474,
          0.68613577,
          0.86378294,
          0.20210496,
          0.5008537,
          -0.24547979,
          0.5611339,
          -0.25869423,
          -0.39541122,
          0.30993336,
          0.4565005,
          -0.9950987,
          0.5589759,
          0.03224975,
          -0.8288769,
          -0.16303305,
          -0.883224,
          0.24872711,
          0.78655636,
          -0.10038915,
          -0.9139056,
          -0.25772324,
          -1.041856,
          -1.0472878,
          -0.85426384,
          0.25231022,
          0.36807337,
          0.57422245,
          0.7381273,
          0.39145166,
          -0.34994236,
          0.6908749,
          0.80551106,
          0.34073436,
          -0.07520795,
          0.11837179,
          -0.8401869,
          -0.44664297,
          0.049468707,
          -0.75260454,
          -0.008967531,
          0.53259957,
          0.10498772,
          -0.76567227,
          -0.6054404,
          0.8174714,
          -0.5121884,
          -0.8286501,
          0.8541972,
          0.28066856,
          -0.7855221,
          -0.9428386,
          0.8548478,
          -0.71048224,
          -0.4713374,
          -0.89853626,
          -0.13394468,
          0.83508754,
          0.0069741537,
          -0.75480884,
          0.50223094,
          0.82961863,
          -0.81167215,
          0.09950354,
          -0.03534228,
          -0.7357054,
          0.89099115,
          -0.96057266,
          0.4880467,
          0.44912565,
          0.48650035,
          0.22686093,
          -0.31772617,
          -0.16991036,
          -0.07384447,
          0.557001,
          0.43924242,
          0.08370662,
          -0.029164435,
          -0.32362416,
          -0.09201485,
          0.3927142,
          0.06659858,
          -0.25475112,
          0.26137722,
          0.95155513,
          0.8073396,
          -0.17803188,
          -0.47858706,
          0.6834927,
          -0.89571434,
          -0.35384753,
          -0.9418182,
          0.44700226,
          0.059020635,
          -0.1625707,
          0.2921936,
          -0.6289952,
          -0.34948507,
          0.4441841,
          -0.27763107,
          -0.21408574,
          -0.50370044,
          0.17954214,
          -0.5381351,
          0.89893043,
          1.0448545,
          0.9920851,
          -0.14072418,
          0.4377464,
          -0.472564,
          -0.81196034,
          0.7124809,
          -0.4644475,
          0.93454957,
          -0.58640766,
          -0.30445445,
          0.055036496,
          0.9397449,
          -0.5479468,
          -0.082798555,
          -0.21749003,
          0.43732902,
          -0.29140207,
          0.7972763,
          0.988669,
          0.980521,
          0.872537,
          -0.84356725,
          0.7868883,
          -0.11334993,
          -0.80638033,
          0.71198535,
          1.0208158,
          -0.6690731,
          0.5004687,
          0.35456634,
          -0.44793114,
          -0.7838452,
          -0.41657826,
          -0.48192093,
          -0.53593004,
          0.663842,
          -0.415085,
          -0.66024125,
          -0.62029946,
          -0.12573093,
          -0.44798422,
          -0.076489896,
          0.19062904,
          0.25960952,
          0.75450855,
          -0.875286,
          0.37808123,
          -0.63673395,
          -0.11947013,
          0.40442905,
          0.34654087,
          -0.58768475,
          0.6585659,
          0.63033366,
          0.10901285,
          -0.33090955,
          -0.49425113,
          -0.60684824,
          -0.5325754,
          -0.58501345,
          -0.88699347,
          0.67949146,
          0.7854281,
          -0.37301874,
          0.9688383,
          -0.015697002,
          -0.31993482,
          -0.91287327,
          0.015557483,
          -0.63777906,
          0.49949318,
          0.43561107,
          0.038469736,
          -0.18080574,
          0.70526385,
          0.12469441,
          -0.77061844,
          -0.10252192,
          0.1950961,
          -0.11790068,
          0.63383514,
          0.045485802,
          -0.8668959,
          0.91278654,
          -0.1661723,
          0.16942485,
          0.9206709,
          0.9042018,
          0.9398329,
          -0.68276083,
          -0.53999907,
          0.17247969,
          0.5859566,
          -0.261643,
          -0.002386062,
          0.6503228,
          -0.1625703,
          0.9466345,
          -1.000647,
          -0.4752443,
          -0.058395047,
          -0.3141155,
          0.07116335,
          0.47962978,
          -0.5586919,
          -0.80143267,
          0.88714224,
          -0.16570048,
          0.45325315,
          -0.18745305,
          -0.7560887,
          0.8928023,
          -0.2583161,
          -0.6154123,
          -0.8426083,
          -0.6255869,
          0.47765678,
          0.25873837,
          -0.69413495,
          -0.58123904,
          0.59538,
          -0.4995767,
          0.7666645,
          -0.38679647,
          -0.16769946,
          0.29878795,
          -0.15661977,
          0.10798162,
          0.6659348,
          -0.6057089,
          0.32932538,
          -0.79317504,
          0.73045963,
          0.082638055,
          0.12309742,
          0.598268,
          0.35889047,
          0.6438119,
          0.82239056,
          -0.21424434,
          0.7029088,
          -0.15819907,
          -0.8278448,
          0.7781373,
          0.6951701,
          -0.48838446,
          -0.7902254,
          -0.19040996,
          0.63396394,
          0.6626029,
          0.6871422,
          -0.060425285,
          0.17275955,
          -0.85426754,
          0.24524598,
          -0.81042683,
          -0.16238393,
          -0.817878,
          0.37754446,
          0.45322347,
          0.923587,
          0.20113929,
          0.38434586,
          0.6130316,
          -0.14460318,
          0.833155,
          -0.74728817,
          -0.33467755,
          -0.06986923,
          0.07989355,
          0.5349196,
          0.030685045,
          0.44171116,
          0.044483297,
          -0.17652722,
          0.10576139,
          -0.6089163,
          0.5300573,
          0.16407868,
          0.5890108,
          -0.06603035,
          -0.4142134,
          -0.37647042,
          0.39099,
          -0.5496566,
          0.7798527,
          -0.51121205,
          0.33687726,
          -0.7591791,
          -0.16290452,
          0.9070378,
          0.75612664,
          -0.12636378,
          -0.81385946,
          -0.8916415,
          0.031649806,
          0.5605153,
          0.22413842,
          0.17972049,
          0.62385124,
          0.9119306,
          0.07231962,
          -0.9449798,
          -0.8761776,
          -0.6212993,
          -0.63424873,
          -0.7519898,
          -0.13576461,
          -0.41731024,
          -0.0073406682,
          -0.43294305,
          0.77501875,
          -0.806555,
          -0.7336428,
          0.30049953,
          -0.4963302,
          -0.8706278,
          0.54149085,
          -0.058307093,
          -0.039591357,
          0.69360715,
          -0.04726973,
          0.24682873,
          -0.27216902,
          0.3670398,
          -0.5406433,
          -0.7604513,
          -0.38638428,
          0.6029456,
          0.58307034,
          -0.8854843,
          0.21382639,
          -0.2208047,
          0.36266676,
