{
  "layer_sizes": [
    784,
    64,
    16,
    10
  ],
  "data": [
    {
      "weights": [
        [
          -0.92331696,
          -0.80050945,
          -0.44818103,
          0.44956172,
          -0.10964227,
          -0.7629237,
          -0.0463084,
          -0.14157188,
          -0.25123,
          -0.81231844,
          0.9889194,
          0.9640888,
          -0.2670835,
          -0.42472696,
          -0.5373397,
          -0.8787589,
          0.38835347,
          0.5819458,
          -0.21204066,
          0.62752795,
          -0.2324338,
          0.8931682,
          -0.6754137,
          0.09630871,
          -0.07958007,
          -0.3262937,
          -0.1495974,
          -0.8600179,
          -0.61414874,
          -0.852901,
          -0.3211372,
          -0.7273301,
          -0.19543898,
          0.32403657,
          0.8695867,
          0.5624215,
          -0.08663023,
          -0.5033191,
          0.662092,
          0.24735998,
          0.6716539,
          -0.38136867,
          -0.51372594,
          -0.32128718,
          0.76407534,
          0.43874612,
          -0.56354046,
          -0.44812444,
          -0.18973228,
          -0.16636652,
          0.56392676,
          0.64781296,
          0.5563669,
          -0.65317106,
          0.21959364,
          -0.88447976,
          0.89956856,
          0.6629064,
          -0.61164117,
          -0.5000145,
          -0.28181478,
          0.42194122,
          0.3725627,
          -0.16874549,
          0.7165023,
          -0.30221513,
          -0.09960238,
          0.7169175,
          -0.8131715,
          0.90756595,
          -0.022308148,
          0.8041553,
          0.61502075,
          -0.24579166,
          -0.21778384,
          -0.14615385,
          -0.6646811,
          0.9874915,
          0.9804258,
          -0.17056547,
          -0.8668982,
          0.27942798,
          -0.589216,
          0.7500578,
          -0.4068874,
          0.837808,
          -0.5887171,
          0.41687825,
          0.82637686,
          0.6197088,
          -0.57818025,
          0.3030505,
          0.92337155,
          -0.5520869,
          0.9816124,
          0.05763602,
          0.070325464,
          0.57483584,
          -0.0675184,
          0.5666338,
          0.08704082,
          -0.92807084,
          -0.55886936,
          0.07271615,
          0.23277874,
          -0.75079215,
          0.81120485,
          0.48568445,
          0.88843995,
          -0.42718822,
          -0.7744609,
          0.3852917,
          0.021667123,
          -0.2526337,
          -0.6237812,
          -0.23676449,
          0.80813646,
          0.012991845,
          -0.38850376,
          -0.8092433,
          0.3879825,
          -0.966635,
          -0.15409505,
          0.2780264,
          0.000995595,
          0.32566836,
          -0.78298336,
          -0.86856246,
          -0.8697089,
          0.54943043,
          0.80686706,
          0.40265635,
          0.72870797,
          0.7737406,
          0.5644942,
          0.98446506,
          -0.22604428,
          0.8849873,
          0.79189533,
          -0.060430743,
          0.40482295,
          0.35234916,
          0.11055356,
          0.8458036,
          -0.47269237,
          0.64381945,
          -0.88184726,
          0.82043236,
          0.46306178,
          -0.222054,
          -0.47031367,
          0.55250657,
          -0.7534942,
          -0.62265944,
          -0.40825695,
          -0.47737578,
          0.11126029,
          -0.6769567,
          0.9591613,
          0.8259426,
          0.013111762,
          0.26581734,
          -0.6293875,
          -0.09553959,
          0.6191739,
          -0.67085624,
          -0.023619976,
          -0.6097308,
          0.37836897,
          -0.48182324,
          -0.53289634,
          0.80003375,
          0.015551529,
          -0.012566575,
          -0.5167183,
          -0.22593078,
          -0.14922982,
          0.9879798,
          0.45971802,
          -0.4891733,
          -0.5526305,
          -0.34000537,
          0.4093231,
          0.012534557,
          0.5538548,
          -0.95200276,
          0.8223634,
          -0.45116097,
          -0.20915811,
          0.4253466,
          -0.5676269,
          0.7566851,
          -0.008647958,
          0.20010145,
          0.8609713,
          0.01196079,
          -0.27266192,
          0.96916234,
          0.84699017,
          0.3002493,
          -0.7491109,
          0.8161257,
          -0.32072064,
          -0.70924944,
          0.71399206,
          0.65368867,
          0.46754158,
          0.382697,
          -0.89033777,
          -0.71932596,
          -0.5124109,
          -0.12450174,
          -1.0746784,
          -0.6872427,
          -0.9582947,
          -0.6245473,
          -0.568978,
          0.24486889,
          0.068898104,
          -0.866318,
          0.8083659,
          -0.42607346,
          0.91244745,
          -0.14781827,
          -0.4479184,
          -0.13264519,
          0.8443124,
          0.18040507,
          0.16644217,
          0.22835928,
          0.38308933,
          -0.040420655,
          -0.2988228,
          0.37084562,
          -0.88934153,
          -0.6898482,
          -0.8397907,
          0.3203916,
          0.813144,
          0.5758516,
          0.8012657,
          0.45683554,
          -1.019156,
          0.9393975,
          -0.71841955,
          0.031414278,
          -0.7511536,
          -0.7018895,
          -0.75302297,
          0.94236577,
          0.747995,
          0.97369564,
          0.54363996,
          -0.39391124,
          -0.5308353,
          0.70919955,
          -0.29787132,
          -0.9541905,
          -0.05737921,
          0.82326305,
          0.4317102,
          0.8457537,
          0.06995879,
          0.22834344,
          0.8766555,
          -0.18672031,
          0.84113824,
          -0.0550741,
          -0.30718923,
          0.21835878,
          -0.50324655,
          0.3087755,
          0.30084237,
          -0.24830611,
          0.34458345,
          -0.50143844,
          -0.35118002,
          0.9301242,
          0.99280864,
          0.7860864,
          -0.56855226,
          0.29974484,
          0.1920159,
          -0.13700202,
          -0.87457573,
          0.3127567,
          0.49038568,
          0.5859265,
          -0.5925613,
          0.26889196,
          0.17253454,
          0.51825345,
          -0.23498882,
          0.50292736,
          0.54403454,
          -0.641024,
          -0.49548778,
          0.04299879,
          -0.7684817,
          0.6876748,
          0.35598254,
          -0.3065562,
          -0.20689155,
          0.9366205,
          0.8469607,
          -0.70824325,
          0.18278857,
          -0.6017605,
          -0.82618856,
          0.03178027,
          0.4630102,
          -0.2648318,
          0.02474,
          -0.20970413,
          -0.9729545,
          0.122812055,
          -0.5557388,
          -0.006534213,
          -0.33877742,
          0.6919966,
          0.20551914,
          -0.3798086,
          0.8035524,
          -0.47414917,
          0.5165398,
          0.8351347,
          -0.5289717,
          0.24987662,
          -0.302352,
          0.1934052,
          -0.7161372,
          -0.24237125,
          0.6526008,
          -0.09040313,
          -0.1129226,
          0.032452025,
          -0.7430497,
          -0.6330282,
          -0.8394075,
          -0.32056382,
          -0.7942175,
          0.13241208,
          0.27458972,
          0.5760242,
          -0.8442851,
          0.38214746,
          0.8866822,
          -0.75547206,
          -0.73440045,
          -0.2596767,
          -0.6525806,
          -0.93469954,
          0.3371523,
          -0.21998322,
          0.6857767,
          0.088464536,
          -0.7437349,
          0.22615881,
          -0.038234513,
          0.444107,
          0.82866186,
          -0.35556352,
          -0.23200081,
          0.3419455,
          0.09051654,
          0.29410994,
          -0.16388527,
          -0.52837294,
          -0.63555914,
          0.960255,
          -0.8820602,
          -0.10469522,
          -0.40438968,
          0.15770857,
          0.40916422,
          -0.3560029,
          0.6778107,
          -1.017365,
          0.6647503,
          0.14026353,
          -0.939922,
          0.7452148,
          -0.9170742,
          -0.93441015,
          0.083827086,
          1.016769,
          0.4825619,
          -0.15313643,
          -0.1999732,
          -0.37233287,
          0.41256946,
          0.14734638,
          -0.1363294,
          0.6864259,
          0.31873468,
          -0.6513134,
          0.83894426,
          -0.3926894,
          0.43860507,
          1.0119797,
          -0.47372395,
          0.053861044,
          0.45258358,
          -0.55242676,
          -0.27852926,
          0.14427386,
          0.8041472,
          -0.5018423,
          0.5388128,
          0.85222584,
          -0.9006449,
          -0.15293752,
          0.5962159,
          0.9252752,
          0.23923461,
          -0.8680012,
          0.06434202,
          -0.59612644,
          -0.56621087,
          0.5007124,
          -0.35307947,
          0.26332524,
          0.3574423,
          0.27399552,
          0.1608921,
          -0.9070559,
          -0.933916,
          -0.4154526,
          0.6947221,
          0.4277545,
          -0.4164475,
          -0.41960827,
          -0.4465498,
          -0.15078205,
          0.8645409,
          -0.32097375,
          0.79590213,
          -0.12887979,
          -0.7839696,
          0.87489384,
          0.47546262,
          -0.55350554,
          -0.5870685,
          0.2956271,
          -0.03919698,
          -0.38399503,
          0.48456028,
          -0.1713517,
          0.31715414,
          -0.07955588,
          0.17625655,
          -0.23109446,
          0.7177369,
          0.10613061,
          0.6437536,
          0.92948383,
          -0.87794524,
          -0.9215832,
          0.2719882,
          0.37994805,
          -0.36974862,
          -0.654144,
          -0.4937217,
          0.6301703,
          0.5953019,
          0.27961874,
          0.7947264,
          0.17447172,
          0.193767,
          0.75615585,
          -0.2652775,
          0.4826913,
          0.87346107,
          -0.08120193,
          -0.06245989,
          -0.57516164,
          0.9051045,
          -0.44620946,
          0.47500235,
          0.57440263,
          -0.0735211,
          0.764733,
          0.6582238,
          1.072656,
          0.77120906,
          -0.97126096,
          -0.5505407,
          0.32628766,
          0.05968804,
          -0.6693309,
          0.3373686,
          -0.4662241,
          -0.38313183,
          -0.19803673,
          0.38283288,
          -0.65088856,
          0.39424303,
          0.045421436,
          0.40210858,
          -0.44528833,
          -0.11197198,
          -0.583018,
          0.8160244,
          0.7905181,
          -0.0030710932,
          -0.1396479,
          0.68397456,
          0.811202,
          -0.32004428,
          -0.71434593,
          -0.24964353,
          0.078466974,
          -0.23835768,
          -0.55604845,
          -0.71385723,
          0.6940031,
          -0.8110769,
          0.35726056,
          -0.4818871,
          0.82153857,
          -0.79250926,
          -0.17877173,
          -0.70385426,
          -0.092744626,
          -0.24246177,
          -0.30078053,
          0.6502948,
          0.53322524,
          -0.5878717,
          -0.37890577,
          -0.53919005,
          -0.07249711,
          0.57862425,
          -0.5263797,
          -0.07422917,
          0.99961406,
          -0.58075166,
          0.0900482,
          0.022194592,
          -0.24855217,
          0.68274635,
          0.1399476,
          -0.8943475,
          -0.24651998,
          -0.48017797,
          -0.12265152,
          -0.48462415,
          0.2807973,
          0.034895767,
          -0.8069837,
          -0.48789224,
          0.92127234,
          1.0257334,
          -0.83459574,
          -0.9251883,
          0.53705347,
          -0.17526188,
          0.058369238,
          0.08800202,
          0.094041765,
          0.59697723,
          -0.43726075,
          0.1836373,
          -0.6929473,
          0.47102636,
          -0.6885688,
          0.38143745,
          -0.35094374,
          0.20630771,
          -0.30507475,
          0.31267068,
          0.14592496,
          0.6157745,
          0.07045837,
          -0.47957534,
          0.56123835,
          0.7404471,
          0.05396137,
          0.21657635,
          0.6720474,
          0.09848319,
          -0.88535005,
          0.9674252,
          0.6238301,
          0.28094977,
          0.7636222,
          0.34304538,
          -0.6558126,
          0.57828677,
          -0.13962258,
          0.17533372,
          -0.95653963,
          -0.301205,
          -0.10882102,
          -0.686096,
          0.9277348,
          0.7666331,
          -0.8787,
          0.14018941,
          -0.29661322,
          0.17722994,
          -0.9277397,
          -0.008657744,
          0.3577442,
          0.5331539,
          -0.8909434,
          0.49953082,
          0.79123753,
          -0.8691084,
          0.92330694,
          0.23056236,
          0.8243243,
          -0.6321559,
          0.8140649,
          -0.45085916,
          -0.22957371,
          0.7131967,
          0.8501772,
          -0.05055647,
          -0.6772668,
          -0.6781754,
          -0.7317795,
          0.970289,
          -0.089688815,
          0.03669655,
          -0.72844326,
          -0.6442005,
          -0.58202845,
          0.8739414,
          -0.5471078,
          0.72891587,
          0.13992286,
          0.06373363,
          0.9312783,
          0.14689668,
          0.30663732,
          0.9456425,
          0.31666642,
          -0.1490928,
          0.237336,
          -0.27864227,
          -0.26340553,
          -0.67890155,
          -0.6972089,
          0.9451227,
          0.8542769,
          -0.47421277,
          -0.5484386,
          -0.48357183,
          -0.6624686,
          -0.62073547,
          0.33636025,
          -0.8132917,
          0.16891064,
          -0.40208665,
          0.56537896,
          -0.13514683,
          0.40245825,
          0.6589982,
          0.20699686,
          0.21574032,
          -0.730579,
          0.6445811,
          -0.07074239,
          0.4172928,
          -0.9939932,
          -0.4048693,
          0.8934719,
          0.2589354,
          -0.8706694,
          0.35361424,
          0.71235096,
          0.94689584,
          -0.63112307,
          -0.5173408,
          -0.7067371,
          -0.63798356,
          0.58716303,
          -0.7185211,
          0.49179858,
          -0.86927986,
          -0.74453926,
          0.5069089,
          -0.621746,
          -0.95787615,
          0.542861,
          -0.17043968,
          -0.10311903,
          0.8791593,
          0.5877483,
          0.77604717,
          -0.03269117,
          -0.049152464,
          -0.60368025,
          0.675723,
          0.045441736,
          -0.53422177,
          -0.663012,
          -0.15353481,
          0.9282119,
          0.13576388,
          -0.52441585,
          0.44289115,
          0.19479312,
          -0.65858597,
          -0.3819276,
          0.8645603,
          -0.42464727,
          -0.1670874,
          0.31834784,
          0.76736534,
          -0.5114426,
          -0.29128695,
          0.66940635,
          0.81389445,
          -0.40453744,
          -0.9834487,
          0.802755,
          0.22415978,
          -0.6770242,
          -0.19250405,
          0.16025779,
          0.38146275,
          0.3010341,
          -0.6437511,
          0.6868492,
          0.66476035,
          0.6380305,
          -0.121406436,
          0.21365535,
          -0.43169332,
          0.28685108,
          0.8008177,
          0.01409723,
          0.5611573,
          -0.4893724,
          0.4030139,
          0.7547896,
          -0.6703359,
          -0.11087052,
          -0.79248303,
          0.7655661,
          -0.8072938,
          -0.3704314,
          0.14667884,
          0.6355864,
          -0.31981304,
          0.05210647,
          -0.4189428,
          -0.30719733,
          -0.91428846,
          0.5552639,
          -0.3970736,
          -0.5843981,
          0.09343529,
          0.7843132,
          -0.5832807,
          0.11015928,
          -0.59823835,
          0.39169574,
          -0.26563194,
          0.99692476,
          0.19670433,
          0.4998826,
          0.58190674,
          0.7375887,
          -0.79156244,
          -0.9866585,
          0.2378747,
          -0.012894819,
          -0.8738045,
          0.51490945,
          0.47058466,
          0.4710906,
          0.44058502,
          0.3260029,
          -0.1947984,
          -0.8948043,
          0.122517146,
          -0.9750896,
          0.3864758,
          0.37115133,
          -0.08090675,
          -0.5635681
        ],
        [
          -0.29128873,
          0.31679237,
          0.9423046,
          0.08032417,
          -0.20286107,
          0.00012123585,
          -0.8474014,
          -0.11994982,
          -0.55590165,
          0.98120606,
          0.69481575,
          -0.9238956,
          0.14376405,
          0.16267844,
          0.55585384,
          -0.8248062,
          0.8398924,
          -0.6575128,
          -0.40833127,
          0.23116267,
          0.2692126,
          -0.3381034,
          -0.07917273,
          0.12143493,
          0.1553067,
          0.106704354,
          -0.9749551,
          -0.90264165,
          0.018458366,
          0.703702,
          -0.18435085,
          0.58032,
          0.66126305,
          -0.4322278,
          -0.08862029,
          -0.33734939,
          -0.26228064,
          -0.24955599,
          0.36280861,
          -0.25504783,
          0.8878657,
          -0.20480043,
          -0.3253102,
          0.22779539,
          0.026153414,
          -0.20642033,
          -0.9663263,
          0.83714676,
          0.964364,
          0.7141133,
          0.28567958,
          -0.66035265,
          0.06981051,
          -0.30604577,
          0.118219376,
          0.81329954,
          0.18852317,
          -0.640478,
          0.24620758,
          0.8367252,
          -0.0004743082,
          0.10696852,
          -0.9712245,
          -0.41642827,
          -0.65715045,
          0.802467,
          0.9873395,
          0.7388153,
          0.6925768,
          0.9049711,
          0.4245983,
          0.25748545,
          0.013436601,
          0.9809652,
          -0.2713167,
          0.6472223,
          0.68077767,
          0.14569163,
          0.7861909,
          0.69637984,
          0.31636086,
          0.1763303,
          -0.47594845,
          -0.63739955,
          -0.2499057,
          0.5582348,
          -0.973349,
          -0.5075319,
          -0.51004237,
          -0.17940551,
          -0.96380293,
          -0.96176666,
          -0.776379,
          0.6671983,
          0.6854183,
          -0.87428355,
          0.7328287,
          -0.8751837,
          -0.09211338,
          0.16893883,
          0.3130046,
          0.40587348,
          0.3172243,
          -0.35128248,
          0.9662258,
          0.7307659,
          -0.6098769,
          -0.2610177,
          0.61358917,
          0.0464128,
          0.7321701,
          -0.039334774,
          0.450994,
          -0.8799852,
          0.34131366,
          -0.49770322,
          -0.7994897,
          -0.07410517,
          -0.8357666,
          -0.35520762,
          0.42333642,
          0.88428247,
          0.7905034,
          0.064814195,
          -0.07947827,
          -0.9211229,
          0.7493976,
          0.39890796,
          0.91001266,
          -0.17247304,
          0.8987001,
          -0.5932554,
          -0.46415463,
          -0.08629203,
          0.32526374,
          -0.06334409,
          -0.3262474,
          0.65662646,
          0.86806047,
          0.38789666,
          -0.54546547,
          0.80000734,
          -0.6614108,
          0.9549968,
          0.7599409,
          -0.23949265,
          0.8701823,
          -0.6043675,
          -0.00045663933,
          -0.4455175,
          0.35061124,
          0.8242498,
          0.16706993,
          0.13853054,
          -0.73147637,
          -0.40091962,
          0.082412615,
          -0.10020374,
          0.699492,
          0.18256038,
          -0.82062256,
          -0.12926982,
          0.11774844,
          0.22696024,
          -0.434851,
          -0.4011443,
          0.5603744,
          0.9333676,
          -0.53707504,
          -0.9483698,
          -0.88249505,
          0.77799064,
          -0.30528516,
          0.2324583,
          0.01589399,
          -0.008607936,
          0.93829864,
          -0.01432482,
          -0.6074515,
          -0.480773,
          -0.46012378,
          -0.6953112,
          0.83870727,
          -0.089551374,
          -0.26786333,
          -0.14376862,
          0.44960412,
          -0.37507373,
          -0.47812244,
          0.658225,
          0.32707506,
          0.028858948,
          0.83527666,
          0.06934613,
          0.4807612,
          -0.43698245,
          -0.7392692,
          0.41594723,
          0.3501043,
          -0.67010754,
          -0.6008841,
          -0.5188985,
          0.63354313,
          -0.86309147,
          0.06580467,
          -0.9135319,
          0.34030122,
          0.61095685,
          0.7738141,
          0.5050263,
          0.59594893,
          0.2521075,
          -0.4358285,
          -0.9225463,
          -0.1812208,
          -0.8953403,
          -0.14810526,
          -0.08097139,
          -0.30695295,
          0.76859635,
          -0.42123437,
          -0.215943,
          0.7735874,
          -0.3863496,
          0.6381192,
          -0.561252,
          -0.8564766,
          0.6827308,
          0.536125,
          0.9578452,
          0.68948954,
          -0.40715644,
          0.28419986,
          -0.7158186,
          -0.086315155,
          -0.49578834,
          0.9740271,
          0.026772877,
          -0.587555,
          0.17606452,
          -0.3439898,
          -0.70777845,
          -0.25196958,
          -0.35798708,
          -1.0101612,
          -0.49518895,
          -0.5877844,
          -0.24086894,
          0.7615039,
          0.25894165,
          0.7995106,
          0.67644835,
          -0.94403315,
          -0.36346635,
          0.18964174,
          -0.52280545,
          -0.43833178,
          0.31876615,
          -0.3473042,
          -0.50519377,
          0.24276178,
          -0.045256495,
          0.24891554,
          0.48247087,
          -0.817159,
          0.738054,
          -0.20644984,
          0.55765754,
          0.24204287,
          -0.15274572,
          -1.0667562,
          -0.22374244,
          0.8582415,
          -0.7548148,
          0.20788969,
          -0.5443978,
          0.72157395,
          -0.9028409,
          -0.8976912,
          -0.20707756,
          0.116504,
          0.56904626,
          0.74662054,
          0.023184245,
          0.39926848,
          0.8826327,
          -0.20011304,
          0.7126764,
          0.14771952,
          0.57567674,
          0.34687424,
          0.31418297,
          -0.86279243,
          -0.05867913,
          0.4935803,
          -0.4383156,
          -0.24418904,
          0.7349181,
          -0.85789555,
          -0.55527484,
          0.7145363,
          -0.6538624,
          -0.27337843,
          -0.016939942,
          -0.67985636,
          0.24123949,
          -0.37448022,
          0.8063293,
          -0.8390291,
          0.6741237,
          0.8579566,
          -0.5622182,
          0.67108154,
          -0.80186534,
          0.9049353,
          -0.79275084,
          -0.25356492,
          -0.59352964,
          -0.5229117,
          0.908724,
          -0.6273311,
          0.09436717,
          0.16317937,
          0.4863264,
          0.3431908,
          0.7464329,
          0.11733221,
          0.28052118,
          0.04353393,
          0.10844504,
          -0.3466348,
          -0.7640002,
          0.62667763,
          -0.47670993,
          -0.56885284,
          -0.4230736,
          -0.9020888,
          -0.33774093,
          -0.6537251,
          -0.2324213,
          0.83167994,
          0.031159442,
          0.2564341,
          0.3868823,
          0.46573853,
          0.70387465,
          0.42877027,
          -0.67634344,
          1.0536706,
          -0.6941093,
          0.94345593,
          0.7976703,
          -0.058666147,
          0.18914141,
          -0.050185002,
          -0.44627205,
          0.075608745,
          0.27529553,
          0.74411803,
          0.67251635,
          -0.12853344,
          -0.03617075,
          -0.51686054,
          0.5244409,
          -0.8392942,
          -0.42303485,
          0.8676341,
          0.15389894,
          0.42056164,
          -0.009046658,
          0.21916722,
          0.5524038,
          -0.7791211,
          -0.57351637,
          0.36503288,
          0.13612418,
          -0.2900738,
          -0.23252746,
          -0.66985154,
          0.11429593,
          0.49225837,
          0.596899,
          -0.17544134,
          -0.87265605,
          -0.10618216,
          0.31086838,
          -0.022733515,
          0.29334053,
          -0.17166413,
          0.6329269,
          0.97210956,
          0.19172949,
          -0.03235084,
          -0.011436641,
          0.5536672,
          0.13842316,
          -0.13482337,
          -0.31277412,
          0.0952154,
          0.8495685,
          -0.91443306,
          0.037272636,
          -0.4832434,
          0.12957408,
          0.6798523,
          -0.6869927,
          -0.01310822,
          0.21326475,
          -0.31805125,
          0.8992681,
          0.45503646,
          0.4928132,
          -0.13266265,
          0.4981871,
          -0.44006944,
          0.6391516,
          -0.44684884,
          -0.44378343,
          -0.082592145,
          0.96985316,
          -0.07584456,
          -0.19040976,
          -0.11020028,
          0.6479091,
          -0.89938354,
          0.18312748,
          0.66251504,
          -0.5129296,
          -0.23698984,
          0.28479907,
          -0.8550872,
          0.8618161,
          -0.95915765,
          -0.1702908,
          -0.44186458,
          -0.10320148,
          -0.82666624,
          -0.33635882,
          1.0163057,
          -0.6783383,
          0.8725154,
          -0.7314172,
          -0.73272896,
          0.38671544,
          0.48053983,
          -0.59178036,
          0.3447505,
          -0.37052196,
          0.033188425,
          -0.027770787,
          0.38470522,
          0.53873813,
          0.44696036,
          0.69928116,
          -0.5181806,
          -0.8548976,
          -0.3710592,
          0.54262096,
          -0.8367715,
          -0.9655616,
          0.053253494,
          -0.71202886,
          -0.15710658,
          0.5518591,
          0.57414824,
          0.2712001,
          0.5504726,
          -0.11550914,
          -0.15517515,
          0.75208867,
          -0.14433405,
          -0.96359545,
          0.35509986,
          -0.9227272,
          0.9173219,
          0.5148897,
          -0.7374841,
          0.27849126,
          -0.20191202,
          -0.012298431,
          -1.0075253,
          -0.64545566,
          0.47074136,
          0.9283184,
          -0.5768832,
          0.30497634,
          -0.33183557,
          -0.79952115,
          -0.82981896,
          0.74957985,
          -0.7161159,
          -0.46521905,
          0.078058496,
          0.38522747,
          -0.45888913,
          -0.6407529,
          0.9446223,
          -1.0026106,
          0.40473035,
          -0.7493639,
          -0.82709557,
          -0.33776385,
          -0.9823685,
          0.2072181,
          0.56467795,
          -0.2836711,
          0.90420616,
          0.56749856,
          0.8301954,
          0.38438657,
          -0.48169357,
          -0.42468476,
          -0.47695902,
          -0.37749872,
          0.48415515,
          -0.19955567,
          -0.35739347,
          0.5043266,
          0.71703523,
          0.02592001,
          -0.011847266,
          -0.7906166,
          0.5133317,
          -0.037469517,
          0.81425714,
          -0.4699223,
          0.3064684,
          -0.22872536,
          0.71755934,
          0.42570263,
          -0.7998542,
          0.36291906,
          0.0595023,
          0.94753146,
          0.9390405,
          -0.46455905,
          0.6150205,
          0.046342473,
          -0.8417843,
          -0.94150704,
          0.017384345,
          0.5378126,
          -0.25603923,
          -0.4037068,
          -0.52150047,
          -0.08160802,
          0.5952146,
          -0.4355894,
          0.36739033,
          0.54157346,
          0.34454829,
          0.24515839,
          -0.017248396,
          -0.6966823,
          -1.0062718,
          -0.53197974,
          -0.112766534,
          -0.80316436,
          -0.37594008,
          0.12949687,
          -0.26546812,
          0.06954428,
          -0.26593253,
          -0.61372286,
          0.35115638,
          0.35677525,
          -0.4134732,
          0.59667355,
          -0.48762178,
          -0.35184807,
          0.80992305,
          -0.5383306,
          0.2021676,
          0.5282939,
          0.015111974,
          0.8618322,
          0.71265215,
          -0.28363076,
          -0.12094676,
          0.5069609,
          -0.73449105,
          -0.8910894,
          -0.65713185,
          0.86079973,
          -0.6435156,
          0.49800998,
          -0.2895272,
          0.34465456,
          -0.83212453,
          -0.99980944,
          0.9879186,
          -0.9582965,
          0.6404557,
          0.56669945,
          -0.6975314,
          0.87601656,
          0.3018616,
          -1.0109771,
          -0.54590565,
          -0.8095743,
          -0.22718462,
          -0.52748406,
          0.0661234,
          0.19569556,
          -0.015338044,
          0.90449446,
          0.6771668,
          0.6776694,
          -0.7328931,
          -0.22972403,
          0.15519965,
          -1.0073081,
          0.99395484,
          -0.86180323,
          0.16937444,
          -0.80556613,
          0.15650332,
          -0.29418,
          -0.7241274,
          0.98791677,
          -0.6722009,
          0.11157518,
          -0.2599041,
          0.056581743,
          0.13135526,
          0.32707527,
          0.3600967,
          -0.8140229,
          -0.5242249,
          -0.27608386,
          -0.17577645,
          -0.946579,
          0.39189312,
          -0.42850822,
          0.87077504,
          -0.069694534,
          -0.5550131,
          -0.15991858,
          -0.3646789,
          -0.7844722,
          -0.5373542,
          -0.37971675,
          0.43415216,
          -0.8424948,
          0.60908914,
          -0.71228456,
          -0.658579,
          0.7167563,
          -0.8315802,
          0.7408929,
          0.55349123,
          0.5391028,
          -0.11428882,
          -0.99838054,
          -0.6805733,
          -0.5607341,
          0.70076966,
          0.27893308,
          0.85081714,
          -0.5241913,
          0.3400645,
          0.10396102,
          -0.6389613,
          -0.5859999,
          -0.2708963,
          -0.31393883,
          0.9884791,
          -0.8646756,
          -0.9200905,
          0.3375672,
          -0.76589787,
          -0.44349837,
          -0.42601275,
          -0.67968416,
          0.39359942,
          0.031035244,
          -0.49351323,
          -0.6489872,
          0.2916397,
          0.6276991,
          -0.01667317,
          0.29467726,
          0.50936633,
          -0.4885937,
          -0.37199152,
          0.6586076,
          0.28538314,
          -0.22190143,
          0.2618898,
          0.30585325,
          0.590538,
          -0.927664,
          0.07662525,
          0.8256168,
          -0.59740955,
          -0.13398343,
          0.1492006,
          0.85730314,
          -0.26839834,
          -0.7091836,
          -0.8894694,
          0.4753195,
          -0.5799093,
          -0.9750001,
          0.5524829,
          -0.71564585,
          -0.0416372,
          0.11790862,
          0.78626674,
          -0.9865433,
          -0.2467379,
          -0.004221437,
          0.07250792,
          -0.17588939,
          -0.8888411,
          -0.31304613,
          0.22474152,
          0.2355731,
          -0.51838887,
          0.18231799,
          0.81522995,
          0.7861983,
          0.92788774,
          -0.09178787,
          -0.82884073,
          -0.32949618,
          0.57631946,
          0.40635097,
          0.6916982,
          -0.86512387,
          -0.54377496,
          -0.3339927,
          0.6414863,
          0.34898216,
          0.87819505,
          -0.48817205,
          -0.22864598,
          0.32442808,
          0.13306072,
          0.7413557,
          -0.78449374,
          0.46170422,
          0.66667193,
          0.43015367,
          0.17246728,
          0.88637006,
          -0.64883053,
          0.14770012,
          0.8834628,
          -0.15125544,
          -0.41268948,
          0.5942403,
          0.71269476,
          -0.07644964,
          -0.48517323,
          -0.54130816,
          -0.86672425,
          -0.32521594,
          0.2791208,
          -0.66206527,
          -0.1648948,
          -0.5451152,
          0.43676364,
          0.27406424,
          -0.45403963,
          -0.4961283,
          -0.60752934,
          0.5688201,
          -0.1398388,
          0.48756924,
          -0.3472069,
          -0.68439233,
          -0.23316205,
          -0.5551536,
          0.9794125,
          -0.73798054,
          -0.06927863,
          -0.11659043,
          0.17057054,
          0.640678,
          0.7945664,
          -0.21174169,
          0.6787782,
          -0.4125893
        ],
        [
          -0.75321984,
          -0.90715253,
          -0.036387563,
          -0.08295035,
          0.6711652,
          -0.45555878,
          -0.1655643,
          0.6148064,
          -0.38843858,
          0.51127636,
          -0.85900116,
          -0.66950834,
          -0.80277693,
          0.20847538,
          0.4289451,
          -0.34282708,
          -0.17363632,
          0.93649566,
          -0.08796215,
          0.2812214,
          0.222018,
          0.9621866,
          0.2478019,
          0.97155654,
          -0.009869933,
          -0.9704629,
          -0.6055033,
          0.2999053,
          -0.3796078,
          0.063949466,
          -0.31841958,
          0.07783508,
          0.061923385,
          -0.28191447,
          -0.01734531,
          -0.02089094,
          -0.26480404,
          0.04095879,
          -0.88325524,
          0.8086213,
          -0.4867844,
          0.096562274,
          0.1166649,
          0.5782572,
          0.7584233,
          0.9558043,
          0.1904863,
          -0.9949206,
          -0.33742726,
          -0.032850474,
          -0.110512696,
          -0.6471771,
          -0.83016753,
          0.7713959,
          0.9985031,
          0.6516293,
          -0.57963574,
          -0.68209887,
          0.06895149,
          -0.20918895,
          -0.26897013,
          -0.3611009,
          0.28376693,
          0.2709862,
          -0.55946463,
          0.8991651,
          -0.96065307,
          -0.6256269,
          -0.0077968882,
          -0.25405356,
          -0.23920509,
          0.717378,
          -0.33900052,
          -0.35538912,
          -0.36142227,
          -0.9685121,
          0.11918104,
          -0.34317923,
          0.73177165,
          0.24246456,
          -0.00024947774,
          -0.67818654,
          -0.2894361,
          -0.22639167,
          -0.52495897,
          0.68643343,
          -0.11440523,
          -0.7466182,
          -0.12344895,
          -0.22720322,
          0.6522954,
          -0.91671014,
          -0.2531893,
          -0.86448395,
          0.4071134,
          -0.83139414,
          -0.092048705,
          -0.7517757,
          0.55105215,
          -0.2735413,
          -0.34639713,
          0.88289666,
          -0.09613753,
          -0.7459383,
          -0.07330969,
          -0.46840918,
          0.3766367,
          0.13846129,
          0.098662004,
          0.9557104,
          -0.53632593,
          0.23172331,
          -0.076925635,
          0.16943283,
          0.8089733,
          -0.1070906,
          0.7287482,
          -0.096158504,
          -0.3047429,
          -0.92802894,
          -0.15476525,
          -0.4912773,
          0.691787,
          0.2510162,
          -0.9457936,
          0.33512822,
          0.49297622,
          -0.17178406,
          -0.25850028,
          0.46437305,
          0.3191104,
          0.91814387,
          -0.1501305,
          0.9833115,
          -0.12783386,
          -0.8883515,
          0.15204142,
          -0.90671605,
          0.40659827,
          -0.36553288,
          0.19495368,
          0.9612137,
          0.64635175,
          0.08485576,
          -0.9579657,
          0.972001,
          0.013259657,
          -0.2196961,
          -0.6906605,
          0.5482799,
          0.724229,
          0.25015235,
          0.14352104,
          0.8195252,
          -0.6140955,
          0.12419763,
          0.9381328,
          -0.94554645,
          0.79829115,
          -0.17726888,
          -0.57925695,
          0.85878444,
          -0.6107421,
          -0.7499804,
          0.13286482,
          0.37537235,
          -0.78898656,
          0.56961244,
          -0.9185927,
          0.39501897,
          0.8888011,
          0.8886694,
          0.12573253,
          -0.14316222,
          0.97034335,
          0.70191807,
          0.009063941,
          0.0867864,
          -0.86950433,
          0.87618256,
          -1.0074207,
          -0.5709615,
          -0.6806413,
          -0.4443335,
          0.73705053,
          0.47136724,
          0.47457263,
          0.07392933,
          -0.5879283,
          0.8476089,
          -0.46382844,
          0.6637483,
          -0.8210004,
          0.9437453,
          -0.57148504,
          -0.13588004,
          0.16135593,
          0.62408733,
          -0.9481227,
          0.2971663,
          -0.69945294,
          -0.15833405,
          -0.32989505,
          0.8143523,
          0.20184493,
          0.5361597,
          -0.120528474,
          -0.43802592,
          0.017437689,
          0.09283875,
          0.53118527,
          0.91912144,
          0.091224276,
          -1.0051014,
          -0.46998966,
          -0.96335316,
          -0.9305128,
          0.9231275,
          -0.45791686,
          0.5370553,
          0.8806056,
          -0.2355928,
          -0.8992767,
          -0.8481381,
          -0.29378647,
          0.66660005,
          0.16894646,
          0.68501747,
          -0.5733907,
          -0.6421223,
          0.8780198,
          0.5386992,
          -0.73746794,
          0.9761641,
          -0.30732608,
          0.07652044,
          -0.8764146,
          -0.30970347,
          0.06361305,
          -0.9567703,
          -0.52569747,
          -0.89246553,
          0.6961818,
          -0.23464772,
          0.6635644,
          0.86727405,
          -0.73536086,
          0.39235276,
          -0.25758284,
          0.8658549,
          -0.5438668,
          0.9819844,
          -0.83990103,
          -0.57751876,
          -0.43841988,
          -0.43429056,
          -0.85675865,
          0.106879056,
          0.9299048,
          -0.32735446,
          -0.8234098,
          -0.28428346,
          -0.37713462,
          -0.16841924,
          0.98369527,
          0.9503865,
          0.3523367,
          -0.5982296,
          0.025069842,
          -0.095412716,
          -0.48531878,
          0.32034567,
          -0.73107094,
          0.42308098,
          -0.8500568,
          0.088375516,
          -0.9932255,
          -0.8899839,
          -0.24741045,
          -0.5730665,
          0.24184933,
          -0.837304,
          0.60525244,
          -0.58269644,
          0.7323556,
          -0.39762965,
          -0.8009788,
          -0.8965839,
          -0.95865273,
          -0.10373853,
          0.11569491,
          0.6653404,
          -0.5251313,
          -0.4908657,
          -0.37013826,
          -0.6659035,
          -0.009165889,
          -0.7219909,
          0.7163032,
          0.348641,
          -0.75229675,
          0.18319719,
          0.69221187,
          -0.88411474,
          -0.9076893,
          -0.8106465,
          -0.12539755,
          -0.12941237,
          0.56438786,
          0.0838113,
          0.045958,
          -0.5778239,
          -0.30516723,
          -0.5637065,
          0.65932435,
          0.7903928,
          -0.9479574,
          -0.8773176,
          0.57650125,
          0.5628727,
          0.24038959,
          -1.0158702,
          -0.22242153,
          0.30861324,
          -0.8353982,
          0.563579,
          0.59141535,
          0.9139333,
          -0.13636358,
          -0.9415949,
          0.5601247,
          0.64143604,
          0.7241989,
          -0.09302765,
          0.9853686,
          0.30775282,
          0.15715092,
          0.5171883,
          -0.086775936,
          0.8317737,
          0.8022334,
          0.9119266,
          -0.661835,
          0.56183165,
          0.36833233,
          -0.14958711,
          -0.80881387,
          0.68048126,
          0.8538844,
          -0.90448964,
          0.6826171,
          -0.6253741,
          0.7282391,
          0.4928197,
          -0.3704619,
          -0.43220675,
          0.6280141,
          -0.33978212,
          -0.35461104,
          0.42673406,
          0.36565304,
          -0.0772368,
          0.04096352,
          0.8563007,
          -0.1921884,
          0.03746662,
          -0.96892434,
          0.7852029,
          -0.4840511,
          -0.75939727,
          0.8182226,
          -0.3168938,
          -0.31429327,
          -0.3133991,
          0.64777875,
          -1.0535687,
          0.011588294,
          0.49616057,
          -0.699691,
          -0.12657222,
          0.5882948,
          -0.36714765,
          0.5010096,
          -0.7685075,
          0.5753539,
          0.015450487,
          0.507147,
          0.122581884,
          0.9549681,
          0.68222034,
          -0.29037234,
          -0.8372548,
          0.37236592,
          -0.50678724,
          0.28430948,
          -0.74709266,
          -0.47976267,
          0.8828709,
          0.17946011,
          -0.96553916,
          -0.73448414,
          -0.98443615,
          -0.11177989,
          0.6261374,
          0.32368636,
          0.06163949,
          -0.5241605,
          -0.23590682,
          -0.40871087,
          0.93455076,
          -0.8574789,
          -0.499209,
          -0.0056862375,
          0.7573195,
          0.4152873,
          -0.03198503,
          0.9944335,
          -0.24922624,
          0.85756534,
          0.5919694,
          -0.54369295,
          -0.46665454,
          0.2503974,
          0.36990508,
          -0.235695,
          0.10444874,
          -0.54885054,
          0.0052533248,
          0.23951885,
          -0.9090492,
          -0.5050559,
          0.052265845,
          -0.95431894,
          -0.32053247,
          0.30148992,
          -0.48324403,
          0.09370097,
          -0.36515218,
          -0.34911138,
          -0.12372821,
          -0.5232535,
          -0.30437124,
          0.68052375,
          0.24596371,
          0.7015898,
          0.2373603,
          0.946587,
          0.041106395,
          -0.3555716,
          -0.93194306,
          -0.9018784,
          0.09956225,
          0.66572124,
          -0.23088136,
          -0.686436,
          -0.32733795,
          -0.6075282,
          -0.1472159,
          0.43703535,
          -0.13488217,
          0.13604915,
          -0.9734271,
          -0.97916704,
          0.020065825,
          -0.7867298,
          -0.5647075,
          -0.28427032,
          0.32997194,
          -0.74289775,
          -0.4743473,
          0.38705274,
          0.5324917,
          -0.38516143,
          -0.9750711,
          -0.42240292,
          -0.08736773,
          0.42067873,
          -0.6084939,
          -0.6287626,
          -0.9295081,
          -0.31794846,
          0.9685507,
          0.59451324,
          0.5504888,
          -0.663356,
          -0.72734654,
          0.41559282,
          -0.9250605,
          -0.740759,
          0.22473513,
          0.39159572,
          0.85533243,
          -0.15720332,
          -0.37835282,
          0.25483844,
          -0.8070757,
          -0.44401821,
          -1.0107338,
          -0.7820258,
          -0.96496046,
          0.6898266,
          0.08950704,
          0.24518284,
          -0.8288751,
          0.39502412,
          -0.36895987,
          -0.65863705,
          -0.3743047,
          0.28528905,
          0.16162285,
          0.1932446,
          -0.21391715,
          0.31251934,
          -0.50631887,
          -0.57153404,
          -0.45981398,
          0.9634893,
          -0.67499286,
          0.5701713,
          0.22019872,
          -0.5356955,
          -0.07447319,
          0.67828995,
          -0.73059475,
          0.8972257,
          -0.77626616,
          -0.037582587,
          -0.8147193,
          -0.17535125,
          0.05496306,
          0.48091733,
          -0.1929007,
          -0.86225307,
          0.92924833,
          0.49943435,
          0.37631574,
          -0.2861317,
          0.03832604,
          0.48503068,
          0.55085576,
          -0.4783078,
          -0.35308754,
          0.16730693,
          0.035708934,
          -0.5720471,
          0.5674734,
          0.11241711,
          -0.91729426,
          -0.514755,
          -0.98055655,
          -0.6321305,
          0.514593,
          -0.45777577,
          -0.5155222,
          -0.26824218,
          0.17257701,
          0.5259283,
          -0.16339469,
          0.7433944,
          0.2978566,
          -0.12108064,
          0.11630782,
          0.73449016,
          -0.46366385,
          -0.040360518,
          -0.87174976,
          0.7834881,
          -0.0208501,
          0.5777133,
          -0.85840094,
          -0.66662216,
          0.5254558,
          -0.21090953,
          -0.05891536,
          0.09243107,
          -0.7466778,
          0.8877492,
          -0.826635,
          -1.0110947,
          -0.9764763,
          0.6581582,
          -0.92408824,
          0.9523039,
          -0.29810914,
          0.52349395,
          0.31790206,
          -0.46228284,
          0.6460312,
          0.14081025,
          -0.06762559,
          0.9187774,
          0.45905295,
          -0.1758419,
          0.10207511,
          -0.25767928,
          -0.12657419,
          0.24512635,
          -0.88918453,
          0.9264783,
          -0.37743047,
          -0.73697215,
          -0.26080704,
          0.3593677,
          0.86297333,
          -0.39832863,
          0.45366755,
          -0.37557536,
          0.8806423,
          0.3383293,
          0.93108284,
          0.1870391,
          -0.6531084,
          0.020535534,
          0.9015164,
          -0.36832517,
          -0.07652736,
          0.7109071,
          0.691749,
          0.3351454,
          -0.32202148,
          -0.5298094,
          0.7019666,
          0.80053604,
          0.526498,
          -0.31277078,
          -0.72349846,
          -0.7501793,
          -0.92586565,
          -0.7521383,
          -0.27780145,
          -0.5532759,
          0.0049389056,
          -0.15993758,
          0.9463576,
          0.102630995,
          0.89762956,
          -0.16738547,
          -0.9777364,
          -0.2813844,
          -0.5184633,
          0.64013606,
          -0.4024379,
          -0.45981053,
          0.7849196,
          -0.4270017,
          -0.6372149,
          -0.84043664,
          -0.23912469,
          0.7010721,
          -0.3757148,
          0.19680178,
          0.20615254,
          0.45686457,
          0.46220708,
          0.8868135,
          0.5219578,
          0.80660444,
          0.7040331,
          -0.6266533,
          0.30984205,
          -0.68546903,
          0.7525042,
          0.004722829,
          -0.7549392,
          0.30001968,
          0.37462652,
          -0.7574207,
          0.52459097,
          -0.89790434,
          0.32348397,
          -0.8226697,
          0.29278684,
          -0.20205343,
          0.9052068,
          0.57783824,
          0.33931902,
          0.004964665,
          0.07644405,
          -0.6342567,
          0.9494691,
          -0.21859819,
          0.281501,
          0.9586391,
          -0.67478883,
          0.71099114,
          -0.9314626,
          -0.0068180347,
          0.8687881,
          -0.2570052,
          -0.35621867,
          0.47435436,
          0.6603795,
          -0.28793848,
          -0.39913207,
          -0.63369346,
          0.27797198,
          -0.49945858,
          0.7340068,
          -0.9033581,
          0.8289329,
          0.48473787,
          -0.5977701,
          0.43628034,
          0.5856333,
          0.9866692,
          0.5275186,
          0.7623164,
          0.24711993,
          0.14832991,
          -0.6680052,
          -0.58586746,
          0.76534855,
          0.41136718,
          -0.47833267,
          -0.6333963,
          -0.22877893,
          0.65728503,
          0.2068113,
          0.21536452,
          0.6971185,
          -0.561912,
          -0.99010587,
          -0.2268583,
          0.3685237,
          -0.58325267,
          -0.9537457,
          0.5490984,
          0.008127689,
          0.97893155,
          -0.66454065,
          0.426499,
          -0.38492712,
          0.76743335,
          0.25877586,
          0.8630848,
          0.36564147,
          0.32168946,
          -0.6845717,
          0.88422775,
          0.80369055,
          0.10988965,
          0.22975236,
          0.49970827,
          0.016199522,
          0.20695825,
          0.75940174,
          -0.14947739,
          0.7924051,
          -0.8000576,
          0.71933126,
          -0.7516699,
          -0.61825806,
          -0.10663724,
          -0.31943172,
          -0.67834055,
          -0.052054644,
          -0.23360252,
          0.9942943,
          -0.23477006,
          0.36632705,
          -0.1888465,
          -0.52241784,
          0.4713615,
          0.105390236,
          0.19222856,
          0.4453812,
          -0.9498492,
          0.16214654,
          0.11767323,
          0.1317823,
          -0.84828055,
          -0.35569808,
          0.2837284,
          -0.8202349,
          0.41283968,
          0.3034909,
          -0.324236,
          -0.42903763,
          0.6679926,
          -0.9727051,
          0.10937178,
          -0.4752071,
          0.6988976,
          0.75332284
        ],
        [
          -0.13808155,
          0.97656894,
          0.71581256,
          -0.57587886,
          0.68507373,
          -0.36986232,
          -0.79135823,
          0.9778414,
          0.46510983,
          0.6448597,
          0.058645725,
          0.40717256,
          -0.8502936,
          -0.19283259,
          -0.9287905,
          -0.74791473,
          0.7762457,
          0.027434587,
          -0.45387733,
          0.60489357,
          0.35980284,
          0.42444634,
          -0.7369751,
          0.06495881,
          0.9495089,
          0.99888015,
          -0.6133379,
          0.093360424,
          0.57722867,
          -0.643216,
          0.1569351,
          -0.18749356,
          0.17839074,
          -0.90353334,
          -0.7868078,
          -0.39966407,
          -0.47551456,
          0.05906722,
          0.5048027,
          0.11588815,
          -0.853797,
          -0.3114756,
          -0.88005584,
          0.43578753,
          -0.5686086,
          -0.070591114,
          0.74247766,
          0.7917049,
          -0.16316491,
          0.5237059,
          -0.3194317,
          -0.05191083,
          -0.9079485,
          0.7192633,
          -0.32361805,
          -0.06436968,
          -0.9814117,
          0.49674177,
          0.92734945,
          0.48231512,
          -0.5371234,
          0.7903346,
          -0.77901864,
          -0.6757422,
          0.36086836,
          0.4763678,
          0.54344356,
          -0.8853789,
          0.262323,
          0.21112828,
          -0.6431963,
          0.33133996,
          -0.7434273,
          0.9887826,
          0.51184946,
          0.5281429,
          0.07297981,
          -0.6501896,
          0.1684022,
          0.5050275,
          -0.7137301,
          0.43050843,
          0.68211377,
          0.5703163,
          -0.789207,
          0.015403986,
          -0.16344379,
          0.51187974,
          0.21751742,
          -0.6914512,
          -0.5448538,
          0.9777172,
          -0.9932988,
          -0.34607193,
          -0.61544704,
          -0.76584584,
          -0.3155513,
          -0.5928237,
          -0.42986313,
          -0.49373636,
          -0.3841128,
          0.96893096,
          0.06289556,
          0.36908925,
          -0.27319103,
          -0.13813327,
          0.90826225,
          0.6817884,
          -0.8091481,
          0.73072773,
          0.76251304,
          -0.5818696,
          0.58170235,
          -0.2721423,
          -0.12876979,
          0.050176255,
          -0.5997894,
          -0.077680446,
          0.92514753,
          -0.60813695,
          -0.4716681,
          0.68682873,
          0.36550984,
          0.59379214,
          -0.57919216,
          -0.6095321,
          -0.7721306,
          -0.4251011,
          0.38849598,
          0.42092928,
          0.051477153,
          0.4732441,
          -0.31867704,
          0.7763526,
          -0.17112015,
          0.10686367,
          0.915403,
          0.45888424,
          -0.72625273,
          -0.8414853,
          0.52335024,
          -0.53043723,
          0.091495164,
          0.4559951,
          -0.06971699,
          -0.00012599789,
          0.39333898,
          0.64301395,
          -0.86646897,
          -0.13786358,
          -0.57680416,
          0.9313761,
          0.6405177,
          -0.88216156,
          0.46669394,
          0.69388133,
          -0.27605775,
          -0.59485376,
          -0.6092843,
          0.8862896,
          -0.23199342,
          0.6263744,
          -0.80641437,
          0.8809265,
          0.75847566,
          0.73116463,
          0.5178154,
          0.2669099,
          -0.042778254,
          0.94313973,
          0.4915462,
          0.4975325,
          0.71005255,
          0.7841394,
          -0.5609506,
          -0.11311081,
          -0.0004282158,
          0.77635443,
          -0.56451553,
          -0.8593778,
          0.37441292,
          -0.8662886,
          -0.39881462,
          0.46239853,
          -0.6031861,
          -0.85351175,
          0.37126046,
          -0.22680114,
          -0.9044578,
          -0.05648046,
          0.724819,
          0.8556376,
          0.2138726,
          0.799686,
          -0.6269529,
          0.038196452,
          -0.033356488,
          -0.46646348,
          -0.80660415,
          -0.7809692,
          -0.71240616,
          -0.118649766,
          -0.78827506,
          0.3531814,
          0.77109784,
          -0.081030905,
          0.46510965,
          0.8186518,
          0.26172698,
          -0.20899723,
          0.6865426,
          0.5234916,
          -0.92112076,
          -0.4768982,
          0.40211064,
          0.21087278,
          0.92703575,
          -0.5760417,
          -0.33746096,
          -0.1157522,
          0.2380351,
          0.66356206,
          0.46195194,
          -0.7765923,
          0.30972135,
          0.3250438,
          0.39757672,
          -0.15921788,
          0.6758227,
          -0.38659912,
          -0.45105547,
          0.7544976,
          -0.043892667,
          0.2556245,
          -0.57443327,
          0.4467525,
          -0.9163738,
          -0.45452374,
          0.1575185,
          -0.051984522,
          0.02739445,
          0.43053183,
          0.23603463,
          0.7528854,
          -0.30575955,
          0.64620525,
          0.0076556387,
          -0.6109192,
          -0.7368044,
          -0.49320453,
          -0.8308002,
          -0.1604846,
          0.76285017,
          0.021839688,
          -0.879785,
          -0.72572637,
          0.43700054,
          -0.29582858,
          -0.91785675,
          -0.2314228,
          -0.605847,
          0.1622777,
          -0.6905319,
          0.55867267,
          -0.8422139,
          0.8983736,
          0.74905574,
          0.37015417,
          -0.7174051,
          -0.88785404,
          0.78530145,
          0.52634215,
          -0.8810445,
          0.9064464,
          0.8571349,
          -0.3511526,
          0.26930478,
          0.031740822,
          -0.80396587,
          -0.5587752,
          -0.92916906,
          0.34554288,
          -0.6994855,
          0.0571987,
          0.9263328,
          -0.3900044,
          -0.5350242,
          -0.7802605,
          0.20419489,
          -0.62509143,
          -0.20771834,
          -0.47244382,
          0.0417088,
          -0.7645554,
          0.5027431,
          0.17818345,
          -0.932759,
          -0.69081676,
          0.124539934,
          0.85111165,
          -0.2854386,
          -0.7772172,
          0.03341691,
          -0.11563919,
          -0.8777892,
          0.29858872,
          -0.40016904,
          -0.9232722,
          -0.87692946,
          0.38696662,
          -0.79191995,
          0.28074586,
          0.82011056,
          -0.24750865,
          0.52236277,
          0.6732082,
          0.2607841,
          -0.8946575,
          0.5202927,
          -0.26490653,
          0.9081232,
          -0.44700363,
          0.42221305,
          -0.35144478,
          0.4522095,
          -0.33815438,
          0.42253864,
          -0.0011045319,
          -0.32424775,
          -1.0420417,
          -0.3709939,
          -0.45827943,
          -0.92639464,
          0.3306209,
          -0.4568011,
          -0.2798465,
          -0.7088444,
          0.52607036,
          -0.09671308,
          -0.87814885,
          -0.6654822,
          0.79701555,
          0.49249858,
          0.012892216,
          0.7390582,
          0.8605665,
          0.295948,
          -0.9852973,
          -0.1041714,
          -0.030845389,
          0.16302274,
          0.016421374,
          0.5393983,
          0.07146231,
          0.93322265,
          -0.558065,
          -0.526185,
          -0.7957476,
          -0.18082379,
          -0.22640602,
          -0.17579663,
          -0.60726696,
          -0.49199605,
          0.7188713,
          0.6606218,
          0.7994799,
          -0.9863891,
          0.6348626,
          -0.9300945,
          -0.33689997,
          -0.7496416,
          -0.4923489,
          0.90286416,
          0.07250793,
          0.87438583,
          -0.6150951,
          -0.03262841,
          0.6595076,
          0.79447263,
          0.7704009,
          -0.22932066,
          0.39533317,
          0.2820151,
          -0.13175684,
          -0.6097065,
          -0.25467253,
          -0.93337554,
          -0.82103366,
          -0.47735804,
          -0.40405118,
          -0.76553136,
          0.26964462,
          -0.5047732,
          -0.7952841,
          0.81700766,
          -0.27373278,
          0.71985334,
          0.78605413,
          -0.96229833,
          0.069770984,
          0.73448646,
          0.8730671,
          -0.86309594,
          0.18242659,
          0.3862817,
          0.045430787,
          -0.80567867,
          0.15076484,
          0.6204534,
          0.15223688,
          -0.19789374,
          -0.57032484,
          0.38719437,
          0.14551711,
          -0.5974008,
          -0.10528618,
          0.31908447,
          0.093066245,
          0.23898727,
          -0.41115335,
          -0.5057674,
          0.8562212,
          0.24355553,
          -0.3164815,
          -0.7160667,
          0.80511093,
          0.22731665,
          -0.4529081,
          -0.09649745,
          -0.2622541,
          0.98816353,
          0.06642143,
          -0.54555017,
          -0.5578108,
          0.8603616,
          -0.86048687,
          0.31851366,
          0.5879056,
          -0.85211766,
          -0.53720933,
          -0.33623138,
          -0.8196783,
          -0.08275851,
          -0.12224888,
          -0.903871,
          0.6684493,
          0.7118538,
          -0.71648324,
          -0.810892,
          -0.34893197,
          -0.9698928,
          -0.6754096,
          0.47676587,
          0.76872903,
          0.9082497,
          -0.36086354,
          0.9294805,
          0.57039994,
          -0.5455718,
          -0.12708648,
          -0.80590445,
          -0.25183985,
          0.765906,
          -0.45757657,
          0.282898,
          0.3760214,
          0.0015162758,
          0.97172785,
          -0.7001023,
          -1.0317218,
          0.8092767,
          -0.3176996,
          0.971276,
          0.85316926,
          0.21991053,
          0.31441057,
          -0.41279972,
          -0.47216034,
          -0.45660356,
          -0.85697275,
          -0.15792821,
          -0.24126314,
          -0.32531577,
          -0.24980807,
          0.621215,
          0.6575462,
          0.8412017,
          0.04026779,
          0.30410042,
          -0.023247803,
          -0.8252785,
          0.02832379,
          -0.40407926,
          0.29183814,
          -0.42578033,
          0.57178813,
          0.82015413,
          0.5323078,
          0.5327781,
          -0.106712505,
          -0.1553357,
          -0.37861314,
          -0.25297877,
          0.95566654,
          0.10101322,
          -0.17015778,
          -0.8997431,
          0.54423887,
          -0.24684523,
          0.7092466,
          0.033845853,
          -0.7782929,
          0.75132537,
          -0.9769528,
          0.47503906,
          -0.01918457,
          0.75442547,
          -0.78216654,
          -0.9652298,
          -0.20359942,
          -0.7265746,
          -0.6101254,
          -0.8955981,
          0.676863,
          0.5641763,
          -0.9574849,
          0.62652767,
          -0.82817656,
          0.114113644,
          0.015937133,
          0.8930056,
          -0.6678187,
          -0.7129265,
          -0.7222064,
          0.15047683,
          -0.9715771,
          -0.7227842,
          -0.7496762,
          -0.19505309,
          0.12577511,
          -0.58949083,
          0.5110437,
          -0.18838254,
          -0.8043313,
          -0.344268,
          -0.6534005,
          -0.7618176,
          -0.3656706,
          0.849673,
          0.36940607,
          -0.7984423,
          -0.77401304,
          0.994798,
          0.4484231,
          0.3932178,
          -0.79996663,
          0.8804011,
          0.99793994,
          0.006637542,
          -0.91049206,
          0.6363702,
          0.77726007,
          -0.87802446,
          0.30259883,
          0.76144207,
          -0.49063456,
          -0.5919944,
          -0.7485316,
          0.1894842,
          -1.0204911,
          -1.0299476,
          -0.99859345,
          0.25261903,
          0.5601187,
          0.18170725,
          -0.4884256,
          0.11816666,
          -0.5310077,
          0.8310679,
          0.14099215,
          -0.32368064,
          0.9013747,
          -0.68479836,
          -0.5566197,
          0.0016346273,
          0.83013314,
          0.8582186,
          0.5303554,
          -0.66174996,
          0.23187013,
          0.061049197,
          0.87214774,
          -0.7700226,
          0.37144157,
          -0.35877877,
          0.119941644,
          -0.7017177,
          -1.0383633,
          -0.63524574,
          -0.5872563,
          0.72712183,
          -0.9672051,
          -0.41988742,
          0.7291181,
          0.73327565,
          0.70168376,
          0.8000382,
          -0.1295607,
          -0.24210878,
          -0.5573981,
          -0.6348351,
          0.06337001,
          -0.9074338,
          0.73339516,
          0.1365981,
          0.42107877,
          -0.52459896,
          -0.4755206,
          -0.650886,
          -0.5126841,
          -0.14989945,
          -0.08516574,
          -0.97379214,
          -0.41054547,
          -0.49040782,
          -0.14837594,
          -0.9351946,
          0.16780612,
          0.46964833,
          -0.66203016,
          0.86455065,
          -0.13832852,
          0.8861082,
          0.8483212,
          -0.12906057,
          0.8943918,
          0.8426649,
          0.1889472,
          -0.6585484,
          0.34939212,
          -0.3462386,
          0.15955852,
          -0.44344723,
          -0.36293605,
          0.20194244,
          0.88110447,
          -0.3574093,
          0.9446338,
          -0.023735905,
          0.25067395,
          0.025377544,
          0.9487772,
          0.6763953,
          0.034345917,
          -0.28349668,
          -0.39352056,
          -0.37659723,
          -0.11085357,
          0.8575378,
          -0.4610545,
          -0.90674824,
          0.6130839,
          0.5389325,
          -0.24809173,
          0.16104269,
          0.43105602,
          -0.745807,
          0.83009636,
          -0.95915693,
          0.9803723,
          0.9432331,
          0.8773148,
          -0.1377604,
          0.7843008,
          -0.22199287,
          -0.0053221723,
          -0.2150277,
          -0.35253114,
          0.97738975,
          0.76316404,
          -0.17402996,
          -0.38913754,
          0.016210526,
          -0.5557239,
          -0.5002359,
          -0.3138021,
          0.89714164,
          0.64185816,
          -0.7239967,
          -0.37681252,
          -0.22810212,
          -0.6433242,
          0.08165582,
          0.2643842,
          -0.39494738,
          -0.43031052,
          -0.67505574,
          0.77673924,
          0.18706585,
          -0.98604786,
          0.41228998,
          0.7560382,
          0.6796258,
          0.22721742,
          -0.57359344,
          -0.8130266,
          -0.72460574,
          0.7984693,
          -0.6659426,
          -0.48588997,
          0.41070968,
          -0.8308844,
          0.19377549,
          -0.67031443,
          -0.5739419,
          0.8888509,
          0.3042256,
          -0.0703769,
          -0.2602992,
          0.2031714,
          -0.9465759,
          -0.03542039,
          0.34500232,
          0.19440623,
          -0.42742017,
          -0.92634016,
          -0.0783741,
          -0.6091372,
          0.5932406,
          -0.40437388,
          0.36676002,
          0.7310782,
          0.9919117,
          -0.38141048,
          -0.8262452,
          0.09159843,
          -0.30464494,
          -0.5806877,
          0.26647574,
          0.62483,
          -0.55358535,
          -0.9290689,
          0.027257154,
          0.96638995,
          0.9471514,
          -0.19811983,
          0.7952278,
          -0.2534524,
          0.5064537,
          -0.39058656,
          0.98067117,
          -0.40251184,
          0.8780431,
          -0.46904787,
          0.245314,
          -0.35995674,
          0.9382292,
          -0.9851483,
          0.19398546,
          0.5716535,
          -0.4819622,
          -0.72739923,
          -0.8583648,
          -0.7224286,
          -0.9948245,
          -0.9265118,
          0.82193226,
          0.2850038,
          -0.096329294,
          0.5006456,
          -0.41645956,
          -0.43554327,
          -0.8824549,
          -0.1227315,
          0.8805511,
          -0.99097055,
          -0.77186716,
          -0.79015994,
          -0.15278396,
          -0.77810425,
          0.49365866,
          -0.95502377,
          0.10738754,
          0.61583996
        ],
        [
          -0.8536079,
          -0.47850788,
          0.66838527,
          0.2768389,
          -0.77740407,
          0.87143695,
          -0.3384509,
          0.19935405,
          0.41595078,
          0.8534092,
          0.80849147,
          0.5169375,
          -0.2665907,
          0.091367245,
          0.72889644,
          0.45145655,
          -0.13161004,
          -0.9507022,
          -0.9057087,
          0.30301607,
          -0.9176787,
          -0.12530291,
          0.27416408,
          -0.9842948,
          -0.8044487,
          -0.37348568,
          0.5115695,
          -0.98241985,
          0.2532668,
          -0.27072418,
          0.8124943,
          -0.9474783,
          -0.20442756,
          -0.5261937,
          -0.98499334,
          -0.15897086,
          0.07368256,
          0.36578616,
          -0.33240435,
          0.6980902,
          0.92018986,
          -0.7065507,
          0.47325698,
          -0.98947406,
          -0.32276374,
          -0.9140253,
          -0.50896984,
          -0.7903679,
          0.2088746,
          0.13018197,
          0.8895377,
          0.17974448,
          -0.9392779,
          0.29649282,
          -0.014868975,
          0.7476574,
          0.37721217,
          -0.28093565,
          -0.960096,
          -0.52973646,
          0.066580296,
          0.6370561,
          -0.5141166,
          -0.16143693,
          -0.77858263,
          -0.007845366,
          0.056559052,
          0.14460258,
          0.39565498,
          -0.46296805,
          0.51563436,
          0.16932218,
          -0.5027189,
          -0.2920089,
          0.12060469,
          0.7856249,
          -0.22321011,
          0.23705246,
          0.89233685,
          0.12755007,
          0.1397147,
          0.19469279,
          -0.53920233,
          0.00872314,
          0.26504338,
          0.38822246,
          0.44614637,
          0.29029918,
          0.69728935,
          0.87705356,
          0.9542022,
          0.69269013,
          0.5696249,
          -0.88455963,
          -0.7345122,
          0.9732639,
          -0.4733127,
          -0.44714126,
          -0.8059551,
          -0.61741215,
          0.48626128,
          -0.78156394,
          0.36847135,
          -0.41886204,
          0.7175504,
          0.3539567,
          0.74741775,
          0.50352997,
          0.120264724,
          0.52701086,
          -0.8457432,
          -0.7680484,
          0.08006203,
          0.59192616,
          -0.04262667,
          0.12460472,
          0.38152048,
          0.5317132,
          -0.08198132,
          -0.35367417,
          0.36557633,
          -0.12046344,
          0.81679535,
          -0.6280927,
          -0.7737533,
          -0.97927475,
          0.18044628,
          0.3220904,
          0.19484486,
          -0.8023654,
          0.8982289,
          0.88586825,
          0.99868685,
          -0.21928519,
          -0.9846989,
          0.33686846,
          0.08135937,
          -0.7888183,
          -0.5056288,
          0.9192159,
          0.379169,
          -0.8392304,
          -0.84103143,
          -0.4046014,
          -0.8606085,
          -0.33705527,
          0.45195177,
          -0.35524136,
          -0.052567735,
          -0.9344409,
          0.2695887,
          -0.014995741,
          0.8183051,
          -0.9996946,
          -0.14344802,
          -0.14502436,
          0.51223797,
          0.47031564,
          -0.035615955,
          0.28394523,
          -0.07243037,
          0.9032347,
          0.53488207,
          0.27568084,
          0.760746,
          0.79326826,
          0.80961365,
          -0.36737844,
          -0.15960729,
          -0.37254068,
          -0.96158683,
          0.5229955,
          -0.9875494,
          0.11741915,
          -0.7712199,
          0.6607307,
          -0.91520846,
          -0.55223066,
          -0.97266346,
          -0.20595947,
          0.10808323,
          -0.9766625,
          -0.81846774,
          -0.41771036,
          -0.3447048,
          -0.9441302,
          -0.80318934,
          -0.240243,
          -0.5117725,
          -0.5017622,
          -0.3837196,
          0.40299934,
          -0.5434247,
          -0.3226729,
          0.9336571,
          -0.5142814,
          0.7835376,
          -0.60640734,
          0.240191,
          0.096519776,
          0.5264256,
          -0.93101037,
          -0.20230201,
          0.021272251,
          -0.57182777,
          -0.91379637,
          -0.8859292,
          0.43404657,
          -0.7420031,
          -0.5273222,
          -0.34150788,
          -0.08408978,
          -0.24601968,
          -0.2250942,
          -0.6553671,
          -0.92340124,
          0.26834628,
          -0.15296756,
          -0.54045177,
          -0.6954678,
          -0.48344976,
          -0.4131553,
          0.5881591,
          0.41815808,
          -0.12955913,
          -0.12214421,
          0.80482125,
          0.50912833,
          -0.6489284,
          0.50179225,
          -0.10443797,
          0.38545433,
          0.5598741,
          0.45701963,
          0.40285373,
          0.47705194,
          -0.5217143,
          -0.5228243,
          0.029998567,
          -0.16331576,
          -0.24489026,
          0.7837064,
          -0.65811515,
          -0.28691557,
          -0.68432677,
          0.22068924,
          0.8548841,
          0.010017044,
          0.4459612,
          0.77154636,
          -0.12710312,
          -0.18113264,
          -0.02043486,
          -0.7400162,
          0.4380227,
          -0.24599744,
          0.6062073,
          -0.80766755,
          -0.8367572,
          0.85967124,
          -0.19272794,
          0.75978833,
          0.5783502,
          -0.3876864,
          -0.6208876,
          0.55720407,
          0.38211125,
          -0.1781063,
          0.35289288,
          0.36470076,
          0.62066543,
          -0.16116935,
          0.571369,
          -0.05726734,
          0.099654175,
          0.6621936,
          0.13605562,
          -0.12869701,
          -0.55683124,
          0.0055400264,
          0.74716157,
          -0.8151255,
          0.023039961,
          0.9041579,
          -0.5653652,
          0.41633654,
          0.39153153,
          0.48267305,
          0.40245447,
          0.601102,
          -0.47578076,
          0.051710445,
          0.40695503,
          -0.1006072,
          -0.29142308,
          0.1606474,
          -1.0717196,
          0.6515498,
          0.29075596,
          0.1380094,
          0.84519976,
          0.7258427,
          0.028550135,
          -0.29694483,
          -0.89541453,
          0.5255272,
          -0.93663,
          -0.4093743,
          0.8883488,
          0.48275432,
          0.521695,
          0.5680923,
          0.6559402,
          0.3658252,
          0.6410412,
          -0.31382367,
          0.28937444,
          0.8839318,
          0.9977539,
          0.31131837,
          -0.28578144,
          0.5620291,
          0.08053239,
          0.097330354,
          -0.005341459,
          0.32578045,
          0.8028336,
          0.8708096,
          0.50930166,
          -0.7410921,
          0.8200723,
          0.8095214,
          -0.2375275,
          -0.8564989,
          0.793644,
          -0.652608,
          -0.9496617,
          -0.4352347,
          0.18332468,
          0.7217137,
          -0.52844876,
          0.47222915,
          -0.15929823,
          -0.6346489,
          -0.08521435,
          0.9201285,
          -0.8364363,
          0.36032975,
          -0.3010367,
          -0.1016359,
          0.5177804,
          0.4975922,
          0.5091122,
          -0.22413322,
          0.56745523,
          0.79149675,
          0.8565922,
          0.14612982,
          -0.33695903,
          0.32023498,
          0.8406421,
          0.95812935,
          -0.7706645,
          -0.37793317,
          -0.7874117,
          0.76793534,
          -0.7301075,
          -0.96136814,
          -0.8045629,
          0.71312964,
          -0.66132027,
          1.008717,
          0.9957623,
          -0.05255117,
          0.52238613,
          0.3933945,
          0.24544488,
          -0.26435807,
          -0.55413926,
          0.82701564,
          0.56821513,
          -0.43813267,
          -0.3317219,
          -0.25494215,
          -0.3333274,
          0.73643976,
          0.43450218,
          -0.22611699,
          0.93030167,
          0.8693024,
          -0.737745,
          -0.95781296,
          -0.283336,
          -0.24264497,
          0.5218967,
          -0.425168,
          0.90399307,
          0.58184195,
          0.68869865,
          -0.31420398,
          0.85564053,
          0.96033025,
          -0.23057713,
          -1.0351093,
          -0.74590546,
          0.3417537,
          -0.28266746,
          0.0074759373,
          0.52609324,
          0.71717197,
          0.681597,
          -0.041524686,
          0.5648076,
          -0.30393782,
          -0.7859278,
          -0.5912825,
          -0.97534704,
          -0.63122624,
          0.37377536,
          -0.7874025,
          -0.8787368,
          -0.6680015,
          -0.73431784,
          -0.70067894,
          -0.6227083,
          0.6920918,
          -0.9720056,
          -0.45253775,
          -0.99121296,
          -0.5230888,
          0.7972015,
          0.90012324,
          -0.72638875,
          0.10810664,
          0.48983014,
          0.73174673,
          -0.43579826,
          0.45461923,
          0.22388592,
          -0.30896804,
          -0.6834885,
          0.64561707,
          0.3567519,
          -0.24808979,
          -0.10297402,
          -0.4698537,
          0.7957169,
          -0.7284783,
          -0.763646,
          -0.24254245,
          0.76379013,
          -0.93251574,
          -0.51042783,
          -0.7160729,
          -1.0028297,
          -0.8635193,
          0.14040118,
          -0.028005777,
          0.51218766,
          0.43368554,
          0.5750066,
          0.868866,
          -0.63722855,
          -0.09896915,
          0.7904434,
          -0.14415272,
          -0.9111374,
          0.11781315,
          -0.73962015,
          0.1330791,
          0.28458852,
          -0.56972176,
          0.7360559,
          -0.8725745,
          0.24834728,
          -0.14999303,
          0.21744728,
          -0.18235967,
          -0.6383065,
          0.19797443,
          -0.28683,
          0.5540543,
          -0.7199232,
          0.26364577,
          0.35212103,
          0.56783414,
          1.0158824,
          -0.14554816,
          -0.06811738,
          -0.46160343,
          -0.03439338,
          -0.30216822,
          -0.55268365,
          0.04830777,
          -0.35199258,
          -0.9894873,
          0.49385434,
          0.43379685,
          -0.25544396,
          0.43309698,
          0.3732993,
          0.25911674,
          -0.75407904,
          0.024970088,
          -0.99627197,
          0.98478395,
          0.6952041,
          0.52752346,
          0.4501891,
          -0.14879416,
          0.9563079,
          -0.8842458,
          0.10676498,
          0.6381813,
          0.37212178,
          0.80816144,
          0.9456373,
          0.88036215,
          -0.90511376,
          -0.85459596,
          0.22968104,
          -0.9421033,
          0.0019134424,
          -0.315367,
          -0.6982854,
          0.7518701,
          -0.58156097,
          0.5639118,
          -0.12366192,
          -0.5743631,
          0.8988964,
          0.061022524,
          -0.17011237,
          -0.8715799,
          0.8410328,
          -0.46153915,
          0.15425631,
          -0.9345007,
          0.31085327,
          0.36987513,
          -0.0027928092,
          0.23205286,
          -0.66120374,
          0.73740673,
          0.96888816,
          -0.8397779,
          0.044383906,
          0.69262546,
          -0.20850351,
          -0.25010166,
          -0.15059775,
          -1.0276964,
          0.518938,
          0.14681804,
          0.21549273,
          -0.04231147,
          -0.6826451,
          0.3798896,
          -0.91269,
          -0.47208342,
          0.22769165,
          -0.63098603,
          0.20569608,
          -0.42298546,
          0.57941777,
          -0.5926076,
          -0.52317303,
          0.74059117,
          0.5155218,
          0.32735226,
          0.88923466,
          0.8892751,
          -0.8812775,
          0.9753217,
          -0.9082071,
          0.5920393,
          -0.13772051,
          -0.62605244,
          -0.81654906,
          0.6859959,
          0.63780427,
          0.2627189,
          0.020522293,
          0.44895884,
          -0.71475774,
          0.7201103,
          -0.7506337,
          0.86026484,
          -0.4748814,
          0.6586823,
          0.24748173,
          0.2932068,
          0.5033176,
          0.57780075,
          0.9214893,
          0.1428111,
          0.9473181,
          -0.19251652,
          -0.79350114,
          0.5349927,
          -0.22761048,
          -0.7037505,
          0.5294227,
          -0.58377475,
          -0.4746699,
          0.75766283,
          -0.63011515,
          0.23827928,
          -0.53447694,
          -0.18881793,
          0.6157489,
          0.83437645,
          -0.9121423,
          -0.9636467,
          0.9941298,
          -0.3112831,
          -0.47576058,
          -0.5384714,
          0.47569928,
          0.7917077,
          0.5750603,
          0.5155852,
          -0.8009527,
          0.04450257,
          0.3812382,
          0.31843114,
          -0.61745685,
          0.9442907,
          0.5221429,
          0.8147219,
          0.5140497,
          0.5899756,
          -0.96274704,
          -0.049262095,
          -0.4000887,
          -0.6771429,
          -0.67500556,
          -0.014217208,
          0.91148686,
          -0.2798623,
          -0.06339497,
          0.3554175,
          0.8156209,
          -0.82209885,
          -0.5608704,
          -0.45744228,
          0.4208492,
          0.6998356,
          -0.024555542,
          0.23031302,
          -0.67852014,
          -0.87063026,
          -0.30738375,
          -0.23384982,
          -0.21722735,
          0.65274715,
          -0.62127906,
          -0.28315815,
          -0.43603867,
          0.93343776,
          -0.39512584,
          -0.5574002,
          0.6747028,
          0.29651633,
          -0.015886068,
          0.7370251,
          -0.2990759,
          0.20701994,
          -0.6583027,
          -0.5300526,
          0.7671707,
          -0.84431946,
          -0.88019943,
          0.7837099,
          -0.60023576,
          0.4138176,
          0.6234212,
          -0.42389607,
          -0.60956115,
          -0.12502797,
          0.13636209,
          0.42778003,
          -0.16394736,
          0.63459927,
          -0.907296,
          0.27809122,
          0.95732933,
          -0.9349926,
          0.6381384,
          -0.7923472,
          0.11530738,
          -0.5281498,
          -0.40506667,
          -0.977635,
          0.3851692,
          0.028646024,
          0.5540554,
          0.41591117,
          -0.3410146,
          0.08138645,
          -0.56976104,
          0.78383815,
          0.019308645,
          -0.19003631,
          0.01976384,
          0.951621,
          0.3265265,
          -0.4052418,
          0.23870733,
          -0.8518009,
          -0.9993147,
          -0.3626439,
          0.5278194,
          0.89247066,
          0.4012408,
          -0.087589756,
          0.6763842,
          -0.4324299,
          -0.022112755,
          0.87577176,
          -0.93691534,
          -0.8708692,
          0.2438871,
          0.47927603,
          -0.41205353,
          -0.41567016,
          0.101577945,
          0.7516122,
          0.23698056,
          0.7528688,
          0.6942265,
          0.90814817,
          -0.043096762,
          0.7684681,
          0.16742279,
          0.49759656,
          0.16966532,
          0.33061656,
          -0.7689213,
          -0.94382864,
          -0.5001622,
          0.11789438,
          0.6347165,
          -0.74652684,
          -0.44086066,
          -0.9507218,
          -0.7464912,
          -0.6448377,
          -0.9763201,
          0.18080173,
          0.8246917,
          0.29513708,
          0.47095168,
          -0.15945673,
          -0.40385914,
          -0.35613465,
          -0.72157085,
          0.12589157,
          0.9156265,
          0.22221088,
          -0.44852495,
          0.6485826,
          -0.22180934,
          0.54807705,
          0.23142801,
          -0.95011055,
          -0.66964716,
          -0.5820211,
          0.082066454,
          -0.20840336,
          -0.71387726,
          -0.52784735,
          -0.9908958,
          0.06300569,
          0.5203677,
          0.25104988,
          0.8484305,
          -0.13727796,
          0.07064858,
          0.5967073,
          0.75672567,
          0.6410692,
          -0.35393572,
          -0.779493
        ],
        [
          0.7456312,
          -0.40204656,
          -0.45651507,
          0.2777481,
          0.373981,
          0.45045698,
          0.85405934,
          -0.23773706,
          0.546319,
          -0.15329456,
          0.31345797,
          -0.08473694,
          0.64033455,
          -0.14254095,
          0.31723824,
          0.38445812,
          -0.24032068,
          -0.8571688,
          0.97229517,
          0.43151033,
          0.6565993,
          -0.7932466,
          0.13730466,
          -0.32380533,
          0.78330195,
          -0.124340296,
          0.17588902,
          0.5667758,
          -0.7243358,
          0.65279925,
          -0.215868,
          0.26292312,
          -0.93921053,
          0.9656513,
          -0.40747666,
          -0.034918655,
          -0.8730789,
          -0.02380573,
          0.9346071,
          -0.2797616,
          -0.7995384,
          0.86855656,
          -0.7769208,
          0.7319361,
          0.40549636,
          -0.9462294,
          0.09587096,
          -0.92460096,
          0.39093336,
          -0.53848386,
          -0.1856423,
          -0.72718775,
          0.41470325,
          -0.7110394,
          0.8809196,
          0.37651098,
          -0.5462339,
          0.40385664,
          0.32932734,
          0.6423347,
          -0.26435158,
          -0.073291585,
          0.8636121,
          -0.02703694,
          0.75552213,
          0.43186352,
          -0.66145664,
          0.26080972,
          -0.86611617,
          -0.9719094,
          -0.7719645,
          -0.7413501,
          0.30828825,
          -0.7000649,
          0.14944902,
          -0.5522592,
          0.8319842,
          -0.78584146,
          -0.77580893,
          -0.1684635,
          0.19417651,
          -0.5316396,
          0.50744784,
          -0.58868456,
          0.57631123,
          -0.1484927,
          0.18551931,
          0.72465795,
          0.5189088,
          0.5150591,
          0.09586603,
          0.5783117,
          0.05710706,
          0.50348455,
          0.7966894,
          -0.31200153,
          -0.8015105,
          -0.7213607,
          0.92252964,
          -0.51541,
          0.39382643,
          0.9516403,
          0.29686365,
          0.89340204,
          0.5559257,
          -0.5705399,
          -0.4488133,
          0.6462446,
          1.0005022,
          -0.66959083,
          0.77127594,
          0.07579851,
          -0.08294475,
          0.8219468,
          0.6074021,
          0.9252914,
          0.9098464,
          -0.15833305,
          0.9072106,
          0.10603038,
          -0.316222,
          0.9723592,
          -0.025954507,
          -0.7759809,
          0.6844846,
          0.6392931,
          0.84724796,
          -0.741542,
          0.18199708,
          0.7441588,
          0.18370973,
          -0.7918241,
          -0.1076716,
          -0.24209176,
          -0.5565423,
          0.4930423,
          -0.8149305,
          0.77376586,
          -0.72219485,
          -0.9345992,
          0.4663136,
          -0.9863862,
          0.5678293,
          0.22054695,
          0.75039905,
          -0.98955363,
          0.8795526,
          0.39190954,
          0.019969322,
          -0.19047692,
          0.6144877,
          0.94043463,
          -0.49926403,
          -0.49373013,
          0.14977314,
          -0.16727884,
          0.75476986,
          0.45505467,
          0.8568326,
          0.882335,
          0.7863734,
          0.176805,
          0.70997584,
          -0.8170333,
          -0.9244454,
          0.92170537,
          0.99416244,
          0.1944028,
          0.37334895,
          0.9207477,
          -0.022169456,
          0.07910394,
          0.4247248,
          -0.639253,
          0.7008967,
          -0.83315766,
          0.7387656,
          0.61969334,
          -0.9770737,
          0.8593533,
          0.62818927,
          -0.07638784,
          -0.67900074,
          0.93533784,
          0.21061473,
          -0.83104193,
          -0.56035626,
          -0.5679687,
          -0.4065919,
          0.9072927,
          0.7591321,
          0.7775407,
          -0.485614,
          0.31454822,
          -0.9683624,
          -0.017902076,
          -0.6447321,
          -0.8996509,
          -0.53471667,
          -0.28688192,
          0.39252537,
          -0.15041798,
          0.101860866,
          -0.26432598,
          0.5627349,
          0.2551853,
          -1.0052781,
          -0.18970747,
          0.47799912,
          0.925115,
          -0.32933268,
          0.8706796,
          -0.69230646,
          -0.663187,
          0.25914347,
          -0.773713,
          0.75255835,
          0.06220202,
          -0.33818695,
          0.7914551,
          -0.4086368,
          -0.75459576,
          0.41202277,
          -0.6232399,
          0.8894767,
          -0.29531783,
          -0.8420827,
          -0.3528702,
          -0.50803596,
          0.9061924,
          0.31218022,
          -0.35808533,
          0.8677084,
          -0.84165466,
          -0.20768583,
          0.7218216,
          -0.72871786,
          0.51165783,
          0.46610782,
          -0.119637735,
          -0.4051121,
          0.1533951,
          -0.81459266,
          -0.10735166,
          0.08884913,
          -0.99257404,
          -0.9009287,
          -0.28988373,
          -0.65296036,
          0.6926553,
          0.86596805,
          0.20215835,
          0.50086355,
          -0.24537477,
          0.56153333,
          -0.2570384,
          -0.39309052,
          0.31258827,
          0.45874408,
          -0.992199,
          0.5666332,
          0.053446237,
          -0.80260754,
          -0.14646693,
          -0.87705666,
          0.2543412,
          0.79188913,
          -0.094911255,
          -0.8966567,
          -0.23329726,
          -1.0402337,
          -1.0616754,
          -0.8598286,
          0.25671157,
          0.3796237,
          0.5889167,
          0.75147146,
          0.39837083,
          -0.34878725,
          0.69111705,
          0.80553406,
          0.34084746,
          -0.07481891,
          0.119863555,
          -0.8379974,
          -0.44553825,
          0.046626806,
          -0.7584412,
          -0.010503081,
          0.546005,
          0.122600876,
          -0.75575644,
          -0.5981413,
          0.83006626,
          -0.5027725,
          -0.81135285,
          0.88966537,
          0.3151866,
          -0.7765665,
          -0.9585991,
          0.8425581,
          -0.71593547,
          -0.47301456,
          -0.89293456,
          -0.12594312,
          0.8397099,
          0.0077861715,
          -0.75470054,
          0.50223756,
          0.82967556,
          -0.81130254,
          0.100517415,
          -0.0348249,
          -0.7398913,
          0.88343066,
          -0.9720213,
          0.4791571,
          0.45489535,
          0.4965749,
          0.2291625,
          -0.31204817,
          -0.15662739,
          -0.061045296,
          0.57422334,
          0.4613111,
          0.103449196,
          -0.030817386,
          -0.34915167,
          -0.12151602,
          0.37299463,
          0.056315962,
          -0.253975,
          0.26562575,
          0.9535496,
          0.80830234,
          -0.17799893,
          -0.47858706,
          0.6836139,
          -0.89549834,
          -0.35334858,
          -0.9431138,
          0.4403495,
          0.047487833,
          -0.17968963,
          0.28497958,
          -0.628897,
          -0.35110238,
          0.43340266,
          -0.27900466,
          -0.20632863,
          -0.500078,
          0.18024859,
          -0.53910786,
          0.89350474,
          1.0237226,
          0.9580852,
          -0.17592764,
          0.4157608,
          -0.48009402,
          -0.8106404,
          0.7151247,
          -0.4642397,
          0.9351351,
          -0.58634865,
          -0.30445445,
          0.055099558,
          0.93993264,
          -0.5479699,
          -0.08557182,
          -0.22484472,
          0.42312494,
          -0.3126768,
          0.7849453,
          0.9876987,
          0.9765673,
          0.858332,
          -0.84976393,
          0.7853668,
          -0.12679698,
          -0.8275119,
          0.6932428,
          1.0012114,
          -0.6959165,
          0.4713949,
          0.32977232,
          -0.4602285,
          -0.785369,
          -0.41387755,
          -0.47891724,
          -0.5360804,
          0.6640683,
          -0.41508448,
          -0.66022736,
          -0.62027854,
          -0.12573233,
          -0.44856206,
          -0.080880694,
          0.18433791,
          0.24532486,
          0.7335364,
          -0.89243585,
          0.37596738,
          -0.6399856,
          -0.13394973,
          0.39747828,
          0.33910048,
          -0.60669863,
          0.632829,
          0.6062092,
          0.088363126,
          -0.34800917,
          -0.50860494,
          -0.6129379,
          -0.5340325,
          -0.58230466,
          -0.8831659,
          0.6824187,
          0.7850437,
          -0.37306535,
          0.9688172,
          -0.0156924,
          -0.31990662,
          -0.9128946,
          0.014638058,
          -0.6414048,
          0.4956608,
          0.42486113,
          0.02141459,
          -0.19377749,
          0.71161664,
          0.12558831,
          -0.7902555,
          -0.12258704,
          0.17842507,
          -0.13094254,
          0.626164,
          0.031272054,
          -0.8827734,
          0.9090222,
          -0.16333713,
          0.1744375,
          0.9221838,
          0.9069515,
          0.9434535,
          -0.6814591,
          -0.54074144,
          0.17228122,
          0.5859613,
          -0.26164278,
          -0.0023570529,
          0.6503811,
          -0.16341607,
          0.94467944,
          -1.0022174,
          -0.48267204,
          -0.07133783,
          -0.32177407,
          0.07797814,
          0.47708395,
          -0.578714,
          -0.8193902,
          0.8785877,
          -0.16504113,
          0.46351475,
          -0.19007641,
          -0.7653236,
          0.8937349,
          -0.247616,
          -0.60813385,
          -0.84230745,
          -0.6239736,
          0.4781738,
          0.2584725,
          -0.69512165,
          -0.58142024,
          0.5953943,
          -0.4995767,
          0.7666753,
          -0.3867305,
          -0.16805331,
          0.29820377,
          -0.15613195,
          0.10593916,
          0.6574153,
          -0.6147033,
          0.32988733,
          -0.797385,
          0.71941876,
          0.0727352,
          0.118271045,
          0.6028299,
          0.36507362,
          0.6466676,
          0.8199793,
          -0.21247013,
          0.7144127,
          -0.15415537,
          -0.8291495,
          0.77817476,
          0.6920303,
          -0.49104,
          -0.7913851,
          -0.1904934,
          0.6339627,
          0.66259986,
          0.6871462,
          -0.060339298,
          0.1719044,
          -0.85506296,
          0.24605094,
          -0.8096009,
          -0.16868815,
          -0.82660764,
          0.37412515,
          0.4487429,
          0.9213946,
          0.19798598,
          0.38649422,
          0.61878276,
          -0.14277717,
          0.8321092,
          -0.75423807,
          -0.33456835,
          -0.064468026,
          0.079292454,
          0.5339273,
          0.027884007,
          0.43461975,
          0.039902136,
          -0.17828836,
          0.10560806,
          -0.6089143,
          0.5300573,
          0.16408871,
          0.58886063,
          -0.06712558,
          -0.41409403,
          -0.37386557,
          0.3921734,
          -0.5547817,
          0.7768066,
          -0.5053124,
          0.34804907,
          -0.74566734,
          -0.14773686,
          0.9181825,
          0.7604842,
          -0.13100103,
          -0.8247442,
          -0.90714395,
          0.02675585,
          0.55804914,
          0.22068873,
          0.17545809,
          0.6171761,
          0.90490955,
          0.068837725,
          -0.9462385,
          -0.8763093,
          -0.6212966,
          -0.63424873,
          -0.751963,
          -0.13575023,
          -0.41823536,
          -0.0080320425,
          -0.43113533,
          0.77539724,
          -0.8119369,
          -0.73810065,
          0.30737418,
          -0.47911018,
          -0.8494663,
          0.5627125,
          -0.053171057,
          -0.04749635,
          0.67828107,
          -0.066524155,
          0.23451704,
          -0.27868745,
          0.3606032,
          -0.54639924,
          -0.76762855,
          -0.3929377,
          0.5982485,
          0.5808755,
          -0.8861597,
          0.21363439,
          -0.22080328,
          0.36266676,
          0.56978905,
          -0.92752963,
          0.9837534,
