{
  "layer_sizes": [
    784,
    64,
    16,
    10
  ],
  "data": [
    {
      "weights": [
        [
          -0.92331696,
          -0.80050945,
          -0.44818103,
          0.44956172,
          -0.10964227,
          -0.7629237,
          -0.0463084,
          -0.14157188,
          -0.25123,
          -0.81231844,
          0.9889194,
          0.9640888,
          -0.26708573,
          -0.42473194,
          -0.5373397,
          -0.8787589,
          0.38835347,
          0.5819458,
          -0.21204066,
          0.62752795,
          -0.2324338,
          0.8931682,
          -0.6754137,
          0.09630871,
          -0.07958007,
          -0.3262937,
          -0.1495974,
          -0.8600179,
          -0.61414874,
          -0.852901,
          -0.3211372,
          -0.7273301,
          -0.19543916,
          0.32403734,
          0.8696567,
          0.5625367,
          -0.08647709,
          -0.50305873,
          0.66239804,
          0.24768609,
          0.67196995,
          -0.38127485,
          -0.51375693,
          -0.32112244,
          0.76439446,
          0.43882534,
          -0.5634698,
          -0.44802102,
          -0.18967247,
          -0.16635895,
          0.5639344,
          0.6478183,
          0.5563669,
          -0.65317106,
          0.21959364,
          -0.88447976,
          0.89956856,
          0.6629064,
          -0.61164117,
          -0.5000098,
          -0.28185332,
          0.42196336,
          0.372744,
          -0.16823497,
          0.71738124,
          -0.30096883,
          -0.09798579,
          0.7188173,
          -0.81140757,
          0.9089608,
          -0.020849481,
          0.8065189,
          0.6178199,
          -0.24346277,
          -0.21561456,
          -0.14507657,
          -0.66439193,
          0.9873047,
          0.98005766,
          -0.17056552,
          -0.8668785,
          0.2794354,
          -0.589216,
          0.7500578,
          -0.4068874,
          0.837808,
          -0.588718,
          0.4169145,
          0.8264125,
          0.6196782,
          -0.5779165,
          0.30408335,
          0.9247667,
          -0.5497876,
          0.98478854,
          0.060813386,
          0.07307575,
          0.5760679,
          -0.0672359,
          0.5683015,
          0.089693144,
          -0.92520136,
          -0.55774045,
          0.071489036,
          0.23091051,
          -0.7519237,
          0.8100785,
          0.4851344,
          0.88814247,
          -0.4273232,
          -0.7744687,
          0.3852917,
          0.021667123,
          -0.2526337,
          -0.62377906,
          -0.23675524,
          0.80817544,
          0.013313503,
          -0.38784397,
          -0.8074583,
          0.39150017,
          -0.9621685,
          -0.15142168,
          0.27682295,
          -0.0053232573,
          0.31545022,
          -0.7945577,
          -0.87917376,
          -0.8758396,
          0.54604715,
          0.8058945,
          0.39873758,
          0.7245426,
          0.76882565,
          0.559859,
          0.97983825,
          -0.22877859,
          0.8843708,
          0.7920083,
          -0.060415126,
          0.40482295,
          0.35234916,
          0.110563405,
          0.8457984,
          -0.472597,
          0.64481395,
          -0.8804768,
          0.82233244,
          0.46764496,
          -0.21684708,
          -0.4704443,
          0.5480749,
          -0.7622207,
          -0.6270672,
          -0.40071845,
          -0.4629777,
          0.11314168,
          -0.6888138,
          0.93875134,
          0.79902226,
          -0.0133596845,
          0.2425498,
          -0.6528263,
          -0.114848785,
          0.6094143,
          -0.6734685,
          -0.023549436,
          -0.6097571,
          0.37836897,
          -0.4818231,
          -0.5329733,
          0.7998681,
          0.015624824,
          -0.011769272,
          -0.51659167,
          -0.22580902,
          -0.1450944,
          0.9965644,
          0.46875793,
          -0.482078,
          -0.54153895,
          -0.30911952,
          0.46975854,
          0.083359204,
          0.59757286,
          -0.9489116,
          0.7998433,
          -0.49014202,
          -0.25215706,
          0.3850103,
          -0.6052664,
          0.7275166,
          -0.023048088,
          0.1960081,
          0.86052954,
          0.011889909,
          -0.27266192,
          0.9691662,
          0.84686756,
          0.2999478,
          -0.74936956,
          0.81618476,
          -0.3204278,
          -0.70901567,
          0.7203051,
          0.6670559,
          0.4815118,
          0.39780474,
          -0.8597359,
          -0.66692483,
          -0.4330221,
          -0.042036276,
          -1.0224534,
          -0.6711737,
          -0.96568346,
          -0.6425846,
          -0.597866,
          0.209328,
          0.038185682,
          -0.887287,
          0.7986315,
          -0.42856312,
          0.9124239,
          -0.14787273,
          -0.44791853,
          -0.13265094,
          0.84422886,
          0.1797501,
          0.16576777,
          0.22885115,
          0.38449958,
          -0.036421906,
          -0.28755003,
          0.38851172,
          -0.8692891,
          -0.66439253,
          -0.8011352,
          0.36694524,
          0.86695033,
          0.62806755,
          0.8416732,
          0.48844898,
          -0.99092776,
          0.96199226,
          -0.7177286,
          0.01944922,
          -0.7609864,
          -0.7096731,
          -0.7560179,
          0.94162583,
          0.7479263,
          0.9736674,
          0.5436384,
          -0.39387336,
          -0.5309235,
          0.70847917,
          -0.29899427,
          -0.9540673,
          -0.053339753,
          0.8326189,
          0.44841158,
          0.8712769,
          0.09813658,
          0.25910115,
          0.9018032,
          -0.17684332,
          0.8464652,
          -0.04371338,
          -0.28512833,
          0.2562563,
          -0.4572796,
          0.3484273,
          0.32141507,
          -0.24307571,
          0.34614444,
          -0.50284153,
          -0.35133365,
          0.93055457,
          0.9935919,
          0.7862313,
          -0.5685541,
          0.29976678,
          0.19195846,
          -0.13799912,
          -0.87599546,
          0.31189263,
          0.49675822,
          0.5994234,
          -0.573205,
          0.29612553,
          0.2006567,
          0.5340522,
          -0.2402881,
          0.47822678,
          0.52264416,
          -0.64711654,
          -0.4841864,
          0.08026914,
          -0.717016,
          0.7318383,
          0.38782984,
          -0.28789318,
          -0.1989037,
          0.93954206,
          0.8493109,
          -0.7060204,
          0.1838066,
          -0.60159326,
          -0.8261917,
          0.031754028,
          0.46278974,
          -0.2663332,
          0.021962285,
          -0.21171951,
          -0.9681734,
          0.13006668,
          -0.5425191,
          0.016054796,
          -0.32554415,
          0.68629164,
          0.18539448,
          -0.40773618,
          0.7872399,
          -0.47384208,
          0.53685135,
          0.88361055,
          -0.47242162,
          0.2955015,
          -0.2667134,
          0.21665739,
          -0.7051798,
          -0.2383584,
          0.65600353,
          -0.08800588,
          -0.112052694,
          0.032493748,
          -0.7430502,
          -0.63301736,
          -0.8395367,
          -0.32227457,
          -0.7982727,
          0.12912087,
          0.27397978,
          0.57461214,
          -0.84434164,
          0.39056042,
          0.88189435,
          -0.7737094,
          -0.74812216,
          -0.266555,
          -0.64297426,
          -0.90758336,
          0.38298157,
          -0.16333728,
          0.7305046,
          0.11946014,
          -0.7187806,
          0.2411198,
          -0.033220638,
          0.44525373,
          0.82983285,
          -0.35436094,
          -0.23167531,
          0.34197387,
          0.090515845,
          0.2940433,
          -0.16393065,
          -0.52983177,
          -0.6404759,
          0.9545067,
          -0.8863255,
          -0.11512303,
          -0.41697046,
          0.14910902,
          0.38692707,
          -0.37154612,
          0.6877012,
          -0.9872927,
          0.70839393,
          0.19536093,
          -0.88025266,
          0.7873853,
          -0.8985175,
          -0.92975515,
          0.085728034,
          1.0143716,
          0.47810775,
          -0.15543084,
          -0.2009651,
          -0.37185618,
          0.41256863,
          0.1473503,
          -0.13633303,
          0.6863106,
          0.31867227,
          -0.6526268,
          0.8340704,
          -0.39984816,
          0.43105716,
          0.99718153,
          -0.49376214,
          0.03202678,
          0.42800128,
          -0.5554036,
          -0.24678516,
          0.19333626,
          0.86013263,
          -0.4438322,
          0.5899328,
          0.87239707,
          -0.9119158,
          -0.17445011,
          0.57691705,
          0.9076544,
          0.22650462,
          -0.87372947,
          0.06318411,
          -0.59601074,
          -0.5660285,
          0.5007362,
          -0.35308063,
          0.26315406,
          0.35722548,
          0.27270693,
          0.15714431,
          -0.91461086,
          -0.9429371,
          -0.43309677,
          0.67403466,
          0.41049334,
          -0.42509127,
          -0.39786562,
          -0.3934903,
          -0.096947566,
          0.9065046,
          -0.28160086,
          0.8311909,
          -0.1187941,
          -0.8027877,
          0.8456445,
          0.44815776,
          -0.5772868,
          -0.602335,
          0.29045203,
          -0.039017513,
          -0.383048,
          0.48496076,
          -0.17129566,
          0.31715435,
          -0.07963733,
          0.17583059,
          -0.23198976,
          0.71433717,
          0.098166876,
          0.63050705,
          0.911271,
          -0.8924778,
          -0.92559314,
          0.28895944,
          0.43327537,
          -0.29535344,
          -0.6022383,
          -0.47236836,
          0.65066075,
          0.62665486,
          0.29779887,
          0.7863277,
          0.15011224,
          0.16544265,
          0.7338128,
          -0.27560392,
          0.48208347,
          0.8755886,
          -0.07890103,
          -0.061823014,
          -0.5751254,
          0.9051045,
          -0.44623816,
          0.47456372,
          0.5735913,
          -0.07737944,
          0.7542627,
          0.63916755,
          1.0548664,
          0.76694137,
          -0.95730025,
          -0.50946873,
          0.39936414,
          0.13492844,
          -0.63767684,
          0.3367009,
          -0.4545759,
          -0.36038873,
          -0.18539508,
          0.3787366,
          -0.66520816,
          0.37400073,
          0.02872355,
          0.39696655,
          -0.4426854,
          -0.107809484,
          -0.580428,
          0.81677717,
          0.79052126,
          -0.0030621812,
          -0.1396395,
          0.68364614,
          0.81079954,
          -0.32384658,
          -0.727749,
          -0.27286735,
          0.059030402,
          -0.2368917,
          -0.5293696,
          -0.65680933,
          0.76952225,
          -0.7534479,
          0.36797476,
          -0.4945648,
          0.83423936,
          -0.7768709,
          -0.17911197,
          -0.7105206,
          -0.10129821,
          -0.25382417,
          -0.3108206,
          0.6500464,
          0.539524,
          -0.58326054,
          -0.37658373,
          -0.5387609,
          -0.072435774,
          0.57862425,
          -0.5263997,
          -0.074214816,
          1.0000513,
          -0.5828715,
          0.07801065,
          0.00037244428,
          -0.26782522,
          0.6816377,
          0.16663554,
          -0.84258646,
          -0.18943821,
          -0.44730315,
          -0.13177001,
          -0.5043637,
          0.28959993,
          0.041469473,
          -0.8203604,
          -0.5011063,
          0.9180559,
          1.0222465,
          -0.8385429,
          -0.9211966,
          0.5452122,
          -0.1701162,
          0.060724184,
          0.08843153,
          0.094102524,
          0.59697723,
          -0.43726957,
          0.18374385,
          -0.6921376,
          0.47133037,
          -0.6950614,
          0.36960325,
          -0.36178288,
          0.20045485,
          -0.29559088,
          0.3396401,
          0.17871492,
          0.62886596,
          0.049555317,
          -0.49828622,
          0.5642046,
          0.7335749,
          0.03205051,
          0.20539908,
          0.6768127,
          0.101732224,
          -0.882308,
          0.97338474,
          0.6302115,
          0.28437522,
          0.76505,
          0.34334993,
          -0.6558176,
          0.5782863,
          -0.13962986,
          0.17540939,
          -0.95631576,
          -0.30137393,
          -0.11108863,
          -0.6913544,
          0.9240528,
          0.76066846,
          -0.88440984,
          0.1458508,
          -0.28127515,
          0.17762204,
          -0.9482016,
          -0.027704135,
          0.34418926,
          0.51362336,
          -0.91200507,
          0.49948478,
          0.8044217,
          -0.85973096,
          0.92892045,
          0.23496325,
          0.8277452,
          -0.6309028,
          0.8147112,
          -0.45068407,
          -0.22957411,
          0.7131962,
          0.8501772,
          -0.050537813,
          -0.6771742,
          -0.6791275,
          -0.7338977,
          0.9672783,
          -0.09286645,
          0.0306153,
          -0.7429331,
          -0.64996773,
          -0.5752839,
          0.8776446,
          -0.5550453,
          0.72023785,
          0.12754673,
          0.052675094,
          0.9313724,
          0.16217959,
          0.32375094,
          0.9557797,
          0.32079062,
          -0.14724797,
          0.23926155,
          -0.27829584,
          -0.26318792,
          -0.6789525,
          -0.69720954,
          0.9451227,
          0.8542769,
          -0.4742243,
          -0.548527,
          -0.48413998,
          -0.66395164,
          -0.6240344,
          0.33305612,
          -0.8187551,
          0.16080722,
          -0.40520406,
          0.5755912,
          -0.11696362,
          0.42226654,
          0.67355466,
          0.21975105,
          0.23358794,
          -0.7090533,
          0.6641113,
          -0.05646176,
          0.42456385,
          -0.9909861,
          -0.40343368,
          0.8945204,
          0.25911635,
          -0.8706293,
          0.35358375,
          0.71235096,
          0.94689584,
          -0.63112307,
          -0.51734644,
          -0.7067933,
          -0.63817096,
          0.5867922,
          -0.71980566,
          0.48867896,
          -0.8743563,
          -0.7482469,
          0.50903827,
          -0.61521,
          -0.9428614,
          0.5669994,
          -0.14096984,
          -0.069940366,
          0.9112787,
          0.6126526,
          0.7924793,
          -0.02199495,
          -0.043523066,
          -0.600624,
          0.6771754,
          0.046263453,
          -0.5340002,
          -0.6628849,
          -0.15352911,
          0.9282119,
          0.13576388,
          -0.52441585,
          0.44289213,
          0.19478558,
          -0.6585661,
          -0.38179937,
          0.8644985,
          -0.425933,
          -0.16782193,
          0.32061085,
          0.77295667,
          -0.5055747,
          -0.28183904,
          0.6837473,
          0.83060235,
          -0.38692662,
          -0.96669036,
          0.8173211,
          0.23541725,
          -0.6689998,
          -0.18706971,
          0.16296262,
          0.3820843,
          0.3011698,
          -0.6436241,
          0.68688107,
          0.6647671,
          0.6380305,
          -0.121406436,
          0.21365535,
          -0.43169332,
          0.28685415,
          0.800943,
          0.014247852,
          0.56112397,
          -0.48944673,
          0.40445238,
          0.7573242,
          -0.66884476,
          -0.11013317,
          -0.79052573,
          0.767982,
          -0.8033698,
          -0.3657412,
          0.15190797,
          0.63925093,
          -0.3173077,
          0.054408766,
          -0.4171673,
          -0.30644676,
          -0.9141977,
          0.55526173,
          -0.39706647,
          -0.5843981,
          0.09343529,
          0.7843132,
          -0.5832807,
          0.11015928,
          -0.59823835,
          0.39169574,
          -0.26562887,
          0.99695855,
          0.1967594,
          0.4998928,
          0.58200055,
          0.7377369,
          -0.7912939,
          -0.9862962,
          0.23818429,
          -0.012775673,
          -0.8735276,
          0.5150091,
          0.4706378,
          0.47120222,
          0.44062257,
          0.3260051,
          -0.19475596,
          -0.89477724,
          0.12252278,
          -0.97508866,
          0.3864758,
          0.37115133,
          -0.08090675,
          -0.5635681
        ],
        [
          -0.29128873,
          0.31679237,
          0.9423046,
          0.08032417,
          -0.20286107,
          0.00012123585,
          -0.8474014,
          -0.11994982,
          -0.55590165,
          0.98120606,
          0.69481575,
          -0.9238956,
          0.14371492,
          0.16257115,
          0.555854,
          -0.8248062,
          0.8398924,
          -0.6575128,
          -0.40833127,
          0.23116267,
          0.2692126,
          -0.3381034,
          -0.07917273,
          0.12143493,
          0.1553067,
          0.106704354,
          -0.9749551,
          -0.90264165,
          0.018458366,
          0.703702,
          -0.18435085,
          0.58032,
          0.6612624,
          -0.43223006,
          -0.08864761,
          -0.3374096,
          -0.2624537,
          -0.24990539,
          0.36207235,
          -0.2556439,
          0.8878077,
          -0.20541145,
          -0.32595012,
          0.22751047,
          0.026353387,
          -0.20672198,
          -0.9668302,
          0.8367628,
          0.96398383,
          0.71401787,
          0.28566608,
          -0.6603231,
          0.06981051,
          -0.30604577,
          0.118219376,
          0.81329954,
          0.18852317,
          -0.640478,
          0.24620758,
          0.8367231,
          -0.00048486466,
          0.10696149,
          -0.97136575,
          -0.41683254,
          -0.657572,
          0.80226904,
          0.9863904,
          0.7378736,
          0.691295,
          0.9024181,
          0.42121083,
          0.251807,
          0.0064095454,
          0.97401476,
          -0.27946472,
          0.63896126,
          0.67503566,
          0.14277709,
          0.78483266,
          0.6962629,
          0.3163664,
          0.1763287,
          -0.47594845,
          -0.63739955,
          -0.2499057,
          0.5582348,
          -0.9733613,
          -0.5075649,
          -0.5100742,
          -0.1792466,
          -0.9636839,
          -0.96173584,
          -0.7757819,
          0.66877246,
          0.68705,
          -0.87402064,
          0.730332,
          -0.8797019,
          -0.100058675,
          0.15842216,
          0.30096242,
          0.39016527,
          0.2980578,
          -0.36787012,
          0.9558358,
          0.7252557,
          -0.6130676,
          -0.26191595,
          0.6132931,
          0.046409175,
          0.7321701,
          -0.039334774,
          0.450994,
          -0.8799859,
          0.34127012,
          -0.49769476,
          -0.7993203,
          -0.073060766,
          -0.83465904,
          -0.35318768,
          0.4265348,
          0.88846815,
          0.7911714,
          0.06037557,
          -0.08822072,
          -0.92888004,
          0.7434773,
          0.39277744,
          0.90337133,
          -0.17778713,
          0.8860621,
          -0.61270523,
          -0.48050234,
          -0.09945855,
          0.31537297,
          -0.070320494,
          -0.32972822,
          0.6559529,
          0.86811256,
          0.38790277,
          -0.54546547,
          0.80000734,
          -0.66134846,
          0.95521814,
          0.76107514,
          -0.23629974,
          0.87547904,
          -0.59844995,
          0.004669565,
          -0.44292623,
          0.34437457,
          0.8152712,
          0.16068612,
          0.14432353,
          -0.71707493,
          -0.3858378,
          0.09898941,
          -0.08497465,
          0.70849645,
          0.17204222,
          -0.84112555,
          -0.1490204,
          0.099076144,
          0.21113338,
          -0.44374746,
          -0.40329716,
          0.56006,
          0.93334687,
          -0.53707504,
          -0.94836634,
          -0.8825328,
          0.7785093,
          -0.30229196,
          0.23627742,
          0.02186984,
          -0.0023720432,
          0.94239926,
          -0.016468765,
          -0.6162751,
          -0.48640335,
          -0.4580517,
          -0.6829732,
          0.8490821,
          -0.09023452,
          -0.277651,
          -0.14672543,
          0.46186838,
          -0.3723466,
          -0.4881695,
          0.6477485,
          0.31353298,
          0.0148085235,
          0.82581323,
          0.06652867,
          0.48033363,
          -0.43698078,
          -0.7392692,
          0.4161011,
          0.35002518,
          -0.66928256,
          -0.5974569,
          -0.5144662,
          0.6405445,
          -0.85896045,
          0.06707962,
          -0.91796863,
          0.33707383,
          0.6189817,
          0.78972363,
          0.512403,
          0.5894114,
          0.23425604,
          -0.4587265,
          -0.92612034,
          -0.15844546,
          -0.8740827,
          -0.13616505,
          -0.06844857,
          -0.29872197,
          0.7679711,
          -0.4252752,
          -0.21661782,
          0.77375865,
          -0.38627765,
          0.63812,
          -0.56125915,
          -0.8565318,
          0.68378603,
          0.53845435,
          0.963102,
          0.6971828,
          -0.40055183,
          0.29323107,
          -0.70720285,
          -0.06592433,
          -0.46625546,
          0.99597996,
          0.03029212,
          -0.58827513,
          0.18471645,
          -0.31963873,
          -0.6606093,
          -0.20004949,
          -0.31410608,
          -0.9763699,
          -0.46469906,
          -0.5634561,
          -0.23142608,
          0.76313025,
          0.25913846,
          0.7999613,
          0.67655927,
          -0.94403976,
          -0.36347893,
          0.18964091,
          -0.5220364,
          -0.43765366,
          0.32069448,
          -0.3442037,
          -0.50010777,
          0.2533114,
          -0.026384419,
          0.27957705,
          0.502627,
          -0.82568926,
          0.7253403,
          -0.1995897,
          0.5929431,
          0.30898622,
          -0.070482396,
          -1.0000868,
          -0.18098801,
          0.8928141,
          -0.724376,
          0.23094073,
          -0.5350245,
          0.72382855,
          -0.90282553,
          -0.897449,
          -0.20702563,
          0.1164965,
          0.5690391,
          0.7466187,
          0.023252254,
          0.3983065,
          0.87950295,
          -0.20582986,
          0.706431,
          0.14578763,
          0.5874768,
          0.36152995,
          0.30826995,
          -0.8954193,
          -0.08289967,
          0.5006734,
          -0.39963594,
          -0.17154907,
          0.8224938,
          -0.79447263,
          -0.52431005,
          0.74160475,
          -0.6285155,
          -0.25519767,
          -0.008491026,
          -0.6773302,
          0.24215111,
          -0.37422085,
          0.8064569,
          -0.83903027,
          0.67412364,
          0.858043,
          -0.5622677,
          0.6685936,
          -0.81166255,
          0.89066386,
          -0.81279397,
          -0.26799953,
          -0.5929197,
          -0.5195081,
          0.88824135,
          -0.6690267,
          0.06723643,
          0.17247084,
          0.52078396,
          0.40468228,
          0.81812173,
          0.1572622,
          0.2848691,
          0.047398478,
          0.12264663,
          -0.33282903,
          -0.75647324,
          0.6302266,
          -0.47575256,
          -0.56845987,
          -0.42301407,
          -0.90208936,
          -0.33775756,
          -0.6537664,
          -0.23284677,
          0.8271724,
          0.01864708,
          0.23630841,
          0.36244705,
          0.4493185,
          0.70929956,
          0.4290198,
          -0.70875084,
          1.0202769,
          -0.7098574,
          0.9534599,
          0.82182497,
          -0.015528661,
          0.22901478,
          -0.054776497,
          -0.47867295,
          0.059643775,
          0.2806988,
          0.7529061,
          0.67769647,
          -0.12603688,
          -0.035540596,
          -0.51667297,
          0.52444446,
          -0.8392942,
          -0.42304602,
          0.86752707,
          0.15288512,
          0.41509262,
          -0.018574491,
          0.20370382,
          0.5299197,
          -0.79570025,
          -0.5653653,
          0.36485833,
          0.11584755,
          -0.30218297,
          -0.22920205,
          -0.6578453,
          0.13157809,
          0.517818,
          0.59885395,
          -0.21493234,
          -0.9246204,
          -0.13402228,
          0.3055818,
          -0.02025548,
          0.29589078,
          -0.1719397,
          0.6329558,
          0.9722066,
          0.19169618,
          -0.032352503,
          -0.011457645,
          0.55350244,
          0.13693424,
          -0.13876532,
          -0.31192094,
          0.090015,
          0.834027,
          -0.92715496,
          0.045185167,
          -0.47555482,
          0.13143085,
          0.6981363,
          -0.6541836,
          0.021521505,
          0.2364265,
          -0.30701506,
          0.88412726,
          0.4176871,
          0.4458236,
          -0.1644601,
          0.48320273,
          -0.44484425,
          0.6412675,
          -0.4473441,
          -0.4444005,
          -0.0823254,
          0.96985465,
          -0.07584511,
          -0.19044277,
          -0.11047328,
          0.6467021,
          -0.8973306,
          0.19612028,
          0.6654025,
          -0.5244024,
          -0.24498543,
          0.2954383,
          -0.8433743,
          0.8806551,
          -0.9221757,
          -0.12350707,
          -0.4007242,
          -0.07484638,
          -0.8173037,
          -0.3492044,
          0.99427134,
          -0.7083475,
          0.8480206,
          -0.75263286,
          -0.7404541,
          0.38751683,
          0.47958776,
          -0.59207547,
          0.3453063,
          -0.37041533,
          0.033188388,
          -0.027776403,
          0.38441947,
          0.538234,
          0.45411676,
          0.71592146,
          -0.51657057,
          -0.8733134,
          -0.38274607,
          0.5485232,
          -0.8346173,
          -0.95652294,
          0.08506992,
          -0.6724349,
          -0.12185261,
          0.58591413,
          0.5996716,
          0.27581453,
          0.5421942,
          -0.14071748,
          -0.17605351,
          0.7346107,
          -0.15099885,
          -0.96323675,
          0.35423645,
          -0.92242366,
          0.917927,
          0.51499236,
          -0.7374841,
          0.27847674,
          -0.20223731,
          -0.01182427,
          -0.9990127,
          -0.6352264,
          0.46261123,
          0.9014338,
          -0.5979025,
          0.30125815,
          -0.33679193,
          -0.796241,
          -0.80896974,
          0.7788894,
          -0.6977522,
          -0.4425523,
          0.102102265,
          0.3871721,
          -0.4812474,
          -0.6715992,
          0.9243146,
          -1.0168519,
          0.40104857,
          -0.74775094,
          -0.8250961,
          -0.33574376,
          -0.9818306,
          0.20726869,
          0.5646623,
          -0.28367153,
          0.9040344,
          0.56847644,
          0.8393594,
          0.3877021,
          -0.5028088,
          -0.46284035,
          -0.50097233,
          -0.37367985,
          0.4994052,
          -0.17733112,
          -0.32830805,
          0.52899927,
          0.7249509,
          0.03929419,
          -0.0037633076,
          -0.8135996,
          0.48277506,
          -0.061498806,
          0.80109185,
          -0.47873726,
          0.3099535,
          -0.22050498,
          0.7246271,
          0.42867574,
          -0.7994622,
          0.36298233,
          0.0595023,
          0.94753385,
          0.939804,
          -0.46154392,
          0.6268764,
          0.04908754,
          -0.8606021,
          -0.97703165,
          -0.0024020092,
          0.55347925,
          -0.22408004,
          -0.3703614,
          -0.4967455,
          -0.07580034,
          0.5855997,
          -0.44133633,
          0.34950653,
          0.50839293,
          0.32036093,
          0.23745014,
          -0.023254145,
          -0.6980376,
          -0.99912494,
          -0.52270883,
          -0.106298886,
          -0.80079204,
          -0.37555,
          0.12954195,
          -0.26546812,
          0.06956678,
          -0.26480982,
          -0.60870945,
          0.36610895,
          0.36900598,
          -0.41547006,
          0.5808272,
          -0.4991168,
          -0.33826518,
          0.84017634,
          -0.5098006,
          0.20928527,
          0.50107026,
          -0.019782903,
          0.8404427,
          0.690054,
          -0.3030996,
          -0.12018463,
          0.5182881,
          -0.7279513,
          -0.8849362,
          -0.64926475,
          0.8683257,
          -0.6385324,
          0.49908888,
          -0.2893324,
          0.34465456,
          -0.8321247,
          -0.9997884,
          0.98876536,
          -0.9540542,
          0.6529082,
          0.5846566,
          -0.68132055,
          0.8880058,
          0.30677512,
          -0.99994177,
          -0.52427644,
          -0.7889241,
          -0.23343189,
          -0.5645291,
          0.030095182,
          0.17413768,
          -0.026200436,
          0.9074802,
          0.69863445,
          0.6977954,
          -0.7232292,
          -0.22324155,
          0.16063878,
          -1.0034575,
          0.99575716,
          -0.8613322,
          0.1694598,
          -0.8055666,
          0.15650311,
          -0.2941791,
          -0.7235895,
          0.9908915,
          -0.6647194,
          0.12680586,
          -0.2353388,
          0.08079007,
          0.1481398,
          0.33817732,
          0.3824962,
          -0.78443944,
          -0.51540804,
          -0.2840076,
          -0.18216695,
          -0.9443728,
          0.39932945,
          -0.41023412,
          0.8961839,
          -0.054104015,
          -0.5493129,
          -0.15562612,
          -0.36217085,
          -0.78319126,
          -0.5366232,
          -0.37962598,
          0.43416572,
          -0.8424958,
          0.60908914,
          -0.71228456,
          -0.6582571,
          0.71839017,
          -0.8269021,
          0.7515853,
          0.57125473,
          0.55998594,
          -0.0968014,
          -0.98408204,
          -0.66396236,
          -0.535082,
          0.7265762,
          0.30667132,
          0.8770731,
          -0.5022203,
          0.36031172,
          0.1240458,
          -0.622638,
          -0.5813542,
          -0.27213293,
          -0.31454456,
          0.9884757,
          -0.8641905,
          -0.9198728,
          0.3375124,
          -0.7658865,
          -0.44349837,
          -0.42601275,
          -0.67968416,
          0.3938043,
          0.03152921,
          -0.49153903,
          -0.644985,
          0.29934534,
          0.6383402,
          -0.0021687315,
          0.31223583,
          0.5256965,
          -0.48200566,
          -0.36608627,
          0.67358917,
          0.30822352,
          -0.20202465,
          0.2744212,
          0.31234977,
          0.5909392,
          -0.93318295,
          0.06952802,
          0.8217104,
          -0.59882206,
          -0.13440669,
          0.14923005,
          0.857373,
          -0.26839682,
          -0.7091836,
          -0.8894694,
          0.4753195,
          -0.57988197,
          -0.9749944,
          0.5527258,
          -0.71554416,
          -0.04213949,
          0.11637774,
          0.78769356,
          -0.9821833,
          -0.24642393,
          -0.016116684,
          0.053804707,
          -0.1906528,
          -0.89916646,
          -0.32295904,
          0.21420309,
          0.22470169,
          -0.5299834,
          0.17253217,
          0.8083942,
          0.7828037,
          0.9266481,
          -0.092109844,
          -0.82887286,
          -0.32950854,
          0.5763207,
          0.40635097,
          0.6916982,
          -0.86512387,
          -0.54377496,
          -0.33399287,
          0.6414399,
          0.34855413,
          0.8771635,
          -0.4891985,
          -0.22881791,
          0.32374746,
          0.12961678,
          0.7321563,
          -0.79553986,
          0.45348492,
          0.66164756,
          0.42697722,
          0.16920163,
          0.883556,
          -0.6520616,
          0.144671,
          0.8813399,
          -0.1520763,
          -0.41307613,
          0.59418005,
          0.71269494,
          -0.07644981,
          -0.48517323,
          -0.54130816,
          -0.86672425,
          -0.32521594,
          0.2791208,
          -0.66206527,
          -0.16489737,
          -0.54514503,
          0.43674073,
          0.2740508,
          -0.4538464,
          -0.49586737,
          -0.60774934,
          0.5685425,
          -0.1401487,
          0.48754677,
          -0.34712312,
          -0.68432343,
          -0.23332958,
          -0.55534023,
          0.979195,
          -0.7383305,
          -0.069594525,
          -0.11675255,
          0.17025961,
          0.6405915,
          0.7945664,
          -0.21174169,
          0.6787782,
          -0.4125893
        ],
        [
          -0.75321984,
          -0.90715253,
          -0.036387563,
          -0.08295035,
          0.6711652,
          -0.45555878,
          -0.1655643,
          0.6148064,
          -0.38843858,
          0.51127636,
          -0.85900116,
          -0.66950834,
          -0.80277693,
          0.20847538,
          0.4289451,
          -0.34282708,
          -0.17363632,
          0.93649566,
          -0.08796215,
          0.2812214,
          0.222018,
          0.9621866,
          0.2478019,
          0.97155654,
          -0.009869933,
          -0.9704629,
          -0.6055033,
          0.2999053,
          -0.3796078,
          0.063949466,
          -0.31841958,
          0.07783508,
          0.061923385,
          -0.28191447,
          -0.01734531,
          -0.02089094,
          -0.26480433,
          0.04095851,
          -0.88325524,
          0.8086226,
          -0.4867837,
          0.096561655,
          0.11668688,
          0.5783081,
          0.75842905,
          0.95580196,
          0.19048698,
          -0.9949199,
          -0.33742693,
          -0.03285026,
          -0.110512696,
          -0.6471771,
          -0.83016753,
          0.7713959,
          0.9985031,
          0.6516293,
          -0.57963574,
          -0.68209887,
          0.06895149,
          -0.20918895,
          -0.26897013,
          -0.3611009,
          0.28376848,
          0.27098858,
          -0.55945843,
          0.8992029,
          -0.96059704,
          -0.625613,
          -0.007814815,
          -0.25408754,
          -0.23923816,
          0.71738267,
          -0.3389988,
          -0.3553029,
          -0.3610784,
          -0.96810114,
          0.11934413,
          -0.34314895,
          0.73180246,
          0.24247107,
          -0.00024923208,
          -0.67818654,
          -0.2894361,
          -0.22639167,
          -0.52495897,
          0.68643343,
          -0.1144052,
          -0.7466182,
          -0.12344895,
          -0.22719611,
          0.65230644,
          -0.9166993,
          -0.2531349,
          -0.86440665,
          0.40711892,
          -0.8315717,
          -0.09227697,
          -0.75203836,
          0.55086046,
          -0.27375436,
          -0.34612146,
          0.88398975,
          -0.094625436,
          -0.74497586,
          -0.07289935,
          -0.46826994,
          0.3767715,
          0.13851841,
          0.09867188,
          0.9557104,
          -0.53632593,
          0.23172331,
          -0.076925635,
          0.16943283,
          0.80897623,
          -0.1070827,
          0.72879744,
          -0.095992655,
          -0.30449206,
          -0.92783207,
          -0.1541328,
          -0.49065873,
          0.6931335,
          0.25273064,
          -0.94299114,
          0.34008625,
          0.49825975,
          -0.16623242,
          -0.2528504,
          0.46966028,
          0.32347742,
          0.9205781,
          -0.14928682,
          0.98328406,
          -0.12713002,
          -0.8875346,
          0.15238173,
          -0.90658236,
          0.40658617,
          -0.36553502,
          0.19495368,
          0.9612137,
          0.64635324,
          0.084920034,
          -0.95770663,
          0.9730115,
          0.015375744,
          -0.21590701,
          -0.6854222,
          0.55477464,
          0.73331404,
          0.26176727,
          0.15687555,
          0.8349708,
          -0.60078734,
          0.13320813,
          0.9428133,
          -0.94751406,
          0.7942858,
          -0.18083411,
          -0.5812606,
          0.85884345,
          -0.6094284,
          -0.7479408,
          0.13437961,
          0.37580776,
          -0.7889781,
          0.56962615,
          -0.9185927,
          0.39501923,
          0.888716,
          0.8888166,
          0.1263471,
          -0.14065042,
          0.9750677,
          0.70882267,
          0.018634612,
          0.09964421,
          -0.8539234,
          0.8935573,
          -0.99005663,
          -0.5543298,
          -0.67000216,
          -0.43582442,
          0.7485521,
          0.48306626,
          0.48547563,
          0.08302753,
          -0.57978433,
          0.85300756,
          -0.4603466,
          0.6664533,
          -0.81768304,
          0.9459722,
          -0.57105035,
          -0.13585582,
          0.1613557,
          0.62409174,
          -0.9482447,
          0.2973762,
          -0.69836736,
          -0.15492073,
          -0.3251156,
          0.82124686,
          0.21156842,
          0.54831564,
          -0.10834812,
          -0.42761475,
          0.026555512,
          0.1024406,
          0.5408641,
          0.93028593,
          0.10278985,
          -0.9942181,
          -0.45971596,
          -0.94901294,
          -0.9144791,
          0.932765,
          -0.45620131,
          0.53826743,
          0.8836424,
          -0.23338358,
          -0.89876884,
          -0.8481296,
          -0.2937882,
          0.666585,
          0.16888367,
          0.68537074,
          -0.57212347,
          -0.63976043,
          0.88055736,
          0.5416252,
          -0.73549455,
          0.97765803,
          -0.3075714,
          0.07147879,
          -0.8787263,
          -0.30351853,
          0.071841806,
          -0.95242935,
          -0.5287556,
          -0.8965823,
          0.6993444,
          -0.2215009,
          0.6813594,
          0.8744794,
          -0.73846674,
          0.38957393,
          -0.25665906,
          0.867282,
          -0.5434577,
          0.98197925,
          -0.8398909,
          -0.5775116,
          -0.43841052,
          -0.43409887,
          -0.8564627,
          0.10750987,
          0.9306645,
          -0.32831186,
          -0.8275631,
          -0.2919124,
          -0.38897055,
          -0.17881449,
          0.98553336,
          0.96069944,
          0.35998598,
          -0.59797996,
          0.018098455,
          -0.101887554,
          -0.48089725,
          0.33379242,
          -0.7189456,
          0.4205033,
          -0.8599739,
          0.08262861,
          -0.99453497,
          -0.88973415,
          -0.24735059,
          -0.57306695,
          0.2418611,
          -0.83733326,
          0.6051714,
          -0.58267766,
          0.7321224,
          -0.39818487,
          -0.8020712,
          -0.89935285,
          -0.9632561,
          -0.112996094,
          0.103973456,
          0.6642518,
          -0.51381725,
          -0.476459,
          -0.3618132,
          -0.6618071,
          -0.008877678,
          -0.7181311,
          0.7271245,
          0.36096168,
          -0.74872434,
          0.17466559,
          0.6817973,
          -0.8900369,
          -0.90905744,
          -0.8107742,
          -0.1253762,
          -0.12941469,
          0.56438893,
          0.08370458,
          0.045739654,
          -0.578082,
          -0.30576912,
          -0.5644322,
          0.6572788,
          0.78650135,
          -0.9517131,
          -0.88035035,
          0.5778774,
          0.5722964,
          0.25372198,
          -1.0024042,
          -0.20903207,
          0.32074684,
          -0.8259328,
          0.5745034,
          0.6049688,
          0.9251577,
          -0.13677274,
          -0.94929004,
          0.55191445,
          0.6367997,
          0.7225462,
          -0.09328807,
          0.985383,
          0.30774602,
          0.15715018,
          0.5171576,
          -0.086865425,
          0.8314311,
          0.8016132,
          0.91096896,
          -0.66484654,
          0.55795175,
          0.36699075,
          -0.14339873,
          -0.79130155,
          0.69894946,
          0.86329186,
          -0.89396536,
          0.70293385,
          -0.6074659,
          0.73708874,
          0.49941972,
          -0.3614903,
          -0.4242878,
          0.6300251,
          -0.34313592,
          -0.3608198,
          0.4221684,
          0.36403242,
          -0.077457175,
          0.04097864,
          0.8562797,
          -0.1921884,
          0.037447177,
          -0.96896976,
          0.7851642,
          -0.48457274,
          -0.76077527,
          0.8148995,
          -0.31997702,
          -0.31274387,
          -0.29952067,
          0.6767444,
          -1.0303835,
          0.020647204,
          0.50608563,
          -0.68055314,
          -0.11643687,
          0.58820534,
          -0.36550012,
          0.51000464,
          -0.7615499,
          0.58100486,
          0.017285665,
          0.5039778,
          0.119064,
          0.953619,
          0.6819436,
          -0.29040188,
          -0.83728254,
          0.37236592,
          -0.50680166,
          0.28429615,
          -0.74700135,
          -0.48075122,
          0.88059026,
          0.1764874,
          -0.966878,
          -0.73170507,
          -0.9679752,
          -0.08062475,
          0.6537442,
          0.34115487,
          0.074244775,
          -0.51155657,
          -0.23383236,
          -0.40882006,
          0.9438453,
          -0.8475979,
          -0.49238315,
          0.00054383866,
          0.76204735,
          0.41542965,
          -0.03432825,
          0.9935211,
          -0.24962655,
          0.8575495,
          0.59196895,
          -0.54369295,
          -0.46665454,
          0.25043383,
          0.37017065,
          -0.23674776,
          0.101892255,
          -0.5517328,
          0.003233233,
          0.24080986,
          -0.8999002,
          -0.4860553,
          0.07297472,
          -0.93893874,
          -0.30801785,
          0.31073707,
          -0.48159027,
          0.099550635,
          -0.35047898,
          -0.33784226,
          -0.11668205,
          -0.51703054,
          -0.2983824,
          0.6827031,
          0.24487281,
          0.70122457,
          0.23702763,
          0.94659954,
          0.041104272,
          -0.3555716,
          -0.93194175,
          -0.90176404,
          0.10028646,
          0.6649759,
          -0.23282136,
          -0.6888209,
          -0.33127254,
          -0.61184543,
          -0.15028554,
          0.43730474,
          -0.13162482,
          0.1373103,
          -0.97186446,
          -0.9763677,
          0.025056759,
          -0.7754947,
          -0.551968,
          -0.27171007,
          0.33872166,
          -0.73545045,
          -0.46840948,
          0.38936508,
          0.5328549,
          -0.3846853,
          -0.9752273,
          -0.42240474,
          -0.087367736,
          0.42067873,
          -0.6084939,
          -0.6286514,
          -0.92848146,
          -0.31759715,
          0.9694443,
          0.5941109,
          0.5460183,
          -0.673074,
          -0.739872,
          0.4042467,
          -0.9342098,
          -0.749409,
          0.21915917,
          0.39159322,
          0.86309075,
          -0.1438913,
          -0.36517623,
          0.26771593,
          -0.7973529,
          -0.43583763,
          -1.0048193,
          -0.7800823,
          -0.96347755,
          0.6909368,
          0.08942134,
          0.24517968,
          -0.8288751,
          0.39501348,
          -0.36896124,
          -0.6584733,
          -0.37276044,
          0.28722903,
          0.16507743,
          0.1960464,
          -0.21740855,
          0.30130926,
          -0.5202854,
          -0.5850008,
          -0.47274643,
          0.9543674,
          -0.67966247,
          0.57081413,
          0.22753589,
          -0.52329504,
          -0.06111038,
          0.6914174,
          -0.7203135,
          0.9055144,
          -0.7697236,
          -0.035089344,
          -0.81293964,
          -0.17421304,
          0.054792088,
          0.48089042,
          -0.19289955,
          -0.86225307,
          0.9292528,
          0.49986643,
          0.37864268,
          -0.28296995,
          0.043113187,
          0.4895864,
          0.54945177,
          -0.48525554,
          -0.3607455,
          0.15866122,
          0.029243661,
          -0.5741022,
          0.56874084,
          0.11409909,
          -0.91097516,
          -0.5040062,
          -0.9676099,
          -0.61861897,
          0.52514565,
          -0.449693,
          -0.510453,
          -0.2662094,
          0.17416012,
          0.52639294,
          -0.16367207,
          0.7432998,
          0.29785746,
          -0.12108064,
          0.11632674,
          0.7349477,
          -0.46099976,
          -0.036189403,
          -0.86740655,
          0.7880431,
          -0.020114174,
          0.5776604,
          -0.8572475,
          -0.6662684,
          0.52871203,
          -0.20682164,
          -0.056486048,
          0.09314097,
          -0.74176294,
          0.89743024,
          -0.81464535,
          -0.9987017,
          -0.9677636,
          0.6626409,
          -0.9219021,
          0.9528638,
          -0.29778117,
          0.52338487,
          0.31762704,
          -0.46232373,
          0.64603335,
          0.14081025,
          -0.06761423,
          0.919067,
          0.46118447,
          -0.17048381,
          0.10763423,
          -0.25273022,
          -0.12256493,
          0.25018734,
          -0.88272375,
          0.93445283,
          -0.369138,
          -0.7309659,
          -0.25868222,
          0.36299375,
          0.87136143,
          -0.38778704,
          0.4647416,
          -0.36688843,
          0.88472515,
          0.3390416,
          0.9314929,
          0.18653946,
          -0.6532244,
          0.02024744,
          0.9013519,
          -0.3683343,
          -0.07652736,
          0.7109071,
          0.69174886,
          0.33540225,
          -0.32033536,
          -0.5246236,
          0.7075875,
          0.80647,
          0.5330985,
          -0.30475467,
          -0.7137827,
          -0.74077195,
          -0.9201742,
          -0.74976,
          -0.27515173,
          -0.54535687,
          0.018608212,
          -0.14523149,
          0.9575652,
          0.108296506,
          0.8998128,
          -0.16668712,
          -0.9779232,
          -0.28166872,
          -0.5185821,
          0.6401107,
          -0.4024784,
          -0.4598104,
          0.7849196,
          -0.4270017,
          -0.6372149,
          -0.84041256,
          -0.2379546,
          0.70514935,
          -0.36997807,
          0.20270473,
          0.21434051,
          0.4683339,
          0.4752711,
          0.8949581,
          0.5238481,
          0.8084589,
          0.7092465,
          -0.61691594,
          0.32283512,
          -0.6750846,
          0.7605694,
          0.007808248,
          -0.75401,
          0.2998266,
          0.37376902,
          -0.7581247,
          0.52433443,
          -0.8978687,
          0.32349995,
          -0.8226697,
          0.29278684,
          -0.20205343,
          0.9052068,
          0.57780755,
          0.3396706,
          0.0065296586,
          0.07931037,
          -0.6298326,
          0.95769477,
          -0.20830466,
          0.29209855,
          0.9638607,
          -0.67188984,
          0.7143279,
          -0.9280601,
          -0.002876156,
          0.8733685,
          -0.25416514,
          -0.35493597,
          0.4745329,
          0.6602806,
          -0.2886313,
          -0.3997158,
          -0.63416564,
          0.27762514,
          -0.4997137,
          0.73382026,
          -0.9033581,
          0.8289329,
          0.48473787,
          -0.5977701,
          0.4362779,
          0.58567065,
          0.9868354,
          0.52808785,
          0.76473314,
          0.2518507,
          0.15477572,
          -0.6631514,
          -0.5835727,
          0.76784074,
          0.41346735,
          -0.47852716,
          -0.6330434,
          -0.22824077,
          0.6570717,
          0.20650877,
          0.21506697,
          0.6968297,
          -0.5619839,
          -0.9900623,
          -0.2268051,
          0.36860758,
          -0.58323693,
          -0.9537457,
          0.5490984,
          0.008127689,
          0.97893155,
          -0.66454065,
          0.426499,
          -0.38492748,
          0.76736957,
          0.25880614,
          0.86366254,
          0.3660209,
          0.3206427,
          -0.687131,
          0.8811085,
          0.8021435,
          0.10900132,
          0.22871836,
          0.49890906,
          0.015498352,
          0.2063369,
          0.759065,
          -0.14981247,
          0.7922202,
          -0.8000689,
          0.71931535,
          -0.75168866,
          -0.6182703,
          -0.10663724,
          -0.3194319,
          -0.67834055,
          -0.052054644,
          -0.23360252,
          0.9942943,
          -0.23477006,
          0.36632705,
          -0.18884675,
          -0.5224161,
          0.4713405,
          0.10533498,
          0.19216911,
          0.44528994,
          -0.9500211,
          0.16189237,
          0.11744075,
          0.13158509,
          -0.84835136,
          -0.3557472,
          0.2836492,
          -0.820306,
          0.4127547,
          0.30344772,
          -0.32423785,
          -0.429037,
          0.66799307,
          -0.9727051,
          0.10937178,
          -0.4752071,
          0.6988976,
          0.75332284
        ],
        [
          -0.13808155,
          0.97656894,
          0.71581256,
          -0.57587886,
          0.68507373,
          -0.36986232,
          -0.79135823,
          0.9778414,
          0.46510983,
          0.6448597,
          0.058645725,
          0.40717256,
          -0.8502187,
          -0.19266978,
          -0.9287915,
          -0.74791473,
          0.7762457,
          0.027434587,
          -0.45387733,
          0.60489357,
          0.35980284,
          0.42444634,
          -0.7369751,
          0.06495881,
          0.9495089,
          0.99888015,
          -0.6133379,
          0.093360424,
          0.57722867,
          -0.643216,
          0.1569351,
          -0.18749356,
          0.17839074,
          -0.90353334,
          -0.7866153,
          -0.3992056,
          -0.4754317,
          0.05921864,
          0.50545245,
          0.11678234,
          -0.8529876,
          -0.31076017,
          -0.8798328,
          0.43571323,
          -0.5686476,
          -0.06972485,
          0.7431922,
          0.7920677,
          -0.16280866,
          0.52382654,
          -0.31937647,
          -0.051867414,
          -0.9079485,
          0.7192633,
          -0.32361805,
          -0.06436968,
          -0.9814117,
          0.49674177,
          0.92734945,
          0.48231512,
          -0.5371137,
          0.7903223,
          -0.7787936,
          -0.6746547,
          0.36208037,
          0.4779198,
          0.5463212,
          -0.8817393,
          0.26622185,
          0.21472752,
          -0.6411148,
          0.33237213,
          -0.74181306,
          0.9933685,
          0.5172617,
          0.53125,
          0.074088454,
          -0.6497813,
          0.16869724,
          0.50520504,
          -0.7136986,
          0.43051273,
          0.68211377,
          0.5703163,
          -0.789207,
          0.015403986,
          -0.16344225,
          0.51187986,
          0.21750614,
          -0.6916571,
          -0.5445504,
          0.97876436,
          -0.9921183,
          -0.34509444,
          -0.6125925,
          -0.76241285,
          -0.3117073,
          -0.58985335,
          -0.42715964,
          -0.49059457,
          -0.37602708,
          0.9828459,
          0.07510302,
          0.37547573,
          -0.2714518,
          -0.13815358,
          0.9075535,
          0.68143076,
          -0.8091074,
          0.73076415,
          0.76252484,
          -0.5818696,
          0.58170235,
          -0.27214387,
          -0.12874408,
          0.050222993,
          -0.59995425,
          -0.078358606,
          0.9245246,
          -0.60966074,
          -0.47576922,
          0.681378,
          0.3612699,
          0.5925336,
          -0.5774224,
          -0.6089874,
          -0.7699114,
          -0.41294605,
          0.4105654,
          0.44243872,
          0.06502078,
          0.476411,
          -0.32070634,
          0.7743433,
          -0.17457764,
          0.10449834,
          0.91456646,
          0.4585404,
          -0.72630054,
          -0.8414699,
          0.52335024,
          -0.53043723,
          0.09145234,
          0.45596308,
          -0.070434675,
          -0.0025635897,
          0.3895053,
          0.6363391,
          -0.87585455,
          -0.14866276,
          -0.5823011,
          0.9335044,
          0.64795786,
          -0.8707917,
          0.48756844,
          0.72732466,
          -0.24203181,
          -0.5682782,
          -0.5958202,
          0.88903433,
          -0.23472577,
          0.61896944,
          -0.8182813,
          0.87097937,
          0.75326645,
          0.72943234,
          0.5174001,
          0.26693302,
          -0.042778254,
          0.9431372,
          0.4916075,
          0.4974141,
          0.70863765,
          0.7812003,
          -0.56531817,
          -0.11791191,
          -0.001411939,
          0.77832115,
          -0.5583222,
          -0.84037477,
          0.40471017,
          -0.838607,
          -0.36491302,
          0.5030299,
          -0.5761162,
          -0.84000176,
          0.37269694,
          -0.23216718,
          -0.91275215,
          -0.06755566,
          0.7108613,
          0.8457988,
          0.20946358,
          0.79780793,
          -0.6277328,
          0.038186356,
          -0.033356283,
          -0.46653065,
          -0.80647653,
          -0.78131944,
          -0.71367747,
          -0.12041154,
          -0.7899484,
          0.35825503,
          0.7846117,
          -0.060380977,
          0.49370146,
          0.86035776,
          0.30027163,
          -0.18790016,
          0.7073295,
          0.543722,
          -0.91112876,
          -0.4741224,
          0.40474695,
          0.21382365,
          0.9285969,
          -0.58181834,
          -0.3454403,
          -0.11942189,
          0.23718041,
          0.6625037,
          0.46138453,
          -0.776591,
          0.30972764,
          0.3251801,
          0.3980742,
          -0.15890442,
          0.67576295,
          -0.38780066,
          -0.450609,
          0.76362586,
          -0.026565144,
          0.28072545,
          -0.5351628,
          0.49214312,
          -0.8911393,
          -0.44804114,
          0.16436899,
          -0.048556585,
          0.027948618,
          0.4332337,
          0.24365026,
          0.7602609,
          -0.30473706,
          0.64184034,
          0.0058413567,
          -0.6100806,
          -0.7356926,
          -0.49316022,
          -0.83074486,
          -0.16037226,
          0.7628617,
          0.022004178,
          -0.87921125,
          -0.72469145,
          0.43774694,
          -0.29643404,
          -0.9161692,
          -0.22317559,
          -0.58820266,
          0.19613244,
          -0.6467592,
          0.5909883,
          -0.83740634,
          0.8930773,
          0.73825425,
          0.3512385,
          -0.7396381,
          -0.89718026,
          0.7888184,
          0.53668755,
          -0.8753742,
          0.90902096,
          0.86148584,
          -0.34820357,
          0.27081856,
          0.031883948,
          -0.80413693,
          -0.5587256,
          -0.9291453,
          0.3456662,
          -0.6990671,
          0.057702594,
          0.92738813,
          -0.38798475,
          -0.5300801,
          -0.7714643,
          0.22127542,
          -0.5901843,
          -0.16925377,
          -0.45163122,
          0.04641104,
          -0.7669841,
          0.48656833,
          0.14958014,
          -0.9620705,
          -0.7092177,
          0.1303494,
          0.8676871,
          -0.27485496,
          -0.77059984,
          0.040967584,
          -0.110543825,
          -0.87635076,
          0.29897118,
          -0.4003999,
          -0.92327046,
          -0.8769256,
          0.38699302,
          -0.79179806,
          0.28087467,
          0.82077307,
          -0.24478449,
          0.52919984,
          0.68209773,
          0.27362746,
          -0.8731815,
          0.5385312,
          -0.2563596,
          0.9145444,
          -0.4435921,
          0.4090824,
          -0.37563384,
          0.4266761,
          -0.3487034,
          0.4366904,
          0.01661343,
          -0.31452453,
          -1.0347835,
          -0.3624014,
          -0.45164508,
          -0.92373836,
          0.3311633,
          -0.45674938,
          -0.27985463,
          -0.7088428,
          0.5261201,
          -0.096722856,
          -0.87810916,
          -0.6664026,
          0.7982356,
          0.49677166,
          0.01553827,
          0.740664,
          0.8572414,
          0.28627288,
          -0.9953397,
          -0.09567237,
          -0.019255273,
          0.157735,
          0.007477974,
          0.52761203,
          0.07269221,
          0.9529607,
          -0.54558617,
          -0.5249829,
          -0.78994036,
          -0.1710865,
          -0.21876785,
          -0.17254728,
          -0.60720736,
          -0.49215,
          0.7188572,
          0.6606218,
          0.79949546,
          -0.9862875,
          0.634636,
          -0.9322062,
          -0.33667022,
          -0.7512171,
          -0.4992543,
          0.88795453,
          0.049322225,
          0.84259343,
          -0.6375526,
          -0.027073683,
          0.67242557,
          0.8018463,
          0.77678806,
          -0.22875291,
          0.40435764,
          0.29454392,
          -0.124372594,
          -0.6114715,
          -0.25184637,
          -0.9237259,
          -0.8122113,
          -0.47310662,
          -0.40393037,
          -0.7659237,
          0.26953852,
          -0.5047492,
          -0.79528356,
          0.8170954,
          -0.27464047,
          0.7166338,
          0.7835186,
          -0.9709434,
          0.055934995,
          0.70925605,
          0.8394454,
          -0.9002459,
          0.158828,
          0.3810414,
          0.04222734,
          -0.81363696,
          0.1455869,
          0.61921525,
          0.15004624,
          -0.19727837,
          -0.5667732,
          0.39309287,
          0.1525436,
          -0.58649045,
          -0.09625129,
          0.32386956,
          0.09348854,
          0.23852962,
          -0.41117117,
          -0.5057595,
          0.8562212,
          0.24365841,
          -0.31805488,
          -0.7196531,
          0.79771507,
          0.21246727,
          -0.47034082,
          -0.1186521,
          -0.28839085,
          0.96291846,
          0.04509475,
          -0.56275576,
          -0.58106697,
          0.83046263,
          -0.8817071,
          0.30685937,
          0.5821879,
          -0.8536027,
          -0.5336102,
          -0.32814756,
          -0.81008774,
          -0.070872016,
          -0.11357374,
          -0.89975774,
          0.6691132,
          0.7112543,
          -0.7166126,
          -0.8108916,
          -0.34893587,
          -0.9698895,
          -0.6774465,
          0.47281888,
          0.7600348,
          0.8884973,
          -0.38015452,
          0.91735864,
          0.56777483,
          -0.54186517,
          -0.123661205,
          -0.8063647,
          -0.27220348,
          0.7289235,
          -0.48709708,
          0.270523,
          0.37524053,
          0.0030128108,
          0.97884,
          -0.69418466,
          -1.0248518,
          0.8203959,
          -0.31166664,
          0.97230357,
          0.8518798,
          0.21916494,
          0.31432033,
          -0.41279972,
          -0.47216082,
          -0.45672935,
          -0.85887855,
          -0.16197996,
          -0.25069043,
          -0.34134096,
          -0.2639199,
          0.626893,
          0.6840074,
          0.880538,
          0.077227384,
          0.32447582,
          -0.041621342,
          -0.8647292,
          0.0012185221,
          -0.4050996,
          0.3036544,
          -0.41598293,
          0.5798059,
          0.82328856,
          0.5374039,
          0.54165167,
          -0.106521,
          -0.15824002,
          -0.38126937,
          -0.25383857,
          0.95565414,
          0.10104565,
          -0.17015779,
          -0.89985573,
          0.54198885,
          -0.25164455,
          0.7007451,
          0.021943184,
          -0.7843652,
          0.77253073,
          -0.9313292,
          0.53078234,
          0.026531462,
          0.7721898,
          -0.8021774,
          -0.9907354,
          -0.21271245,
          -0.71126443,
          -0.5877832,
          -0.8791928,
          0.68247414,
          0.56334305,
          -0.9531908,
          0.6311537,
          -0.8320677,
          0.10805656,
          0.012957271,
          0.8922763,
          -0.66782767,
          -0.7129265,
          -0.7221707,
          0.15019554,
          -0.9747172,
          -0.727894,
          -0.7561438,
          -0.20350881,
          0.12808739,
          -0.56344104,
          0.56138647,
          -0.13288766,
          -0.7636633,
          -0.32808313,
          -0.6637033,
          -0.771035,
          -0.35940036,
          0.8758802,
          0.39596334,
          -0.7834139,
          -0.7733083,
          0.9928589,
          0.4497372,
          0.39196613,
          -0.8057328,
          0.8742855,
          0.9953,
          0.005839922,
          -0.91049725,
          0.6363702,
          0.7772703,
          -0.87870514,
          0.29829353,
          0.7552744,
          -0.49635178,
          -0.5976358,
          -0.74571526,
          0.20982799,
          -0.9808579,
          -0.9817656,
          -0.9640205,
          0.2734173,
          0.5641014,
          0.18185477,
          -0.4776428,
          0.14330262,
          -0.50967485,
          0.83740646,
          0.13365667,
          -0.3301684,
          0.89745903,
          -0.6888379,
          -0.5616074,
          -0.0030512223,
          0.8285779,
          0.8578315,
          0.530355,
          -0.66174996,
          0.23185042,
          0.060440455,
          0.86861134,
          -0.77584004,
          0.36612007,
          -0.36362663,
          0.11943613,
          -0.6974664,
          -1.0233006,
          -0.6094452,
          -0.5547613,
          0.7581649,
          -0.9511463,
          -0.41308913,
          0.7428219,
          0.7544044,
          0.7143149,
          0.795955,
          -0.13972998,
          -0.24652466,
          -0.5609101,
          -0.63768494,
          0.06085697,
          -0.9094261,
          0.7328529,
          0.13651264,
          0.42107877,
          -0.52459896,
          -0.47552073,
          -0.6512484,
          -0.514709,
          -0.1543109,
          -0.08789071,
          -0.97654897,
          -0.41515294,
          -0.4984315,
          -0.1571762,
          -0.93500787,
          0.19064687,
          0.51006603,
          -0.62479424,
          0.89449805,
          -0.11291675,
          0.90781426,
          0.85792667,
          -0.13323568,
          0.8885409,
          0.83777577,
          0.18474649,
          -0.6603827,
          0.34922355,
          -0.34685692,
          0.15931296,
          -0.44344687,
          -0.36293605,
          0.20194244,
          0.88110447,
          -0.35761362,
          0.9434338,
          -0.026395319,
          0.2498232,
          0.026642995,
          0.9470078,
          0.6679971,
          0.021893553,
          -0.2944966,
          -0.39082536,
          -0.35384434,
          -0.07694442,
          0.8980361,
          -0.42792338,
          -0.8837651,
          0.62305135,
          0.53476554,
          -0.2543397,
          0.15685976,
          0.42847604,
          -0.7467024,
          0.82978076,
          -0.9595492,
          0.9801201,
          0.9432252,
          0.8773148,
          -0.1377604,
          0.7843008,
          -0.22205564,
          -0.005861246,
          -0.21620342,
          -0.3527266,
          0.9783846,
          0.76186484,
          -0.18049373,
          -0.39940733,
          0.0071891164,
          -0.5552114,
          -0.48613128,
          -0.2975809,
          0.91442066,
          0.6543005,
          -0.71693045,
          -0.37323764,
          -0.22968198,
          -0.6451932,
          0.07977721,
          0.2624212,
          -0.39588574,
          -0.43057033,
          -0.6752337,
          0.7766374,
          0.18706508,
          -0.98604786,
          0.41228998,
          0.7560382,
          0.6796217,
          0.22725897,
          -0.5737819,
          -0.8135389,
          -0.7253286,
          0.79823124,
          -0.66807157,
          -0.49042857,
          0.4090506,
          -0.8268676,
          0.19801714,
          -0.6678676,
          -0.5702237,
          0.8928351,
          0.30654344,
          -0.06778277,
          -0.2590552,
          0.20313995,
          -0.9476093,
          -0.03598722,
          0.34486726,
          0.19429348,
          -0.4273711,
          -0.92634016,
          -0.07837405,
          -0.6091372,
          0.5932406,
          -0.40437388,
          0.36676002,
          0.7310728,
          0.9917339,
          -0.3815677,
          -0.8263518,
          0.09157452,
          -0.30426845,
          -0.5797785,
          0.2709231,
          0.632772,
          -0.54825234,
          -0.92736995,
          0.02834181,
          0.96758306,
          0.949266,
          -0.19591779,
          0.7963639,
          -0.25294176,
          0.5060486,
          -0.39130813,
          0.98057705,
          -0.40261418,
          0.87804335,
          -0.46904787,
          0.245314,
          -0.35995674,
          0.9382292,
          -0.9851483,
          0.19398546,
          0.5716535,
          -0.4819622,
          -0.72739923,
          -0.8583765,
          -0.7224939,
          -0.99483633,
          -0.9264515,
          0.8221632,
          0.28541958,
          -0.09588489,
          0.50119275,
          -0.4161569,
          -0.4355496,
          -0.8819153,
          -0.122041665,
          0.8810373,
          -0.99061495,
          -0.77185196,
          -0.7901554,
          -0.15286416,
          -0.7781074,
          0.49365866,
          -0.95502377,
          0.10738754,
          0.61583996
        ],
        [
          -0.8536079,
          -0.47850788,
          0.66838527,
          0.2768389,
          -0.77740407,
          0.87143695,
          -0.3384509,
          0.19935405,
          0.41595078,
          0.8534092,
          0.80849147,
          0.5169375,
          -0.2665912,
          0.09136871,
          0.728899,
          0.45145655,
          -0.13161004,
          -0.9507022,
          -0.9057087,
          0.30301607,
          -0.9176787,
          -0.12530291,
          0.27416408,
          -0.9842948,
          -0.8044487,
          -0.37348568,
          0.5115695,
          -0.98241985,
          0.2532668,
          -0.27072418,
          0.8124943,
          -0.9474783,
          -0.20442803,
          -0.52619505,
          -0.98499537,
          -0.15899724,
          0.073295444,
          0.36545604,
          -0.33270153,
          0.69802994,
          0.92010707,
          -0.70713526,
          0.47297415,
          -0.98984545,
          -0.32327756,
          -0.9149624,
          -0.50982636,
          -0.7907654,
          0.20872712,
          0.13016446,
          0.8895377,
          0.17974448,
          -0.9392779,
          0.29649282,
          -0.014868975,
          0.7476574,
          0.37721217,
          -0.28093565,
          -0.960096,
          -0.5297398,
          0.06657134,
          0.6370459,
          -0.5140784,
          -0.16139466,
          -0.7790106,
          -0.00832618,
          0.055524074,
          0.14392115,
          0.39362708,
          -0.4670994,
          0.5115132,
          0.16447021,
          -0.5105212,
          -0.30115697,
          0.1123273,
          0.78144366,
          -0.2244628,
          0.23678751,
          0.89220226,
          0.12743494,
          0.13964239,
          0.19469316,
          -0.53920233,
          0.00872314,
          0.26504338,
          0.38822246,
          0.44614738,
          0.29029292,
          0.6972583,
          0.87719613,
          0.9548713,
          0.6941749,
          0.57196444,
          -0.88103807,
          -0.72969806,
          0.979443,
          -0.46664438,
          -0.4431227,
          -0.8033194,
          -0.62081236,
          0.476457,
          -0.7942276,
          0.3597777,
          -0.4238699,
          0.71573925,
          0.35259637,
          0.7463505,
          0.5027197,
          0.11953087,
          0.52693665,
          -0.8457416,
          -0.7680484,
          0.08006203,
          0.5919292,
          -0.042617276,
          0.1247595,
          0.3823332,
          0.5342493,
          -0.07690621,
          -0.34446326,
          0.37861076,
          -0.10335162,
          0.8419441,
          -0.59553146,
          -0.73318946,
          -0.9279533,
          0.23270991,
          0.35866758,
          0.21038966,
          -0.7924445,
          0.90924734,
          0.89276403,
          0.9998296,
          -0.22067384,
          -0.98635006,
          0.33553314,
          0.081094906,
          -0.7886847,
          -0.5054817,
          0.9192159,
          0.379169,
          -0.8392304,
          -0.84094137,
          -0.404189,
          -0.8585538,
          -0.33048555,
          0.46452075,
          -0.33747637,
          -0.031916834,
          -0.9083143,
          0.308424,
          0.031876616,
          0.86646384,
          -0.9605089,
          -0.12136253,
          -0.13359408,
          0.52059376,
          0.48042664,
          -0.0152607225,
          0.30452752,
          -0.059124097,
          0.9089106,
          0.53823465,
          0.27679476,
          0.7620256,
          0.7944353,
          0.8104125,
          -0.36736968,
          -0.15960729,
          -0.37253958,
          -0.96160996,
          0.52419984,
          -0.9824864,
          0.12716566,
          -0.7570456,
          0.6754654,
          -0.9015513,
          -0.5331208,
          -0.94131,
          -0.1686951,
          0.1296795,
          -0.9706592,
          -0.8147956,
          -0.39887315,
          -0.31370676,
          -0.9117505,
          -0.77056134,
          -0.20785658,
          -0.48763013,
          -0.49040517,
          -0.38033265,
          0.40221012,
          -0.5449464,
          -0.32192817,
          0.9342013,
          -0.5141405,
          0.7835376,
          -0.6062974,
          0.2401326,
          0.09852065,
          0.5334566,
          -0.9213253,
          -0.19313893,
          0.023560228,
          -0.57226807,
          -0.9049591,
          -0.86707205,
          0.44551322,
          -0.7455889,
          -0.51675725,
          -0.3007621,
          -0.023191242,
          -0.19132908,
          -0.18588969,
          -0.63706756,
          -0.9031351,
          0.2917637,
          -0.1413858,
          -0.53914493,
          -0.69906497,
          -0.48745492,
          -0.4134461,
          0.5885235,
          0.4183498,
          -0.12955976,
          -0.12220339,
          0.80459535,
          0.5115721,
          -0.64281255,
          0.5085186,
          -0.10162114,
          0.3780946,
          0.5536894,
          0.4585952,
          0.40641564,
          0.46251392,
          -0.53529096,
          -0.50252074,
          0.0826725,
          -0.10802681,
          -0.21619856,
          0.79006624,
          -0.6595023,
          -0.2811898,
          -0.66384745,
          0.2342609,
          0.8590018,
          0.0081558535,
          0.44375238,
          0.7718138,
          -0.12672693,
          -0.18101296,
          -0.020435553,
          -0.7400979,
          0.4380664,
          -0.2442039,
          0.6082104,
          -0.80764526,
          -0.8437956,
          0.84483683,
          -0.20672594,
          0.74884945,
          0.560914,
          -0.42029732,
          -0.64135134,
          0.5784473,
          0.43379706,
          -0.13279116,
          0.36677864,
          0.36165202,
          0.6223956,
          -0.14617057,
          0.6048118,
          -0.03521552,
          0.10723363,
          0.66101956,
          0.13393782,
          -0.12895542,
          -0.5568318,
          0.00562042,
          0.7471593,
          -0.8152236,
          0.022993017,
          0.90499395,
          -0.56569535,
          0.41284308,
          0.37828067,
          0.46492723,
          0.38556176,
          0.5795825,
          -0.512979,
          0.009616747,
          0.38884628,
          -0.06558169,
          -0.22284794,
          0.21846436,
          -1.0465283,
          0.6698337,
          0.31603536,
          0.17575854,
          0.8857475,
          0.7485994,
          0.03318035,
          -0.30017287,
          -0.89760363,
          0.5250336,
          -0.9366716,
          -0.40925986,
          0.8883478,
          0.4827346,
          0.52152187,
          0.56824493,
          0.6556723,
          0.3616018,
          0.62873054,
          -0.328931,
          0.27190122,
          0.8632249,
          0.9743079,
          0.29653373,
          -0.2788319,
          0.6154007,
          0.1574626,
          0.16086043,
          0.0366404,
          0.3688132,
          0.8523519,
          0.92170966,
          0.5451488,
          -0.7268202,
          0.8196804,
          0.80364215,
          -0.24045298,
          -0.8572903,
          0.7935847,
          -0.6526058,
          -0.94966245,
          -0.43522713,
          0.18329646,
          0.7219059,
          -0.52767694,
          0.4707092,
          -0.16665794,
          -0.6436716,
          -0.09422399,
          0.9200483,
          -0.82387924,
          0.38269794,
          -0.2759372,
          -0.053000305,
          0.5937792,
          0.56542623,
          0.56446,
          -0.17333482,
          0.62066466,
          0.8387718,
          0.88626206,
          0.15778768,
          -0.34255254,
          0.30981907,
          0.8361638,
          0.9574939,
          -0.7705542,
          -0.37791383,
          -0.7874115,
          0.7679585,
          -0.7301359,
          -0.96071845,
          -0.80283374,
          0.713978,
          -0.66400874,
          1.0072699,
          0.99783003,
          -0.035427254,
          0.5593746,
          0.4305447,
          0.27381715,
          -0.2231317,
          -0.4961185,
          0.87726825,
          0.6081529,
          -0.3974228,
          -0.28372553,
          -0.21087003,
          -0.30115628,
          0.7516984,
          0.42632794,
          -0.24166329,
          0.922944,
          0.8690014,
          -0.73750734,
          -0.9576813,
          -0.28334117,
          -0.24244845,
          0.5219991,
          -0.4241923,
          0.9061755,
          0.5836954,
          0.688093,
          -0.31291658,
          0.86931473,
          0.98692966,
          -0.18908647,
          -1.0037202,
          -0.72535986,
          0.362265,
          -0.2618171,
          0.018868547,
          0.5378759,
          0.75468516,
          0.73316985,
          0.008907525,
          0.6011901,
          -0.28616953,
          -0.7923887,
          -0.60673064,
          -0.9840939,
          -0.6318735,
          0.3740159,
          -0.78739864,
          -0.8787385,
          -0.66762215,
          -0.7338453,
          -0.69902074,
          -0.6191905,
          0.69401956,
          -0.97318673,
          -0.44928366,
          -0.9805631,
          -0.5053488,
          0.83046156,
          0.9266258,
          -0.713792,
          0.115844764,
          0.48657668,
          0.7165889,
          -0.44184273,
          0.48687723,
          0.28199893,
          -0.25504932,
          -0.6452384,
          0.6670021,
          0.35650152,
          -0.25893226,
          -0.1099746,
          -0.47061458,
          0.7961978,
          -0.72841966,
          -0.763646,
          -0.24235328,
          0.7651282,
          -0.92894846,
          -0.5038324,
          -0.7103538,
          -0.9999112,
          -0.85903627,
          0.14516485,
          -0.020824306,
          0.52317446,
          0.43421033,
          0.5634608,
          0.8543971,
          -0.65709597,
          -0.12221503,
          0.7802353,
          -0.12161824,
          -0.8541717,
          0.17164648,
          -0.6980813,
          0.16414711,
          0.29209864,
          -0.57417554,
          0.7323862,
          -0.8730568,
          0.24895643,
          -0.14991988,
          0.21744728,
          -0.18222365,
          -0.6364739,
          0.20441285,
          -0.27506855,
          0.56681395,
          -0.71017224,
          0.26920223,
          0.35005212,
          0.55949074,
          1.0029072,
          -0.17789325,
          -0.1078908,
          -0.48952872,
          -0.05192422,
          -0.31397375,
          -0.56200874,
          0.060040597,
          -0.31021976,
          -0.93808526,
          0.5388797,
          0.46795157,
          -0.24476776,
          0.43252996,
          0.3723153,
          0.25955397,
          -0.75344217,
          0.024986563,
          -0.99626046,
          0.98480475,
          0.69705355,
          0.5367573,
          0.4684681,
          -0.1277176,
          0.9770796,
          -0.8715175,
          0.107827924,
          0.6278104,
          0.34271705,
          0.7556572,
          0.89300394,
          0.8587997,
          -0.9101026,
          -0.8523669,
          0.231544,
          -0.9321353,
          0.03834076,
          -0.26107624,
          -0.64694625,
          0.7862143,
          -0.5728271,
          0.5633313,
          -0.12313916,
          -0.572636,
          0.8993788,
          0.06108147,
          -0.17011237,
          -0.8715759,
          0.8429861,
          -0.4519156,
          0.17528951,
          -0.9083729,
          0.33964628,
          0.39833558,
          0.017814592,
          0.23105629,
          -0.68719727,
          0.6893105,
          0.92846155,
          -0.843996,
          0.061017785,
          0.7105307,
          -0.18885311,
          -0.22222066,
          -0.103857756,
          -0.9691313,
          0.56894445,
          0.1731704,
          0.21922894,
          -0.043967288,
          -0.6830663,
          0.38148397,
          -0.9124106,
          -0.47206292,
          0.22769165,
          -0.6309418,
          0.20761311,
          -0.41354343,
          0.60014904,
          -0.5634795,
          -0.49234772,
          0.77792984,
          0.5516485,
          0.34448943,
          0.88267213,
          0.8731498,
          -0.8933779,
          0.99321395,
          -0.87557733,
          0.6211964,
          -0.09844325,
          -0.5821051,
          -0.7755409,
          0.73195857,
          0.67016244,
          0.27212813,
          0.017629588,
          0.44516408,
          -0.71725345,
          0.7205578,
          -0.7507664,
          0.86026585,
          -0.4748814,
          0.6587372,
          0.24896981,
          0.30080613,
          0.5212891,
          0.6069239,
          0.9574903,
          0.1855118,
          0.9940665,
          -0.1650309,
          -0.78125715,
          0.5529525,
          -0.20034707,
          -0.6659695,
          0.571501,
          -0.5440696,
          -0.4310762,
          0.79061776,
          -0.6105211,
          0.25268242,
          -0.5331715,
          -0.19739851,
          0.6083659,
          0.83020747,
          -0.91414815,
          -0.96399844,
          0.99390036,
          -0.3112831,
          -0.47576058,
          -0.53847116,
          0.47669902,
          0.79732054,
          0.58837456,
          0.53881425,
          -0.76789033,
          0.08636804,
          0.4294343,
          0.3603418,
          -0.5851008,
          0.9862358,
          0.56980485,
          0.8590446,
          0.5475152,
          0.6139995,
          -0.9424096,
          -0.04204406,
          -0.41124946,
          -0.6918873,
          -0.6890032,
          -0.027329028,
          0.90546435,
          -0.28256986,
          -0.06421599,
          0.3549856,
          0.81563,
          -0.82209885,
          -0.5608704,
          -0.45744228,
          0.42156816,
          0.70326644,
          -0.016198115,
          0.24442832,
          -0.65716577,
          -0.8430964,
          -0.2725392,
          -0.1994535,
          -0.18875118,
          0.67673653,
          -0.605903,
          -0.28174552,
          -0.44604903,
          0.9215944,
          -0.40896386,
          -0.5754146,
          0.6546023,
          0.2821814,
          -0.026083792,
          0.7311763,
          -0.30325964,
          0.20540163,
          -0.6586695,
          -0.5302027,
          0.76718473,
          -0.84431946,
          -0.88019943,
          0.7837099,
          -0.59985256,
          0.41508484,
          0.6269233,
          -0.4174086,
          -0.5993552,
          -0.110030144,
          0.15676656,
          0.44877025,
          -0.14828736,
          0.64335257,
          -0.91763335,
          0.24999583,
          0.91940993,
          -0.96969986,
          0.6138966,
          -0.80858266,
          0.106169276,
          -0.531488,
          -0.40424326,
          -0.97758037,
          0.38434574,
          0.028440658,
          0.5538636,
          0.41587058,
          -0.34101284,
          0.08138645,
          -0.56976104,
          0.78383815,
          0.019357052,
          -0.1899924,
          0.020229025,
          0.952787,
          0.32943854,
          -0.40054137,
          0.24574536,
          -0.84252,
          -0.9867078,
          -0.3465345,
          0.54194075,
          0.8992712,
          0.40209362,
          -0.088429056,
          0.67870295,
          -0.42896432,
          -0.018330429,
          0.880034,
          -0.9330971,
          -0.86890006,
          0.24436332,
          0.47932532,
          -0.41211972,
          -0.41567016,
          0.10157788,
          0.7516122,
          0.23698056,
          0.7528688,
          0.6942265,
          0.90814817,
          -0.043095637,
          0.7685188,
          0.16751778,
          0.49763775,
          0.16961901,
          0.330442,
          -0.76954305,
          -0.9423537,
          -0.49809477,
          0.11897383,
          0.6350785,
          -0.74737054,
          -0.4429898,
          -0.95278054,
          -0.7468018,
          -0.6436208,
          -0.9750174,
          0.1813522,
          0.82472056,
          0.29513925,
          0.47095168,
          -0.15945673,
          -0.40385914,
          -0.35613465,
          -0.72157085,
          0.12589157,
          0.9156265,
          0.22221088,
          -0.44852495,
          0.6485826,
          -0.22181007,
          0.54807615,
          0.23142652,
          -0.95010847,
          -0.6696414,
          -0.58198255,
          0.08210854,
          -0.20841268,
          -0.71390015,
          -0.52787495,
          -0.99142265,
          0.06224753,
          0.52008796,
          0.2509926,
          0.8483929,
          -0.13727991,
          0.07066909,
          0.5967083,
          0.75672567,
          0.6410692,
          -0.35393572,
          -0.779493
        ],
        [
          0.7456312,
          -0.40204656,
          -0.45651507,
          0.2777481,
          0.373981,
          0.45045698,
          0.85405934,
          -0.23773706,
          0.546319,
          -0.15329456,
          0.31345797,
          -0.08473694,
          0.640334,
          -0.14251345,
          0.31727025,
          0.38445944,
          -0.24032068,
          -0.8571688,
          0.97229517,
          0.43151033,
          0.6565993,
          -0.7932466,
          0.13730466,
          -0.32380533,
          0.78330195,
          -0.124340296,
          0.17588902,
          0.5667758,
          -0.7243358,
          0.65279925,
          -0.215868,
          0.26292312,
          -0.93921053,
          0.9656513,
          -0.40747666,
          -0.034920376,
          -0.87310016,
          -0.023811648,
          0.9346105,
          -0.2797362,
          -0.7996668,
          0.8685377,
          -0.77695334,
          0.73179936,
          0.40516102,
          -0.94640344,
          0.0958428,
          -0.92463154,
          0.39092138,
          -0.5384255,
          -0.18564157,
          -0.72718775,
          0.41470325,
          -0.7110394,
          0.8809196,
          0.37651098,
          -0.5462339,
          0.40385664,
          0.32932734,
          0.6423477,
          -0.26432943,
          -0.07329177,
          0.8635392,
          -0.027335463,
          0.7551162,
          0.4309642,
          -0.663027,
          0.25785157,
          -0.8706666,
          -0.9765176,
          -0.7764151,
          -0.74651873,
          0.30179945,
          -0.7045395,
          0.1469656,
          -0.555893,
          0.82698756,
          -0.7899538,
          -0.7779304,
          -0.1691077,
          0.1938774,
          -0.5317404,
          0.50744784,
          -0.58868456,
          0.57631123,
          -0.1484927,
          0.18551925,
          0.7245121,
          0.5187654,
          0.5146311,
          0.09518532,
          0.57742953,
          0.05605605,
          0.50149494,
          0.79376155,
          -0.31804064,
          -0.80837685,
          -0.7268318,
          0.9181574,
          -0.52026993,
          0.391851,
          0.9532085,
          0.2948494,
          0.8821992,
          0.5383791,
          -0.58742046,
          -0.46037355,
          0.6407618,
          0.9980773,
          -0.6699479,
          0.7712734,
          0.07579851,
          -0.08294475,
          0.82194585,
          0.60743344,
          0.9251337,
          0.9096247,
          -0.15911074,
          0.90551114,
          0.10274603,
          -0.32167232,
          0.9649834,
          -0.03564688,
          -0.7867008,
          0.6780915,
          0.6407762,
          0.85256904,
          -0.73646545,
          0.18950094,
          0.748622,
          0.17536318,
          -0.8147466,
          -0.13794029,
          -0.2720001,
          -0.5773319,
          0.4827224,
          -0.8185012,
          0.77338266,
          -0.7222136,
          -0.93458134,
          0.4663136,
          -0.9863862,
          0.5677777,
          0.22044523,
          0.7500001,
          -0.99181235,
          0.8755704,
          0.38395482,
          0.0084785335,
          -0.20428862,
          0.5995737,
          0.9282525,
          -0.50198984,
          -0.48458052,
          0.1588148,
          -0.15543228,
          0.77483344,
          0.46876344,
          0.86216795,
          0.8783324,
          0.77081025,
          0.15503722,
          0.6949467,
          -0.82015556,
          -0.9235649,
          0.9225353,
          0.99451745,
          0.19442725,
          0.37334895,
          0.92074835,
          -0.022117114,
          0.07928156,
          0.42438984,
          -0.6405859,
          0.6980415,
          -0.83900887,
          0.73579746,
          0.62185067,
          -0.97160566,
          0.8693563,
          0.6404153,
          -0.0780902,
          -0.69455105,
          0.91735035,
          0.18242233,
          -0.8551968,
          -0.5658498,
          -0.5609213,
          -0.39422616,
          0.9263052,
          0.7812989,
          0.80094284,
          -0.47035939,
          0.32196853,
          -0.96709394,
          -0.017823428,
          -0.6447321,
          -0.8995647,
          -0.53439605,
          -0.28576767,
          0.39449927,
          -0.14736329,
          0.108290814,
          -0.2551604,
          0.58056575,
          0.28798428,
          -0.9717622,
          -0.15929009,
          0.49057442,
          0.90500927,
          -0.37342408,
          0.815925,
          -0.74181193,
          -0.69609284,
          0.2555577,
          -0.7540035,
          0.7946095,
          0.113788,
          -0.28491265,
          0.83689874,
          -0.3817254,
          -0.74185324,
          0.41501585,
          -0.62306094,
          0.8894982,
          -0.29518354,
          -0.84127265,
          -0.350294,
          -0.50381744,
          0.9137638,
          0.3238771,
          -0.33901,
          0.9002432,
          -0.79750144,
          -0.15630563,
          0.7607423,
          -0.71985775,
          0.49742657,
          0.44828886,
          -0.1319456,
          -0.4001214,
          0.17511559,
          -0.80076766,
          -0.089098684,
          0.12420258,
          -0.9467506,
          -0.84516054,
          -0.24305125,
          -0.6240386,
          0.7072985,
          0.8699215,
          0.20224015,
          0.500887,
          -0.24515577,
          0.5625155,
          -0.2532447,
          -0.3870215,
          0.32048023,
          0.46665916,
          -0.98200065,
          0.58712,
          0.09474073,
          -0.75938416,
          -0.12812035,
          -0.87765765,
          0.26135325,
          0.8100571,
          -0.07003608,
          -0.8498145,
          -0.17713718,
          -1.0209926,
          -1.0654782,
          -0.84729004,
          0.28517255,
          0.41315588,
          0.6192738,
          0.7744591,
          0.41004708,
          -0.34694865,
          0.69134307,
          0.80558586,
          0.34108105,
          -0.073971845,
          0.12294492,
          -0.8324715,
          -0.44119042,
          0.043320116,
          -0.7668993,
          -0.015171216,
          0.5657656,
          0.14809062,
          -0.74133605,
          -0.57937783,
          0.86575747,
          -0.47038355,
          -0.7708156,
          0.95103526,
          0.37339875,
          -0.75651044,
          -0.9775259,
          0.83420515,
          -0.7123264,
          -0.46828538,
          -0.88361067,
          -0.115903385,
          0.8443417,
          0.008440025,
          -0.754632,
          0.50225264,
          0.8298122,
          -0.8105766,
          0.10269154,
          -0.032822542,
          -0.74526054,
          0.87084526,
          -0.9971497,
          0.45426795,
          0.45933762,
          0.51198167,
          0.2426813,
          -0.28332862,
          -0.11703012,
          -0.033048123,
          0.5980053,
          0.48782617,
          0.12844037,
          -0.03632577,
          -0.3888095,
          -0.16036467,
          0.3502139,
          0.04354403,
          -0.2526721,
          0.26995623,
          0.9551563,
          0.80946,
          -0.17798454,
          -0.4785868,
          0.6837592,
          -0.89509445,
          -0.35209277,
          -0.9449509,
          0.4305552,
          0.028077101,
          -0.21753985,
          0.26016167,
          -0.63180053,
          -0.35001937,
          0.42668065,
          -0.26506963,
          -0.18528062,
          -0.50085974,
          0.16583815,
          -0.5561539,
          0.8726501,
          0.9827391,
          0.90207005,
          -0.22674297,
          0.3877356,
          -0.48975027,
          -0.8087396,
          0.7181776,
          -0.464235,
          0.9360078,
          -0.586245,
          -0.30445445,
          0.05517722,
          0.9403181,
          -0.5476576,
          -0.0900652,
          -0.23552926,
          0.40053135,
          -0.35484824,
          0.7520649,
          0.9821267,
          0.9699221,
          0.8350731,
          -0.8578788,
          0.78040683,
          -0.16371977,
          -0.88444096,
          0.6382328,
          0.95034194,
          -0.7489708,
          0.42147064,
          0.29350686,
          -0.47552586,
          -0.7870722,
          -0.41078833,
          -0.47511095,
          -0.53607416,
          0.66450095,
          -0.4150995,
          -0.6602044,
          -0.62024426,
          -0.12562688,
          -0.4495657,
          -0.087967604,
          0.17586513,
          0.22519837,
          0.69602215,
          -0.9293501,
          0.36727297,
          -0.6521564,
          -0.1651524,
          0.38012147,
          0.3174535,
          -0.65392065,
          0.5727965,
          0.54527354,
          0.035216823,
          -0.3861117,
          -0.5336144,
          -0.619803,
          -0.5350347,
          -0.5802596,
          -0.87856513,
          0.68675655,
          0.7846927,
          -0.37310714,
          0.96877974,
          -0.015684769,
          -0.31985164,
          -0.91288096,
          0.013083342,
          -0.64670336,
          0.4926,
          0.4113368,
          -0.007363338,
          -0.22282591,
          0.71250284,
          0.11589541,
          -0.8338288,
          -0.16360068,
          0.1455375,
          -0.15658757,
          0.6101192,
          -0.00030918716,
          -0.92123437,
          0.89595497,
          -0.159298,
          0.18411294,
          0.9236849,
          0.9082611,
          0.94809484,
          -0.67912376,
          -0.5417304,
          0.1720816,
          0.5859719,
          -0.26164216,
          -0.0023123177,
          0.6505338,
          -0.1648501,
          0.94233066,
          -1.0017416,
          -0.49221173,
          -0.096181616,
          -0.3422532,
          0.07942995,
          0.46240172,
          -0.6192745,
          -0.850304,
          0.8694996,
          -0.1534077,
          0.4913003,
          -0.19076227,
          -0.78562707,
          0.8923772,
          -0.23294845,
          -0.5972617,
          -0.8451101,
          -0.62504315,
          0.4785726,
          0.25937912,
          -0.696567,
          -0.5816709,
          0.59542114,
          -0.4995767,
          0.76669145,
          -0.38667142,
          -0.1691372,
          0.29698643,
          -0.15519689,
          0.09962715,
          0.6353264,
          -0.63711125,
          0.32595333,
          -0.80695856,
          0.70429325,
          0.0637136,
          0.1207629,
          0.6229819,
          0.389623,
          0.657933,
          0.81260026,
          -0.21885599,
          0.7238863,
          -0.1537817,
          -0.8362248,
          0.775522,
          0.6865505,
          -0.49474195,
          -0.7933473,
          -0.19080058,
          0.6339635,
          0.6625816,
          0.68714875,
          -0.06034439,
          0.16957971,
          -0.85792387,
          0.2447733,
          -0.8151237,
          -0.19045384,
          -0.8471641,
          0.37190756,
          0.44750407,
          0.92555,
          0.19942115,
          0.39749822,
          0.63833416,
          -0.12876223,
          0.8332551,
          -0.77621144,
          -0.3516215,
          -0.06969417,
          0.070467986,
          0.5291509,
          0.022164952,
          0.42351705,
          0.03298715,
          -0.1810568,
          0.10541623,
          -0.60890293,
          0.5300573,
          0.1641051,
          0.58859575,
          -0.069922954,
          -0.41625607,
          -0.37306473,
          0.38735977,
          -0.57193756,
          0.76817364,
          -0.49098346,
          0.3735117,
          -0.7181816,
          -0.11961929,
          0.9424808,
          0.77742827,
          -0.13169098,
          -0.84942496,
          -0.94993746,
          0.00029755323,
          0.54293233,
          0.21062246,
          0.16746305,
          0.60536146,
          0.89299566,
          0.0630789,
          -0.94809777,
          -0.8765004,
          -0.62128687,
          -0.63424873,
          -0.75191814,
          -0.13584033,
          -0.42086464,
          -0.010920217,
          -0.43071392,
          0.7717176,
          -0.8268712,
          -0.74742985,
          0.3232744,
          -0.44155568,
          -0.8099786,
          0.59950495,
          -0.03986055,
          -0.054388147,
          0.653923,
          -0.10840627,
          0.19695435,
          -0.30286622,
          0.34396273,
          -0.55721015,
          -0.7801823,
          -0.40538713,
          0.58980095,
          0.5768995,
          -0.8872599,
          0.21337783,
          -0.22080147,
          0.36266676,
          0.5697424,
          -0.92743295,
