{
  "layer_sizes": [
    784,
    64,
    16,
    10
  ],
  "data": [
    {
      "weights": [
        [
          -0.92331696,
          -0.80050945,
          -0.44818103,
          0.44956172,
          -0.10964227,
          -0.7629237,
          -0.0463084,
          -0.14157188,
          -0.25123,
          -0.81231844,
          0.9889194,
          0.9640888,
          -0.26708537,
          -0.4247311,
          -0.5373397,
          -0.8787589,
          0.38835347,
          0.5819458,
          -0.21204066,
          0.62752795,
          -0.2324338,
          0.8931682,
          -0.6754137,
          0.09630871,
          -0.07958007,
          -0.3262937,
          -0.1495974,
          -0.8600179,
          -0.61414874,
          -0.852901,
          -0.3211372,
          -0.7273301,
          -0.1954392,
          0.32403696,
          0.86964196,
          0.5625128,
          -0.08652139,
          -0.5031298,
          0.6623218,
          0.24759951,
          0.6718971,
          -0.38128796,
          -0.5137526,
          -0.32114106,
          0.76435494,
          0.43880928,
          -0.5634874,
          -0.44803548,
          -0.18967916,
          -0.1663605,
          0.5639328,
          0.64781755,
          0.5563669,
          -0.65317106,
          0.21959364,
          -0.88447976,
          0.89956856,
          0.6629064,
          -0.61164117,
          -0.50001085,
          -0.28184506,
          0.42195603,
          0.37269723,
          -0.16834603,
          0.717181,
          -0.3012659,
          -0.098364905,
          0.7183821,
          -0.8118002,
          0.9086806,
          -0.02111401,
          0.80605257,
          0.6172079,
          -0.24401237,
          -0.21613428,
          -0.14531896,
          -0.66443515,
          0.9873929,
          0.980167,
          -0.1705586,
          -0.86687887,
          0.27943456,
          -0.589216,
          0.7500578,
          -0.4068874,
          0.837808,
          -0.58871776,
          0.41690558,
          0.82640463,
          0.6196632,
          -0.5779725,
          0.3039044,
          0.9244976,
          -0.5502845,
          0.98407316,
          0.06010223,
          0.07252081,
          0.57586396,
          -0.06721623,
          0.5680142,
          0.08908573,
          -0.925883,
          -0.5578511,
          0.07203005,
          0.2315589,
          -0.7514691,
          0.81037945,
          0.48525187,
          0.88821006,
          -0.42729604,
          -0.77446723,
          0.3852917,
          0.021667123,
          -0.2526337,
          -0.6237794,
          -0.23675674,
          0.808167,
          0.013243538,
          -0.38794783,
          -0.807699,
          0.3909526,
          -0.9628454,
          -0.15172231,
          0.2774582,
          -0.0034297863,
          0.318407,
          -0.7912545,
          -0.87635404,
          -0.8743849,
          0.5467767,
          0.8062391,
          0.39963892,
          0.7255316,
          0.769824,
          0.5606041,
          0.98053175,
          -0.22832334,
          0.88446945,
          0.7919817,
          -0.060417697,
          0.40482295,
          0.35234916,
          0.11056035,
          0.8458006,
          -0.47260985,
          0.6446779,
          -0.8806689,
          0.8220468,
          0.46689704,
          -0.21778998,
          -0.47030818,
          0.54921776,
          -0.7599803,
          -0.625731,
          -0.4023765,
          -0.46699965,
          0.110440195,
          -0.6892842,
          0.9399825,
          0.80210775,
          -0.009452468,
          0.246519,
          -0.64888626,
          -0.11167098,
          0.6109686,
          -0.6731064,
          -0.023575688,
          -0.609755,
          0.37836897,
          -0.48182315,
          -0.53295976,
          0.7999211,
          0.015647653,
          -0.01185931,
          -0.5166209,
          -0.22598518,
          -0.14606567,
          0.9946672,
          0.46684507,
          -0.48335168,
          -0.5432821,
          -0.31455195,
          0.45909116,
          0.07069276,
          0.5887011,
          -0.9517027,
          0.80127585,
          -0.48548234,
          -0.24567549,
          0.39155537,
          -0.59905016,
          0.73234034,
          -0.02083134,
          0.19650163,
          0.8605621,
          0.011902092,
          -0.27266192,
          0.96916264,
          0.84689426,
          0.30001464,
          -0.74931186,
          0.816154,
          -0.32051516,
          -0.7093539,
          0.7186652,
          0.66418433,
          0.4785996,
          0.39470026,
          -0.86508167,
          -0.67489386,
          -0.4440704,
          -0.05280657,
          -1.0284089,
          -0.67233,
          -0.9645531,
          -0.6404494,
          -0.5936757,
          0.21471491,
          0.042921383,
          -0.8841708,
          0.799801,
          -0.42841217,
          0.91237843,
          -0.14786111,
          -0.44791853,
          -0.13264905,
          0.84424865,
          0.17989403,
          0.16590376,
          0.2287768,
          0.38423344,
          -0.037423894,
          -0.290093,
          0.3845852,
          -0.8735263,
          -0.6692378,
          -0.8075672,
          0.36080697,
          0.8618619,
          0.62416625,
          0.83925056,
          0.48561072,
          -0.99521506,
          0.9571874,
          -0.7189213,
          0.020445233,
          -0.7600933,
          -0.70910287,
          -0.7562305,
          0.94137865,
          0.7478113,
          0.9736681,
          0.5436386,
          -0.39388055,
          -0.5308967,
          0.7086398,
          -0.2988084,
          -0.9540407,
          -0.054090742,
          0.83061737,
          0.44479957,
          0.8658043,
          0.092659466,
          0.25348768,
          0.898079,
          -0.1762183,
          0.8495841,
          -0.04132876,
          -0.28600883,
          0.25045878,
          -0.465829,
          0.34041613,
          0.31698906,
          -0.24463761,
          0.34539422,
          -0.5030968,
          -0.35186106,
          0.93015814,
          0.9933889,
          0.786208,
          -0.56855386,
          0.29976383,
          0.19198106,
          -0.13777667,
          -0.87571627,
          0.31214684,
          0.49577305,
          0.59714955,
          -0.5770852,
          0.29065636,
          0.19550109,
          0.53132033,
          -0.2386643,
          0.48479232,
          0.5298625,
          -0.64279014,
          -0.48509157,
          0.07275464,
          -0.7276323,
          0.72328496,
          0.38207838,
          -0.290975,
          -0.20002651,
          0.9391758,
          0.84876436,
          -0.7065739,
          0.18361406,
          -0.6016216,
          -0.82619125,
          0.031766728,
          0.4628572,
          -0.26602465,
          0.022539621,
          -0.21110487,
          -0.9683511,
          0.12957306,
          -0.5446771,
          0.01232824,
          -0.32744923,
          0.68752056,
          0.1894788,
          -0.40093988,
          0.7929896,
          -0.47198892,
          0.5327621,
          0.8731064,
          -0.48394707,
          0.28696075,
          -0.27250323,
          0.21352851,
          -0.706173,
          -0.2384368,
          0.6555406,
          -0.08845669,
          -0.112207964,
          0.032484137,
          -0.7430502,
          -0.63301855,
          -0.8395071,
          -0.3219536,
          -0.7973996,
          0.13030118,
          0.2754782,
          0.5763215,
          -0.8433456,
          0.39045402,
          0.8836405,
          -0.7702575,
          -0.74587613,
          -0.2642798,
          -0.64263886,
          -0.9114181,
          0.37388635,
          -0.17441499,
          0.7226009,
          0.11472781,
          -0.7220516,
          0.2397742,
          -0.03292615,
          0.44590914,
          0.82993,
          -0.35454804,
          -0.2317258,
          0.3419644,
          0.09051605,
          0.29404888,
          -0.16393769,
          -0.5295954,
          -0.63948625,
          0.9563129,
          -0.8835803,
          -0.110971384,
          -0.41243055,
          0.15286286,
          0.3922391,
          -0.36889392,
          0.6848553,
          -0.9927406,
          0.70115125,
          0.1853992,
          -0.8916262,
          0.78069127,
          -0.89982074,
          -0.9286396,
          0.08712962,
          1.0163709,
          0.4801005,
          -0.15423311,
          -0.20048204,
          -0.3719021,
          0.41256735,
          0.14735071,
          -0.13633223,
          0.6863305,
          0.31867087,
          -0.6524257,
          0.83507836,
          -0.3976858,
          0.4346063,
          1.0027641,
          -0.48681042,
          0.039277494,
          0.4342391,
          -0.5554651,
          -0.25476405,
          0.1825296,
          0.84832567,
          -0.45554462,
          0.58061963,
          0.8708407,
          -0.9069826,
          -0.16812196,
          0.5824481,
          0.912558,
          0.23009099,
          -0.87190723,
          0.06368417,
          -0.5960164,
          -0.5660729,
          0.5007291,
          -0.3530804,
          0.26319203,
          0.35725704,
          0.2729151,
          0.15808278,
          -0.9120956,
          -0.9390569,
          -0.42680734,
          0.68120927,
          0.4170254,
          -0.42165115,
          -0.40264696,
          -0.40612376,
          -0.10974903,
          0.8962365,
          -0.28994077,
          0.8251318,
          -0.11856077,
          -0.79697394,
          0.8532463,
          0.45530948,
          -0.5710772,
          -0.59819096,
          0.2920358,
          -0.03885244,
          -0.38322222,
          0.48484963,
          -0.17131649,
          0.31715426,
          -0.079619266,
          0.17590669,
          -0.23180397,
          0.7154238,
          0.10097296,
          0.6351551,
          0.91740763,
          -0.88683695,
          -0.9224181,
          0.28658277,
          0.42175338,
          -0.3119624,
          -0.613838,
          -0.47721106,
          0.6467652,
          0.6213894,
          0.2957145,
          0.78963953,
          0.1565646,
          0.17271766,
          0.73977315,
          -0.27244112,
          0.48273084,
          0.87529266,
          -0.07937212,
          -0.061966,
          -0.5751342,
          0.9051045,
          -0.4462318,
          0.4746505,
          0.57379323,
          -0.076136746,
          0.7574998,
          0.6447768,
          1.0605949,
          0.76989675,
          -0.95913744,
          -0.51840174,
          0.38304895,
          0.11861167,
          -0.64381576,
          0.33785608,
          -0.45594388,
          -0.36471558,
          -0.18732327,
          0.3808978,
          -0.66054964,
          0.37983015,
          0.033422187,
          0.39891368,
          -0.44276556,
          -0.10859408,
          -0.5809759,
          0.8166297,
          0.79052234,
          -0.003063188,
          -0.13964127,
          0.6837096,
          0.81088525,
          -0.32264745,
          -0.72416544,
          -0.2668389,
          0.06434978,
          -0.23637418,
          -0.53557074,
          -0.6704856,
          0.7522391,
          -0.76535934,
          0.3678773,
          -0.4895549,
          0.83337563,
          -0.78004175,
          -0.1792898,
          -0.70851606,
          -0.097973585,
          -0.25009623,
          -0.30794832,
          0.6506726,
          0.53851104,
          -0.58423406,
          -0.37708306,
          -0.5388582,
          -0.0724453,
          0.57862425,
          -0.5263973,
          -0.07422592,
          0.99990374,
          -0.58210754,
          0.08124339,
          0.005745172,
          -0.26331964,
          0.6814765,
          0.15903799,
          -0.8559193,
          -0.20239267,
          -0.45260912,
          -0.12627187,
          -0.49706483,
          0.28948995,
          0.040054556,
          -0.8184903,
          -0.49883816,
          0.9194633,
          1.0236036,
          -0.83748823,
          -0.92184216,
          0.54366785,
          -0.17125344,
          0.060214486,
          0.08831941,
          0.094092175,
          0.59697723,
          -0.43726766,
          0.18372023,
          -0.69237894,
          0.47144714,
          -0.69324774,
          0.37240672,
          -0.35949048,
          0.2006674,
          -0.29997402,
          0.33164334,
          0.17186597,
          0.6288576,
          0.05811696,
          -0.49102297,
          0.56498444,
          0.73461956,
          0.03492241,
          0.20650713,
          0.67583865,
          0.10122047,
          -0.88294214,
          0.9722081,
          0.62894064,
          0.2836323,
          0.7647338,
          0.3432633,
          -0.65581614,
          0.5782864,
          -0.13962808,
          0.17540106,
          -0.9563991,
          -0.30130157,
          -0.110486425,
          -0.69037104,
          0.92412907,
          0.7604076,
          -0.8854797,
          0.1425068,
          -0.284262,
          0.18052615,
          -0.9400712,
          -0.021420166,
          0.34697464,
          0.5161449,
          -0.90995723,
          0.49808475,
          0.80155635,
          -0.86142117,
          0.9278309,
          0.23414811,
          0.82709545,
          -0.6311928,
          0.8145435,
          -0.45072442,
          -0.22957394,
          0.71319634,
          0.8501772,
          -0.050541762,
          -0.67719495,
          -0.6789808,
          -0.73349255,
          0.96759206,
          -0.09331348,
          0.030257264,
          -0.74205524,
          -0.65125585,
          -0.5775571,
          0.8783995,
          -0.5511951,
          0.7224678,
          0.12867758,
          0.052998733,
          0.92955905,
          0.15840109,
          0.3205339,
          0.9541562,
          0.32013598,
          -0.1474927,
          0.23898588,
          -0.2783878,
          -0.2632349,
          -0.67894274,
          -0.69720924,
          0.9451227,
          0.8542769,
          -0.47422203,
          -0.54850197,
          -0.4840533,
          -0.66370535,
          -0.62364566,
          0.3329324,
          -0.819069,
          0.16027552,
          -0.40738344,
          0.57125014,
          -0.121639095,
          0.41798183,
          0.66953224,
          0.21548489,
          0.2287673,
          -0.71378756,
          0.66045743,
          -0.05862627,
          0.423659,
          -0.9913058,
          -0.40356135,
          0.89441085,
          0.2590872,
          -0.8706278,
          0.3535898,
          0.71235096,
          0.94689584,
          -0.63112307,
          -0.51734525,
          -0.7067817,
          -0.6381344,
          0.5868459,
          -0.71964043,
          0.48906332,
          -0.8740287,
          -0.7488268,
          0.5069184,
          -0.6181932,
          -0.9471476,
          0.56103086,
          -0.14799221,
          -0.07693538,
          0.90523976,
          0.60849977,
          0.79015744,
          -0.0233418,
          -0.044082448,
          -0.6008602,
          0.67702913,
          0.046185203,
          -0.53403366,
          -0.6629013,
          -0.1535316,
          0.9282119,
          0.13576388,
          -0.52441585,
          0.44289157,
          0.19478449,
          -0.6585632,
          -0.38182533,
          0.8645326,
          -0.42564392,
          -0.16763128,
          0.32032946,
          0.7723821,
          -0.5056452,
          -0.28207168,
          0.6825527,
          0.8285582,
          -0.3892697,
          -0.9688573,
          0.81565344,
          0.23428509,
          -0.6697356,
          -0.18751957,
          0.16275844,
          0.3820604,
          0.30117443,
          -0.6436401,
          0.6868781,
          0.6647643,
          0.6380305,
          -0.121406436,
          0.21365535,
          -0.43169332,
          0.28685406,
          0.8009312,
          0.014214876,
          0.56111926,
          -0.4894427,
          0.40414447,
          0.75690997,
          -0.66882336,
          -0.10963906,
          -0.7902142,
          0.76804435,
          -0.8036769,
          -0.366297,
          0.15131879,
          0.63895386,
          -0.31745484,
          0.05427398,
          -0.41729406,
          -0.30649653,
          -0.9141964,
          0.555263,
          -0.39706728,
          -0.5843981,
          0.09343529,
          0.7843132,
          -0.5832807,
          0.11015928,
          -0.59823835,
          0.39169574,
          -0.26562953,
          0.9969496,
          0.19674438,
          0.499883,
          0.5819629,
          0.73769194,
          -0.7913474,
          -0.98635525,
          0.2381457,
          -0.012806768,
          -0.87360173,
          0.51497567,
          0.47061318,
          0.4711678,
          0.44061458,
          0.3260042,
          -0.19475996,
          -0.8947787,
          0.12252227,
          -0.975089,
          0.3864758,
          0.37115133,
          -0.08090675,
          -0.5635681
        ],
        [
          -0.29128873,
          0.31679237,
          0.9423046,
          0.08032417,
          -0.20286107,
          0.00012123585,
          -0.8474014,
          -0.11994982,
          -0.55590165,
          0.98120606,
          0.69481575,
          -0.9238956,
          0.14372206,
          0.16258667,
          0.5558539,
          -0.8248062,
          0.8398924,
          -0.6575128,
          -0.40833127,
          0.23116267,
          0.2692126,
          -0.3381034,
          -0.07917273,
          0.12143493,
          0.1553067,
          0.106704354,
          -0.9749551,
          -0.90264165,
          0.018458366,
          0.703702,
          -0.18435085,
          0.58032,
          0.6612625,
          -0.43222973,
          -0.088641755,
          -0.33739683,
          -0.26242998,
          -0.24984641,
          0.36222538,
          -0.25549462,
          0.8878661,
          -0.20524533,
          -0.32578444,
          0.22758026,
          0.026323523,
          -0.20664175,
          -0.966706,
          0.83685625,
          0.9640718,
          0.71404153,
          0.2856709,
          -0.66032964,
          0.06981051,
          -0.30604577,
          0.118219376,
          0.81329954,
          0.18852317,
          -0.640478,
          0.24620758,
          0.8367235,
          -0.00048202026,
          0.106963076,
          -0.97133535,
          -0.4167347,
          -0.6574675,
          0.8023469,
          0.9866613,
          0.73819643,
          0.6917152,
          0.9030929,
          0.422045,
          0.2530971,
          0.008030497,
          0.9756711,
          -0.2775395,
          0.64092404,
          0.6764145,
          0.14347744,
          0.7851488,
          0.6962897,
          0.31636202,
          0.17632908,
          -0.47594845,
          -0.63739955,
          -0.2499057,
          0.5582348,
          -0.97335863,
          -0.50755817,
          -0.51006716,
          -0.17928678,
          -0.96371216,
          -0.96171707,
          -0.77589965,
          0.66845363,
          0.68672526,
          -0.8740366,
          0.73073083,
          -0.87902313,
          -0.098766774,
          0.16021404,
          0.30308864,
          0.39325058,
          0.3022358,
          -0.3641712,
          0.95811397,
          0.7264403,
          -0.6123879,
          -0.26173595,
          0.61334544,
          0.046410106,
          0.7321701,
          -0.039334774,
          0.450994,
          -0.87998563,
          0.34127948,
          -0.49769574,
          -0.79934555,
          -0.07327664,
          -0.8348744,
          -0.35357898,
          0.42585027,
          0.8876006,
          0.7909709,
          0.061171092,
          -0.087000206,
          -0.92839754,
          0.7435041,
          0.39274338,
          0.90341955,
          -0.17760256,
          0.8881355,
          -0.60888326,
          -0.47708783,
          -0.09669296,
          0.31750044,
          -0.06877419,
          -0.32901284,
          0.6560909,
          0.8680982,
          0.3879011,
          -0.54546547,
          0.80000734,
          -0.6613629,
          0.9551701,
          0.7608797,
          -0.23692739,
          0.8743502,
          -0.59970176,
          0.0035733029,
          -0.44354197,
          0.3452934,
          0.8164458,
          0.16050944,
          0.14077133,
          -0.7226497,
          -0.39130667,
          0.09343835,
          -0.09013941,
          0.7049405,
          0.17295088,
          -0.8373738,
          -0.14479172,
          0.103320844,
          0.21477766,
          -0.44172686,
          -0.4028297,
          0.5601199,
          0.93334985,
          -0.53707504,
          -0.94836694,
          -0.882528,
          0.7784141,
          -0.30284536,
          0.23543076,
          0.020501327,
          -0.0036740906,
          0.9416647,
          -0.016200338,
          -0.61538965,
          -0.48722297,
          -0.4611573,
          -0.6883071,
          0.84495896,
          -0.09100824,
          -0.27623448,
          -0.14750677,
          0.4570839,
          -0.3750045,
          -0.487081,
          0.6498115,
          0.31685513,
          0.018386338,
          0.8281621,
          0.067208506,
          0.48042956,
          -0.43698704,
          -0.7392692,
          0.41607076,
          0.35003686,
          -0.6694483,
          -0.5981844,
          -0.5155821,
          0.6388798,
          -0.85978323,
          0.06681456,
          -0.91762775,
          0.3360887,
          0.61487895,
          0.7846116,
          0.5101202,
          0.59134895,
          0.23939116,
          -0.4524639,
          -0.9251967,
          -0.16510567,
          -0.88124543,
          -0.1405959,
          -0.071708016,
          -0.30021316,
          0.7686962,
          -0.42403784,
          -0.21637659,
          0.7737156,
          -0.3862929,
          0.6381198,
          -0.56125987,
          -0.8565294,
          0.68352413,
          0.5378562,
          0.9616956,
          0.6953495,
          -0.40197432,
          0.29120606,
          -0.7099217,
          -0.071852684,
          -0.47349066,
          0.9916618,
          0.030949,
          -0.58599854,
          0.18535848,
          -0.32281578,
          -0.67032915,
          -0.21315728,
          -0.32689893,
          -0.9864155,
          -0.47232938,
          -0.56864643,
          -0.23302741,
          0.76302135,
          0.25912455,
          0.7998658,
          0.67653936,
          -0.94403833,
          -0.3634777,
          0.18962932,
          -0.5222442,
          -0.4379748,
          0.3200072,
          -0.34511375,
          -0.50143117,
          0.25080812,
          -0.0310514,
          0.27265504,
          0.4990342,
          -0.82256496,
          0.7298239,
          -0.19914022,
          0.5873104,
          0.2962683,
          -0.08851328,
          -1.0172285,
          -0.19424678,
          0.88243586,
          -0.7320185,
          0.22601604,
          -0.53669065,
          0.72356874,
          -0.9028268,
          -0.89749295,
          -0.20703751,
          0.11649812,
          0.56904036,
          0.74661523,
          0.0232056,
          0.39841634,
          0.87995684,
          -0.2048385,
          0.7074615,
          0.1459065,
          0.5850015,
          0.35965428,
          0.3115651,
          -0.8866295,
          -0.07655682,
          0.5000916,
          -0.40678337,
          -0.18648387,
          0.80210006,
          -0.81173164,
          -0.534607,
          0.7335213,
          -0.634622,
          -0.25891712,
          -0.009974542,
          -0.6776708,
          0.24202959,
          -0.37426385,
          0.8064376,
          -0.83903,
          0.6741235,
          0.85802126,
          -0.56229186,
          0.6690816,
          -0.8098706,
          0.8934113,
          -0.80865216,
          -0.26459852,
          -0.5918793,
          -0.517673,
          0.89546263,
          -0.6582882,
          0.0736598,
          0.17080145,
          0.5138237,
          0.39111724,
          0.80031383,
          0.14518593,
          0.28087962,
          0.044889946,
          0.11933712,
          -0.3354113,
          -0.7577489,
          0.629663,
          -0.47590458,
          -0.56853545,
          -0.42302158,
          -0.9020893,
          -0.33775324,
          -0.6537534,
          -0.2327767,
          0.8280725,
          0.021053642,
          0.24025585,
          0.36782083,
          0.45364338,
          0.7099791,
          0.4317569,
          -0.69928753,
          1.0293086,
          -0.7054804,
          0.9517826,
          0.8171693,
          -0.025132341,
          0.21856415,
          -0.056094903,
          -0.47344232,
          0.062301528,
          0.27971664,
          0.75140667,
          0.67683375,
          -0.12640592,
          -0.035665635,
          -0.51671904,
          0.5244439,
          -0.8392942,
          -0.42304343,
          0.8675509,
          0.15307918,
          0.41615716,
          -0.016802577,
          0.20681278,
          0.53507066,
          -0.7913578,
          -0.56558394,
          0.36696857,
          0.12208531,
          -0.29811287,
          -0.22885855,
          -0.65981233,
          0.12858701,
          0.5124205,
          0.59776485,
          -0.20732112,
          -0.9138317,
          -0.1281458,
          0.30713347,
          -0.020295115,
          0.2955534,
          -0.1717881,
          0.63295656,
          0.97217816,
          0.19170149,
          -0.03235201,
          -0.011453955,
          0.553539,
          0.1372284,
          -0.13803366,
          -0.31219345,
          0.09114293,
          0.8375678,
          -0.92404574,
          0.044181358,
          -0.4764072,
          0.13132507,
          0.69443494,
          -0.6610025,
          0.014149663,
          0.23180428,
          -0.30929083,
          0.8872254,
          0.42558128,
          0.45595655,
          -0.15750861,
          0.48692697,
          -0.44321457,
          0.641225,
          -0.4471106,
          -0.44427913,
          -0.08238225,
          0.9698533,
          -0.07584495,
          -0.19043748,
          -0.11042252,
          0.64693654,
          -0.8978436,
          0.19344634,
          0.66464174,
          -0.5220745,
          -0.24311855,
          0.29366195,
          -0.8458332,
          0.87584203,
          -0.9311293,
          -0.13431759,
          -0.40986237,
          -0.0803393,
          -0.81896335,
          -0.3470238,
          0.99848026,
          -0.7018434,
          0.8535164,
          -0.74763834,
          -0.73812443,
          0.38781983,
          0.4799447,
          -0.591986,
          0.34518835,
          -0.3704439,
          0.033188395,
          -0.027775595,
          0.3844534,
          0.5382886,
          0.45259437,
          0.7124105,
          -0.51724917,
          -0.8699511,
          -0.38040483,
          0.5475229,
          -0.8355106,
          -0.95967686,
          0.077468105,
          -0.6812526,
          -0.1290562,
          0.57976234,
          0.59452796,
          0.27386355,
          0.54312134,
          -0.13574809,
          -0.17132667,
          0.7389197,
          -0.14889333,
          -0.9628595,
          0.35450384,
          -0.92247,
          0.91779226,
          0.51496786,
          -0.7374841,
          0.27847528,
          -0.20219983,
          -0.012067128,
          -1.0009336,
          -0.6377334,
          0.46356004,
          0.9061939,
          -0.5941146,
          0.30162308,
          -0.3365494,
          -0.7980619,
          -0.8135824,
          0.77309555,
          -0.7013099,
          -0.4472843,
          0.09657581,
          0.3857976,
          -0.47737235,
          -0.66547984,
          0.9289801,
          -1.0131981,
          0.40228721,
          -0.7477579,
          -0.82547,
          -0.33618098,
          -0.9819585,
          0.20725775,
          0.5646661,
          -0.2836722,
          0.90403444,
          0.568034,
          0.8369666,
          0.3861983,
          -0.4994769,
          -0.45605162,
          -0.49711776,
          -0.37579766,
          0.49460697,
          -0.1832148,
          -0.33434153,
          0.52460116,
          0.72352123,
          0.035939585,
          -0.006326878,
          -0.8097266,
          0.4883314,
          -0.056863412,
          0.8040897,
          -0.47662663,
          0.3095545,
          -0.2219231,
          0.7232282,
          0.42805344,
          -0.79953825,
          0.36296967,
          0.0595023,
          0.94753337,
          0.9396299,
          -0.46245193,
          0.62372154,
          0.047574062,
          -0.85778636,
          -0.97077334,
          0.0003467347,
          0.548196,
          -0.23283835,
          -0.3781925,
          -0.500961,
          -0.075605236,
          0.58803236,
          -0.44079253,
          0.3521783,
          0.5142716,
          0.32419544,
          0.23827505,
          -0.022349698,
          -0.69790894,
          -1.0006201,
          -0.52461165,
          -0.10768188,
          -0.80132395,
          -0.37562197,
          0.12953298,
          -0.26546812,
          0.069562,
          -0.26507086,
          -0.6100241,
          0.36230466,
          0.3654732,
          -0.4161936,
          0.5828881,
          -0.4982155,
          -0.3431551,
          0.8319516,
          -0.5158072,
          0.20976926,
          0.5089718,
          -0.011734641,
          0.84435743,
          0.6934295,
          -0.30073464,
          -0.12182856,
          0.514839,
          -0.7299491,
          -0.88649637,
          -0.6511001,
          0.8667044,
          -0.6396039,
          0.49882704,
          -0.28937408,
          0.34465456,
          -0.8321246,
          -0.999798,
          0.9885553,
          -0.95514196,
          0.6496729,
          0.5798919,
          -0.6859022,
          0.8841417,
          0.3038838,
          -1.0047327,
          -0.5308439,
          -0.7930766,
          -0.23015383,
          -0.55504006,
          0.037512805,
          0.17707832,
          -0.025894485,
          0.90515417,
          0.69295704,
          0.6927704,
          -0.7258578,
          -0.22499713,
          0.15932693,
          -1.0043284,
          0.99532217,
          -0.86145496,
          0.16943991,
          -0.80556643,
          0.15650317,
          -0.2941793,
          -0.7237042,
          0.99017256,
          -0.6666551,
          0.123128355,
          -0.24118419,
          0.074637026,
          0.14322564,
          0.33383852,
          0.37569362,
          -0.7911669,
          -0.5162201,
          -0.28174216,
          -0.18209241,
          -0.94700444,
          0.39586946,
          -0.41529533,
          0.8905417,
          -0.057619605,
          -0.5509268,
          -0.15679234,
          -0.36280215,
          -0.78348243,
          -0.53681093,
          -0.37965465,
          0.4341622,
          -0.84249544,
          0.60908914,
          -0.71228456,
          -0.6583163,
          0.7180226,
          -0.8279788,
          0.7492937,
          0.5673556,
          0.55519825,
          -0.100963056,
          -0.9879495,
          -0.66851836,
          -0.5407573,
          0.7213488,
          0.3003898,
          0.8700632,
          -0.50875044,
          0.35491502,
          0.11955496,
          -0.6258747,
          -0.5824589,
          -0.27209723,
          -0.314558,
          0.9884424,
          -0.8642917,
          -0.9199226,
          0.33752358,
          -0.76588917,
          -0.44349837,
          -0.42601275,
          -0.67968416,
          0.3937738,
          0.03142565,
          -0.49195823,
          -0.6458392,
          0.2977333,
          0.6361038,
          -0.005219611,
          0.30853534,
          0.5224478,
          -0.4831757,
          -0.36739254,
          0.6696518,
          0.30246788,
          -0.2069546,
          0.27152202,
          0.31090853,
          0.5908937,
          -0.93214613,
          0.07088756,
          0.8224577,
          -0.59853095,
          -0.13431087,
          0.14921722,
          0.85736024,
          -0.2683974,
          -0.7091836,
          -0.8894694,
          0.4753195,
          -0.5798852,
          -0.97499377,
          0.5526919,
          -0.71552765,
          -0.041969202,
          0.11679532,
          0.7876288,
          -0.9825823,
          -0.24549173,
          -0.012422952,
          0.058524866,
          -0.18746452,
          -0.89728355,
          -0.32108298,
          0.21627037,
          0.22686854,
          -0.5276566,
          0.17442204,
          0.80973184,
          0.78347385,
          0.92690575,
          -0.09203423,
          -0.82886225,
          -0.3295028,
          0.57632023,
          0.40635097,
          0.6916982,
          -0.86512387,
          -0.54377496,
          -0.3339928,
          0.6414508,
          0.34864622,
          0.87737596,
          -0.4889999,
          -0.22880615,
          0.3238994,
          0.1304741,
          0.7342559,
          -0.79322124,
          0.45513412,
          0.66262,
          0.42764917,
          0.16995187,
          0.8842012,
          -0.6513847,
          0.14527637,
          0.88176435,
          -0.15192232,
          -0.4130123,
          0.5941898,
          0.71269494,
          -0.07644977,
          -0.48517323,
          -0.54130816,
          -0.86672425,
          -0.32521594,
          0.2791208,
          -0.66206527,
          -0.16489702,
          -0.54514,
          0.43674165,
          0.27404174,
          -0.4538999,
          -0.4959312,
          -0.60771835,
          0.5685757,
          -0.14011002,
          0.4875311,
          -0.34716383,
          -0.6843527,
          -0.23330764,
          -0.5553109,
          0.97923625,
          -0.73825544,
          -0.069516554,
          -0.116721585,
          0.17030656,
          0.6406043,
          0.7945664,
          -0.21174169,
          0.6787782,
          -0.4125893
        ],
        [
          -0.75321984,
          -0.90715253,
          -0.036387563,
          -0.08295035,
          0.6711652,
          -0.45555878,
          -0.1655643,
          0.6148064,
          -0.38843858,
          0.51127636,
          -0.85900116,
          -0.66950834,
          -0.80277693,
          0.20847538,
          0.4289451,
          -0.34282708,
          -0.17363632,
          0.93649566,
          -0.08796215,
          0.2812214,
          0.222018,
          0.9621866,
          0.2478019,
          0.97155654,
          -0.009869933,
          -0.9704629,
          -0.6055033,
          0.2999053,
          -0.3796078,
          0.063949466,
          -0.31841958,
          0.07783508,
          0.061923385,
          -0.28191447,
          -0.01734531,
          -0.02089094,
          -0.26480427,
          0.04095856,
          -0.88325524,
          0.80862224,
          -0.48678368,
          0.09656197,
          0.11668252,
          0.5782985,
          0.7584289,
          0.95580256,
          0.19048692,
          -0.9949201,
          -0.33742714,
          -0.032850336,
          -0.110512696,
          -0.6471771,
          -0.83016753,
          0.7713959,
          0.9985031,
          0.6516293,
          -0.57963574,
          -0.68209887,
          0.06895149,
          -0.20918895,
          -0.26897013,
          -0.3611009,
          0.28376824,
          0.27098858,
          -0.55945975,
          0.89919394,
          -0.96060735,
          -0.6256151,
          -0.0078094853,
          -0.25407743,
          -0.23922606,
          0.71738887,
          -0.33899188,
          -0.35531938,
          -0.36115545,
          -0.9681882,
          0.1193111,
          -0.34315538,
          0.73179543,
          0.24246934,
          -0.00024931828,
          -0.67818654,
          -0.2894361,
          -0.22639167,
          -0.52495897,
          0.68643343,
          -0.114405215,
          -0.7466182,
          -0.12344895,
          -0.2271975,
          0.65230465,
          -0.9167008,
          -0.25314647,
          -0.86442214,
          0.40712026,
          -0.83153546,
          -0.09223273,
          -0.7519922,
          0.55088025,
          -0.27374166,
          -0.34622365,
          0.88370365,
          -0.09498593,
          -0.74522305,
          -0.073018074,
          -0.4683205,
          0.37673086,
          0.13850075,
          0.09866863,
          0.9557104,
          -0.53632593,
          0.23172331,
          -0.076925635,
          0.16943283,
          0.8089753,
          -0.107084334,
          0.72878367,
          -0.09603553,
          -0.30456007,
          -0.9278998,
          -0.15430753,
          -0.49087918,
          0.69270986,
          0.25219697,
          -0.9437851,
          0.33884475,
          0.4970728,
          -0.16741845,
          -0.25409782,
          0.46845365,
          0.32244605,
          0.9199512,
          -0.14959794,
          0.98313886,
          -0.12738062,
          -0.8877423,
          0.15229556,
          -0.90661424,
          0.40658858,
          -0.3655346,
          0.19495368,
          0.9612137,
          0.6463527,
          0.08489932,
          -0.9577787,
          0.97274655,
          0.014788707,
          -0.21695575,
          -0.68685424,
          0.5530113,
          0.73092383,
          0.25876886,
          0.15344577,
          0.83114535,
          -0.60408646,
          0.13097054,
          0.9417494,
          -0.9470393,
          0.79514605,
          -0.18031879,
          -0.58128554,
          0.85834354,
          -0.6100004,
          -0.7484947,
          0.1339774,
          0.37570366,
          -0.78898466,
          0.5696233,
          -0.9185927,
          0.39501914,
          0.88873404,
          0.88875496,
          0.1261315,
          -0.14134836,
          0.97375554,
          0.70692635,
          0.01612102,
          0.09631261,
          -0.8577772,
          0.88940614,
          -0.99418855,
          -0.5586003,
          -0.6733175,
          -0.4389933,
          0.7448279,
          0.47953305,
          0.4822868,
          0.080382824,
          -0.58226055,
          0.85112756,
          -0.46154818,
          0.66563594,
          -0.81852925,
          0.9454748,
          -0.5711339,
          -0.13586158,
          0.16135578,
          0.6240901,
          -0.9482184,
          0.29729652,
          -0.69873315,
          -0.15586549,
          -0.32645994,
          0.81943756,
          0.20914888,
          0.54545754,
          -0.11107469,
          -0.4298459,
          0.024214685,
          0.09885268,
          0.53645325,
          0.92528987,
          0.0977941,
          -0.9987826,
          -0.46380824,
          -0.9537198,
          -0.9189739,
          0.92994004,
          -0.45710295,
          0.5376703,
          0.88280344,
          -0.2339456,
          -0.89887756,
          -0.84813094,
          -0.2937877,
          0.66658837,
          0.16890132,
          0.6852736,
          -0.5725087,
          -0.640416,
          0.8798959,
          0.5409888,
          -0.735849,
          0.97759223,
          -0.3071172,
          0.07268815,
          -0.87925905,
          -0.30713168,
          0.06739026,
          -0.9557548,
          -0.5301771,
          -0.8975388,
          0.6966911,
          -0.22624984,
          0.67648417,
          0.8724306,
          -0.7381383,
          0.3899672,
          -0.2569639,
          0.86692345,
          -0.54354393,
          0.98198074,
          -0.8398936,
          -0.577514,
          -0.4384036,
          -0.43414307,
          -0.85659975,
          0.10732957,
          0.93061537,
          -0.32784992,
          -0.8263194,
          -0.2897872,
          -0.38604924,
          -0.17723584,
          0.9832601,
          0.9562604,
          0.35647774,
          -0.5992529,
          0.018897288,
          -0.1013863,
          -0.4833052,
          0.32947296,
          -0.7221723,
          0.42097947,
          -0.85783046,
          0.08388409,
          -0.99424917,
          -0.8897817,
          -0.24736305,
          -0.57306635,
          0.241858,
          -0.8373266,
          0.60519034,
          -0.5826893,
          0.7321576,
          -0.39799953,
          -0.80163133,
          -0.8984336,
          -0.9618886,
          -0.1106707,
          0.10606698,
          0.6630545,
          -0.5179985,
          -0.48102263,
          -0.36471567,
          -0.6633189,
          -0.009376271,
          -0.71968764,
          0.7235793,
          0.35727847,
          -0.74981344,
          0.17660041,
          0.6841778,
          -0.8886788,
          -0.9087331,
          -0.81074387,
          -0.12537849,
          -0.12941422,
          0.56438863,
          0.08373083,
          0.045788288,
          -0.5780228,
          -0.30562267,
          -0.56416845,
          0.6579671,
          0.78761786,
          -0.950678,
          -0.88000685,
          0.5761686,
          0.5685806,
          0.24959068,
          -1.0063701,
          -0.21308812,
          0.31715524,
          -0.82889086,
          0.5710491,
          0.60065275,
          0.9217976,
          -0.13691948,
          -0.94756216,
          0.5538397,
          0.6379566,
          0.72295773,
          -0.093222015,
          0.98538375,
          0.30774808,
          0.15715037,
          0.51716745,
          -0.086841695,
          0.8315149,
          0.8017711,
          0.911287,
          -0.66398215,
          0.5589766,
          0.36727902,
          -0.14568903,
          -0.79703027,
          0.69334465,
          0.8601586,
          -0.8976262,
          0.69672865,
          -0.6129568,
          0.73366946,
          0.4962435,
          -0.3650284,
          -0.42676142,
          0.62943643,
          -0.34230682,
          -0.3592943,
          0.4233341,
          0.36447522,
          -0.07739434,
          0.040983815,
          0.85628617,
          -0.1921884,
          0.037453186,
          -0.9689546,
          0.7851797,
          -0.48443994,
          -0.7603636,
          0.8158006,
          -0.31917578,
          -0.3133084,
          -0.30379725,
          0.6683568,
          -1.037305,
          0.017015114,
          0.50189465,
          -0.68706423,
          -0.12046738,
          0.5863873,
          -0.36800227,
          0.5063964,
          -0.7636289,
          0.57969654,
          0.016981034,
          0.5048601,
          0.12005502,
          0.95401675,
          0.6820281,
          -0.29039517,
          -0.83727753,
          0.37236592,
          -0.506798,
          0.28430027,
          -0.7470179,
          -0.48049963,
          0.8812187,
          0.1772777,
          -0.96655923,
          -0.73265135,
          -0.97263855,
          -0.08922017,
          0.6459143,
          0.33579242,
          0.06962201,
          -0.5162813,
          -0.23588812,
          -0.41075733,
          0.9396351,
          -0.8511077,
          -0.49449697,
          -0.001061413,
          0.76104623,
          0.41559687,
          -0.03356198,
          0.99382704,
          -0.2495301,
          0.85755306,
          0.591969,
          -0.54369295,
          -0.46665454,
          0.2504261,
          0.37012184,
          -0.236471,
          0.10259629,
          -0.55097604,
          0.0036246988,
          0.24022555,
          -0.9025239,
          -0.4911519,
          0.06749365,
          -0.9430936,
          -0.31155598,
          0.30759624,
          -0.48359162,
          0.09600659,
          -0.35550588,
          -0.34124193,
          -0.11890075,
          -0.51883405,
          -0.2997811,
          0.6824022,
          0.24537641,
          0.7014097,
          0.23710743,
          0.9465943,
          0.041104883,
          -0.3555716,
          -0.931942,
          -0.9017887,
          0.100136355,
          0.66516197,
          -0.2322846,
          -0.6882003,
          -0.3305438,
          -0.61118054,
          -0.14989352,
          0.4371151,
          -0.1322947,
          0.1371339,
          -0.972369,
          -0.9780405,
          0.022044666,
          -0.78005224,
          -0.556071,
          -0.275228,
          0.33614758,
          -0.7375811,
          -0.46986732,
          0.38901055,
          0.5330108,
          -0.38467562,
          -0.97518325,
          -0.4224045,
          -0.08736773,
          0.42067873,
          -0.6084939,
          -0.62867576,
          -0.92870855,
          -0.3176828,
          0.96935606,
          0.59420264,
          0.546808,
          -0.67111295,
          -0.7370467,
          0.40711844,
          -0.931623,
          -0.7470566,
          0.22011942,
          0.39017934,
          0.8594904,
          -0.14807783,
          -0.3688141,
          0.26414835,
          -0.800158,
          -0.43813175,
          -1.006286,
          -0.7803665,
          -0.9635886,
          0.6908128,
          0.08944172,
          0.24518,
          -0.8288751,
          0.3950139,
          -0.36896086,
          -0.65851796,
          -0.37311378,
          0.2867556,
          0.16424172,
          0.19531754,
          -0.21682039,
          0.3037794,
          -0.51684314,
          -0.58149165,
          -0.46940714,
          0.9564594,
          -0.67960614,
          0.5687778,
          0.22433697,
          -0.5266034,
          -0.06460106,
          0.687849,
          -0.7233191,
          0.903208,
          -0.77123195,
          -0.03549617,
          -0.8131661,
          -0.17435172,
          0.054826036,
          0.4808975,
          -0.19289994,
          -0.86225307,
          0.9292512,
          0.49975473,
          0.37807453,
          -0.28384387,
          0.041749913,
          0.48833966,
          0.5496676,
          -0.4834204,
          -0.35853285,
          0.16110101,
          0.030941326,
          -0.5741929,
          0.5669049,
          0.11169538,
          -0.9134839,
          -0.5067252,
          -0.97100776,
          -0.62238646,
          0.5221108,
          -0.45177764,
          -0.5115408,
          -0.26651126,
          0.17394963,
          0.5263705,
          -0.16360019,
          0.7433296,
          0.2978572,
          -0.12108064,
          0.116319895,
          0.7348295,
          -0.46171245,
          -0.037401754,
          -0.8688197,
          0.78650635,
          -0.020516671,
          0.57798624,
          -0.856963,
          -0.6659479,
          0.52779406,
          -0.20900464,
          -0.058934722,
          0.09116073,
          -0.7438103,
          0.89470595,
          -0.8179936,
          -1.0021778,
          -0.97021997,
          0.661465,
          -0.9223235,
          0.95283806,
          -0.29774627,
          0.52347803,
          0.3176952,
          -0.4623147,
          0.6460325,
          0.14081025,
          -0.06761834,
          0.9189794,
          0.46055672,
          -0.17198938,
          0.105807774,
          -0.25469714,
          -0.124090634,
          0.24893689,
          -0.88400954,
          0.93256855,
          -0.37198776,
          -0.7341503,
          -0.26109546,
          0.36071044,
          0.8685331,
          -0.390832,
          0.46158224,
          -0.3693898,
          0.88352615,
          0.33884153,
          0.93142146,
          0.18671276,
          -0.6531367,
          0.020317158,
          0.9013883,
          -0.3683322,
          -0.07652736,
          0.7109071,
          0.6917489,
          0.3353248,
          -0.32081503,
          -0.52602905,
          0.7056868,
          0.80421054,
          0.5307051,
          -0.3072334,
          -0.71648127,
          -0.7436837,
          -0.92306674,
          -0.75223154,
          -0.2773341,
          -0.5482045,
          0.014852125,
          -0.14907448,
          0.9546265,
          0.106826276,
          0.8992993,
          -0.16674538,
          -0.97783655,
          -0.2815782,
          -0.5185455,
          0.64012337,
          -0.4024693,
          -0.45981047,
          0.7849196,
          -0.4270017,
          -0.6372149,
          -0.84042436,
          -0.23827426,
          0.7041111,
          -0.3716742,
          0.20064385,
          0.21161973,
          0.46494117,
          0.4713396,
          0.8916384,
          0.52154756,
          0.80648494,
          0.7071548,
          -0.61970425,
          0.3194878,
          -0.6777507,
          0.7586489,
          0.0070937895,
          -0.7541842,
          0.2999094,
          0.37396094,
          -0.75797147,
          0.5243959,
          -0.89787143,
          0.32349613,
          -0.8226697,
          0.29278684,
          -0.20205343,
          0.9052068,
          0.57781565,
          0.33957303,
          0.006105312,
          0.07851365,
          -0.6311073,
          0.9554145,
          -0.2112547,
          0.28873834,
          0.9611208,
          -0.67399573,
          0.71276677,
          -0.9290834,
          -0.003916577,
          0.87217456,
          -0.25483203,
          -0.35520703,
          0.4744924,
          0.6602758,
          -0.28849617,
          -0.39961296,
          -0.63408023,
          0.2776847,
          -0.49967077,
          0.7338513,
          -0.9033581,
          0.8289329,
          0.48473787,
          -0.5977701,
          0.43627852,
          0.58566546,
          0.9867775,
          0.5279187,
          0.76416045,
          0.25077426,
          0.15316415,
          -0.6648753,
          -0.58515847,
          0.7664055,
          0.4125853,
          -0.47859114,
          -0.6331312,
          -0.228342,
          0.6571528,
          0.20661552,
          0.21515018,
          0.6968979,
          -0.5619673,
          -0.99007654,
          -0.22681746,
          0.36859384,
          -0.58323926,
          -0.9537457,
          0.5490984,
          0.008127689,
          0.97893155,
          -0.66454065,
          0.426499,
          -0.38492748,
          0.76736444,
          0.25876537,
          0.8635089,
          0.36588255,
          0.32072088,
          -0.68685645,
          0.88142765,
          0.8022327,
          0.10910338,
          0.22895062,
          0.49910155,
          0.01567438,
          0.20648907,
          0.7591479,
          -0.14973547,
          0.79226214,
          -0.80006623,
          0.71931803,
          -0.7516847,
          -0.61826795,
          -0.10663724,
          -0.3194318,
          -0.67834055,
          -0.052054644,
          -0.23360252,
          0.9942943,
          -0.23477006,
          0.36632705,
          -0.18884659,
          -0.52241623,
          0.4713478,
          0.10535172,
          0.19218478,
          0.44530758,
          -0.949983,
          0.16196184,
          0.117499,
          0.13163908,
          -0.8483332,
          -0.35573182,
          0.28367034,
          -0.82028776,
          0.41277444,
          0.30345768,
          -0.3242372,
          -0.42903715,
          0.66799295,
          -0.9727051,
          0.10937178,
          -0.4752071,
          0.6988976,
          0.75332284
        ],
        [
          -0.13808155,
          0.97656894,
          0.71581256,
          -0.57587886,
          0.68507373,
          -0.36986232,
          -0.79135823,
          0.9778414,
          0.46510983,
          0.6448597,
          0.058645725,
          0.40717256,
          -0.85023,
          -0.192694,
          -0.9287911,
          -0.74791473,
          0.7762457,
          0.027434587,
          -0.45387733,
          0.60489357,
          0.35980284,
          0.42444634,
          -0.7369751,
          0.06495881,
          0.9495089,
          0.99888015,
          -0.6133379,
          0.093360424,
          0.57722867,
          -0.643216,
          0.1569351,
          -0.18749356,
          0.17839074,
          -0.90353334,
          -0.7866547,
          -0.3992975,
          -0.47545117,
          0.05918195,
          0.5053032,
          0.11654454,
          -0.8532054,
          -0.31094304,
          -0.8798927,
          0.43571803,
          -0.5686547,
          -0.06993577,
          0.7430194,
          0.7919941,
          -0.16287705,
          0.5238048,
          -0.31938988,
          -0.051878013,
          -0.9079485,
          0.7192633,
          -0.32361805,
          -0.06436968,
          -0.9814117,
          0.49674177,
          0.92734945,
          0.48231512,
          -0.53711647,
          0.7903256,
          -0.7788302,
          -0.6748638,
          0.36183244,
          0.47757584,
          0.54566383,
          -0.8826391,
          0.2652173,
          0.21383992,
          -0.6415954,
          0.33208764,
          -0.7423292,
          0.9921257,
          0.5158279,
          0.5304165,
          0.07380207,
          -0.64987147,
          0.16864349,
          0.5051765,
          -0.7137042,
          0.43051082,
          0.68211377,
          0.5703163,
          -0.789207,
          0.015403986,
          -0.16344266,
          0.5118798,
          0.21750933,
          -0.6916044,
          -0.5445774,
          0.9785727,
          -0.9923502,
          -0.3453209,
          -0.61327827,
          -0.76333714,
          -0.31277207,
          -0.59065455,
          -0.42778528,
          -0.49132708,
          -0.37794077,
          0.97953904,
          0.072021276,
          0.37384233,
          -0.27182433,
          -0.13809894,
          0.9077133,
          0.68150246,
          -0.80911136,
          0.73075485,
          0.7625234,
          -0.5818696,
          0.58170235,
          -0.2721435,
          -0.12874685,
          0.050216347,
          -0.5998983,
          -0.078148015,
          0.92478126,
          -0.6092115,
          -0.47471315,
          0.6827241,
          0.36236233,
          0.59299374,
          -0.5775362,
          -0.60883236,
          -0.77022976,
          -0.4158623,
          0.4054543,
          0.43765742,
          0.06215021,
          0.47584477,
          -0.3201838,
          0.77469665,
          -0.17389895,
          0.10501897,
          0.9147333,
          0.4586116,
          -0.7262883,
          -0.841472,
          0.52335024,
          -0.53043723,
          0.09146043,
          0.45596835,
          -0.07025759,
          -0.0019480834,
          0.39054874,
          0.63818145,
          -0.8732462,
          -0.14559202,
          -0.5802287,
          0.9340131,
          0.647429,
          -0.87192374,
          0.48426637,
          0.72031623,
          -0.24962491,
          -0.5737385,
          -0.5980445,
          0.888962,
          -0.23406672,
          0.62023014,
          -0.81620216,
          0.87269276,
          0.7541019,
          0.7296954,
          0.51743984,
          0.26692972,
          -0.042778254,
          0.9431378,
          0.49160048,
          0.49743792,
          0.70895255,
          0.78194934,
          -0.564025,
          -0.116120435,
          -0.00014689105,
          0.7789468,
          -0.55887496,
          -0.8438269,
          0.39873967,
          -0.8441834,
          -0.37192068,
          0.4938741,
          -0.58260304,
          -0.84302807,
          0.37277752,
          -0.23068851,
          -0.91114056,
          -0.06555859,
          0.7132593,
          0.8473262,
          0.21002926,
          0.7979764,
          -0.6276552,
          0.03818548,
          -0.0333563,
          -0.4665148,
          -0.80649596,
          -0.7812085,
          -0.71334624,
          -0.1198884,
          -0.7890675,
          0.35805658,
          0.782649,
          -0.06434159,
          0.48736167,
          0.8507005,
          0.29069108,
          -0.19425085,
          0.70086914,
          0.53758085,
          -0.91447574,
          -0.4751002,
          0.40432024,
          0.2130752,
          0.9276944,
          -0.58099705,
          -0.34415415,
          -0.11905425,
          0.23708187,
          0.66249067,
          0.46143582,
          -0.7765977,
          0.30972615,
          0.32516307,
          0.3980045,
          -0.15887758,
          0.6759469,
          -0.38725588,
          -0.4501154,
          0.76242685,
          -0.03001199,
          0.2746291,
          -0.54503685,
          0.48059076,
          -0.8987977,
          -0.45225117,
          0.16036755,
          -0.051211506,
          0.026776284,
          0.43219534,
          0.24157293,
          0.7578071,
          -0.30598298,
          0.6422553,
          0.006028388,
          -0.6104428,
          -0.7361551,
          -0.493312,
          -0.8307988,
          -0.16039681,
          0.76285946,
          0.02198476,
          -0.87930214,
          -0.72479224,
          0.43785596,
          -0.29584914,
          -0.9158128,
          -0.2242605,
          -0.59191495,
          0.18806645,
          -0.6573044,
          0.5824819,
          -0.84086806,
          0.8917094,
          0.7389359,
          0.35447645,
          -0.735342,
          -0.89575565,
          0.786967,
          0.5331154,
          -0.87759674,
          0.9080867,
          0.8605813,
          -0.34883693,
          0.2704735,
          0.031804126,
          -0.8041147,
          -0.5587348,
          -0.92914915,
          0.34564844,
          -0.6991312,
          0.057670467,
          0.92744005,
          -0.38798416,
          -0.53044736,
          -0.7728631,
          0.2174795,
          -0.5982327,
          -0.1782286,
          -0.45760825,
          0.043493945,
          -0.76758146,
          0.4901302,
          0.15657204,
          -0.9552941,
          -0.706006,
          0.12775198,
          0.86279356,
          -0.27786574,
          -0.7722609,
          0.039340883,
          -0.11155748,
          -0.8765899,
          0.29891628,
          -0.40036243,
          -0.9232728,
          -0.8769251,
          0.3869924,
          -0.7918114,
          0.28087842,
          0.8207746,
          -0.24515116,
          0.5281667,
          0.6803675,
          0.27047756,
          -0.87838477,
          0.53377426,
          -0.25967208,
          0.91165197,
          -0.4442555,
          0.4134563,
          -0.36894602,
          0.43280774,
          -0.34693655,
          0.4326339,
          0.011631541,
          -0.31734687,
          -1.0368412,
          -0.3645868,
          -0.45318836,
          -0.9242667,
          0.33109128,
          -0.45675802,
          -0.27985474,
          -0.70884293,
          0.52611053,
          -0.09671389,
          -0.87809974,
          -0.6662101,
          0.79790205,
          0.49581435,
          0.014594412,
          0.73976666,
          0.8573889,
          0.28730413,
          -0.994981,
          -0.098818675,
          -0.02127175,
          0.16017255,
          0.010587647,
          0.5308539,
          0.07251489,
          0.9484275,
          -0.54898053,
          -0.5262639,
          -0.7919842,
          -0.17372769,
          -0.22063984,
          -0.17324576,
          -0.6071942,
          -0.4921108,
          0.7188612,
          0.6606218,
          0.7994929,
          -0.98630154,
          0.6346857,
          -0.9318767,
          -0.33699888,
          -0.7511853,
          -0.49841464,
          0.8903531,
          0.053570755,
          0.8482301,
          -0.6343313,
          -0.028960254,
          0.66989726,
          0.80076313,
          0.77590966,
          -0.22865771,
          0.40280223,
          0.2919909,
          -0.12626006,
          -0.6119764,
          -0.2532927,
          -0.9263361,
          -0.81436664,
          -0.4740459,
          -0.4039335,
          -0.7658447,
          0.2695651,
          -0.504753,
          -0.7952834,
          0.8170695,
          -0.27446207,
          0.7171419,
          0.7836885,
          -0.9695134,
          0.05836279,
          0.7136776,
          0.84543145,
          -0.8935766,
          0.1629041,
          0.38181397,
          0.04264713,
          -0.8125459,
          0.14571686,
          0.61877453,
          0.15061572,
          -0.19699663,
          -0.5672663,
          0.39163202,
          0.15056534,
          -0.58926594,
          -0.098492,
          0.32275653,
          0.093408674,
          0.23861769,
          -0.4111666,
          -0.5057607,
          0.8562212,
          0.243626,
          -0.3177666,
          -0.7190713,
          0.7989755,
          0.21540877,
          -0.46694493,
          -0.114749916,
          -0.2840561,
          0.9668835,
          0.048405915,
          -0.5603152,
          -0.57734877,
          0.8351616,
          -0.8787489,
          0.30853218,
          0.58361953,
          -0.85259765,
          -0.53363997,
          -0.3293816,
          -0.81226057,
          -0.07371543,
          -0.11577709,
          -0.9007534,
          0.6689881,
          0.71138465,
          -0.71658075,
          -0.8108916,
          -0.34893492,
          -0.9698926,
          -0.6770459,
          0.47355965,
          0.7618115,
          0.8926165,
          -0.37630853,
          0.91907835,
          0.56700045,
          -0.54473996,
          -0.12665749,
          -0.8084389,
          -0.2700382,
          0.73457676,
          -0.48263377,
          0.272217,
          0.3755402,
          0.0033112206,
          0.9782784,
          -0.6948429,
          -1.0263002,
          0.81782794,
          -0.31320637,
          0.9719452,
          0.8521773,
          0.21933511,
          0.31434032,
          -0.41279972,
          -0.47216058,
          -0.45670065,
          -0.8584347,
          -0.16106895,
          -0.24847634,
          -0.3377352,
          -0.26092383,
          0.62511533,
          0.67686194,
          0.8695814,
          0.06660177,
          0.31780908,
          -0.039602593,
          -0.85823673,
          0.005026223,
          -0.40643126,
          0.3005731,
          -0.41790083,
          0.5789652,
          0.823338,
          0.5364139,
          0.53971624,
          -0.10664678,
          -0.15762794,
          -0.3806053,
          -0.2536342,
          0.9556588,
          0.1010399,
          -0.1701577,
          -0.8998219,
          0.54254407,
          -0.2503902,
          0.70310396,
          0.025241978,
          -0.7824628,
          0.7678236,
          -0.9427471,
          0.5161095,
          0.014306129,
          0.7668137,
          -0.79863685,
          -0.9866035,
          -0.21278596,
          -0.71683294,
          -0.5941234,
          -0.8828479,
          0.6822525,
          0.5643004,
          -0.95394665,
          0.63040787,
          -0.83108234,
          0.10939788,
          0.013620408,
          0.89244163,
          -0.6678265,
          -0.7129265,
          -0.72217625,
          0.15027341,
          -0.9739259,
          -0.7264319,
          -0.7539675,
          -0.20049408,
          0.128768,
          -0.56893474,
          0.54909515,
          -0.14730623,
          -0.7743722,
          -0.33212316,
          -0.66177154,
          -0.7703916,
          -0.3631018,
          0.8674532,
          0.38842213,
          -0.7867172,
          -0.77252406,
          0.99406546,
          0.44979915,
          0.39263427,
          -0.80420935,
          0.87565964,
          0.99586076,
          0.0060107494,
          -0.91049665,
          0.6363702,
          0.77727133,
          -0.8785268,
          0.29936507,
          0.7569868,
          -0.49420097,
          -0.59497213,
          -0.7448919,
          0.20588557,
          -0.9904989,
          -0.99424946,
          -0.97289443,
          0.2688897,
          0.5627319,
          0.17983699,
          -0.48289025,
          0.13539325,
          -0.5154082,
          0.8363979,
          0.13618083,
          -0.32792264,
          0.8988765,
          -0.687412,
          -0.5602248,
          -0.0019756272,
          0.82892114,
          0.8579053,
          0.5303551,
          -0.66174996,
          0.23185721,
          0.060596224,
          0.8695032,
          -0.7742597,
          0.3679936,
          -0.3613514,
          0.12094352,
          -0.6976881,
          -1.0272363,
          -0.6164166,
          -0.56234944,
          0.75146043,
          -0.9555024,
          -0.4168224,
          0.73742974,
          0.7482582,
          0.7113373,
          0.7977574,
          -0.1362657,
          -0.24445131,
          -0.55938804,
          -0.6365299,
          0.06164825,
          -0.9089309,
          0.73299825,
          0.13653453,
          0.42107877,
          -0.52459896,
          -0.47552067,
          -0.6511582,
          -0.51419544,
          -0.15314846,
          -0.08699235,
          -0.9754272,
          -0.4133874,
          -0.49602056,
          -0.15506452,
          -0.9350666,
          0.1860359,
          0.5017456,
          -0.6332872,
          0.8868292,
          -0.11947114,
          0.9027332,
          0.8564882,
          -0.1311619,
          0.89114183,
          0.83985704,
          0.18626036,
          -0.6596441,
          0.34941754,
          -0.34669143,
          0.15937974,
          -0.44344664,
          -0.36293605,
          0.20194244,
          0.88110447,
          -0.3575607,
          0.9437131,
          -0.025829481,
          0.25001055,
          0.026263686,
          0.9472461,
          0.66986203,
          0.024826286,
          -0.29176745,
          -0.39148355,
          -0.35922667,
          -0.084846094,
          0.8889943,
          -0.43495005,
          -0.888119,
          0.6219754,
          0.5366268,
          -0.2521747,
          0.15830313,
          0.42930228,
          -0.74638635,
          0.8299084,
          -0.95945174,
          0.9801758,
          0.9432272,
          0.8773148,
          -0.1377604,
          0.7843008,
          -0.22204004,
          -0.005742452,
          -0.21598288,
          -0.35275126,
          0.9779636,
          0.7616683,
          -0.17962064,
          -0.39757326,
          0.008856159,
          -0.55605364,
          -0.49027961,
          -0.30210352,
          0.9105135,
          0.6520728,
          -0.71775675,
          -0.37322977,
          -0.22891474,
          -0.6446544,
          0.0802659,
          0.26287702,
          -0.39565828,
          -0.43050617,
          -0.67518806,
          0.776662,
          0.18706521,
          -0.98604786,
          0.41228998,
          0.7560382,
          0.6796224,
          0.22725044,
          -0.5737731,
          -0.81351316,
          -0.72532636,
          0.7980933,
          -0.6677974,
          -0.4895816,
          0.40927818,
          -0.82818246,
          0.19616774,
          -0.6693076,
          -0.5714331,
          0.8918673,
          0.30601123,
          -0.0682534,
          -0.25929743,
          0.20311788,
          -0.9474363,
          -0.03587935,
          0.34490147,
          0.19431707,
          -0.42737472,
          -0.92634016,
          -0.078374065,
          -0.6091372,
          0.5932406,
          -0.40437388,
          0.36676002,
          0.7310736,
          0.99175906,
          -0.38154888,
          -0.82633114,
          0.0915846,
          -0.30430883,
          -0.5799524,
          0.2699253,
          0.63090605,
          -0.54971373,
          -0.9280247,
          0.02801095,
          0.96738994,
          0.9489748,
          -0.19623205,
          0.7961733,
          -0.2530465,
          0.5061033,
          -0.39119774,
          0.980584,
          -0.40259886,
          0.87804323,
          -0.46904787,
          0.245314,
          -0.35995674,
          0.9382292,
          -0.9851483,
          0.19398546,
          0.5716535,
          -0.4819622,
          -0.72739923,
          -0.8583745,
          -0.72248256,
          -0.9948337,
          -0.92646265,
          0.82210535,
          0.28533697,
          -0.095970005,
          0.5010843,
          -0.41620734,
          -0.43552834,
          -0.8819886,
          -0.122131795,
          0.8809665,
          -0.99066776,
          -0.77184975,
          -0.7901572,
          -0.15285197,
          -0.7781069,
          0.49365866,
          -0.95502377,
          0.10738754,
          0.61583996
        ],
        [
          -0.8536079,
          -0.47850788,
          0.66838527,
          0.2768389,
          -0.77740407,
          0.87143695,
          -0.3384509,
          0.19935405,
          0.41595078,
          0.8534092,
          0.80849147,
          0.5169375,
          -0.2665912,
          0.09136843,
          0.72889864,
          0.45145655,
          -0.13161004,
          -0.9507022,
          -0.9057087,
          0.30301607,
          -0.9176787,
          -0.12530291,
          0.27416408,
          -0.9842948,
          -0.8044487,
          -0.37348568,
          0.5115695,
          -0.98241985,
          0.2532668,
          -0.27072418,
          0.8124943,
          -0.9474783,
          -0.20442799,
          -0.52619493,
          -0.9849952,
          -0.15899518,
          0.07336541,
          0.36550143,
          -0.33266672,
          0.69803584,
          0.9201169,
          -0.707035,
          0.47306442,
          -0.98972607,
          -0.32314205,
          -0.9147838,
          -0.5096765,
          -0.7907075,
          0.20874369,
          0.13016614,
          0.8895377,
          0.17974448,
          -0.9392779,
          0.29649282,
          -0.014868975,
          0.7476574,
          0.37721217,
          -0.28093565,
          -0.960096,
          -0.52973944,
          0.06657332,
          0.6370485,
          -0.5140825,
          -0.16140954,
          -0.7789577,
          -0.008286389,
          0.055616844,
          0.14396206,
          0.39395416,
          -0.46627453,
          0.5124582,
          0.1655834,
          -0.50874645,
          -0.29918417,
          0.113958985,
          0.7821755,
          -0.22429173,
          0.23681422,
          0.89221185,
          0.127443,
          0.13964845,
          0.19469313,
          -0.53920233,
          0.00872314,
          0.26504338,
          0.38822246,
          0.4461473,
          0.29029173,
          0.697262,
          0.8771601,
          0.9547488,
          0.69390666,
          0.5715517,
          -0.8817131,
          -0.73060995,
          0.97838485,
          -0.4675583,
          -0.44345054,
          -0.80320245,
          -0.61954856,
          0.4787975,
          -0.7915646,
          0.3614343,
          -0.42312142,
          0.71588784,
          0.3527285,
          0.7464487,
          0.5028096,
          0.11963467,
          0.5269456,
          -0.8457417,
          -0.7680484,
          0.08006203,
          0.5919281,
          -0.04261887,
          0.12473104,
          0.3822345,
          0.5338509,
          -0.0778159,
          -0.34613758,
          0.37608027,
          -0.10674647,
          0.83719474,
          -0.6016457,
          -0.74088037,
          -0.93767357,
          0.22284597,
          0.35218942,
          0.20813474,
          -0.7937948,
          0.9077464,
          0.8916797,
          0.99952143,
          -0.22058022,
          -0.98613894,
          0.33574978,
          0.08115193,
          -0.7887068,
          -0.5054982,
          0.9192159,
          0.379169,
          -0.8392304,
          -0.8409542,
          -0.40425867,
          -0.85883206,
          -0.33149868,
          0.4622615,
          -0.34106863,
          -0.036585238,
          -0.91449034,
          0.29931483,
          0.02092222,
          0.85424113,
          -0.97245604,
          -0.1308917,
          -0.1406862,
          0.51540774,
          0.47617236,
          -0.020114344,
          0.30055568,
          -0.06129923,
          0.9084098,
          0.53820384,
          0.27700806,
          0.76209205,
          0.79441565,
          0.8103462,
          -0.36737013,
          -0.15960729,
          -0.37253976,
          -0.9615874,
          0.5239925,
          -0.9832955,
          0.12548482,
          -0.7598147,
          0.67189485,
          -0.905669,
          -0.5392841,
          -0.95057184,
          -0.17953531,
          0.120620735,
          -0.9780218,
          -0.8223361,
          -0.40903506,
          -0.3250782,
          -0.9219457,
          -0.77923864,
          -0.21491039,
          -0.49180195,
          -0.49185008,
          -0.3800558,
          0.4033106,
          -0.54395795,
          -0.32170105,
          0.93416667,
          -0.5141638,
          0.7835376,
          -0.60631144,
          0.24017063,
          0.09815153,
          0.532157,
          -0.9230719,
          -0.19509748,
          0.02215248,
          -0.57388353,
          -0.90943974,
          -0.8737406,
          0.4396624,
          -0.7491592,
          -0.5234342,
          -0.31278363,
          -0.038866684,
          -0.20613182,
          -0.19784501,
          -0.6449236,
          -0.9093872,
          0.2875638,
          -0.14292198,
          -0.5386508,
          -0.69747263,
          -0.48597082,
          -0.41292515,
          0.58853,
          0.41832379,
          -0.12955967,
          -0.122193694,
          0.80465126,
          0.5111535,
          -0.64390934,
          0.5072615,
          -0.10252903,
          0.37848035,
          0.5533997,
          0.45607272,
          0.4034833,
          0.46222228,
          -0.5353875,
          -0.50847256,
          0.07085492,
          -0.12134677,
          -0.22596504,
          0.7829783,
          -0.6650257,
          -0.2858026,
          -0.66798115,
          0.23216085,
          0.8583499,
          0.008753235,
          0.44454703,
          0.77203786,
          -0.12674165,
          -0.1810215,
          -0.02043541,
          -0.74008644,
          0.4380802,
          -0.24444889,
          0.60795426,
          -0.8076144,
          -0.8430507,
          0.84655434,
          -0.20541383,
          0.7494852,
          0.5625229,
          -0.41623816,
          -0.63899827,
          0.57291526,
          0.42178124,
          -0.14541581,
          0.35831684,
          0.3555712,
          0.61635906,
          -0.15218528,
          0.5981093,
          -0.039342824,
          0.10520178,
          0.66084266,
          0.13430543,
          -0.1288618,
          -0.55681264,
          0.0056147887,
          0.7471596,
          -0.8152097,
          0.023011439,
          0.9049025,
          -0.5654724,
          0.41360173,
          0.380135,
          0.46737686,
          0.38756147,
          0.5824463,
          -0.507838,
          0.015962215,
          0.3905722,
          -0.07500135,
          -0.2401784,
          0.20159471,
          -1.0581884,
          0.6600454,
          0.30677408,
          0.1669728,
          0.8781324,
          0.7439186,
          0.031241646,
          -0.30024168,
          -0.8974037,
          0.52509695,
          -0.93666214,
          -0.40926808,
          0.8883479,
          0.48273504,
          0.521546,
          0.56824636,
          0.6558037,
          0.36241668,
          0.630639,
          -0.32682207,
          0.2740415,
          0.86575925,
          0.97729176,
          0.29801816,
          -0.2828595,
          0.6005266,
          0.13661245,
          0.14225623,
          0.022822542,
          0.35638964,
          0.84074455,
          0.91221774,
          0.5383214,
          -0.7306713,
          0.81849813,
          0.804128,
          -0.24014914,
          -0.85721457,
          0.7935919,
          -0.6526066,
          -0.94966245,
          -0.43522888,
          0.18329522,
          0.721877,
          -0.5277097,
          0.47110224,
          -0.1653543,
          -0.6424034,
          -0.09340404,
          0.9190358,
          -0.82735735,
          0.37682897,
          -0.2842056,
          -0.06831849,
          0.57307076,
          0.5472497,
          0.5501527,
          -0.185482,
          0.60997933,
          0.8306105,
          0.8804399,
          0.15443401,
          -0.34274954,
          0.3112155,
          0.8367649,
          0.9575612,
          -0.7705727,
          -0.37791687,
          -0.78741163,
          0.7679529,
          -0.73013216,
          -0.9608009,
          -0.8030055,
          0.7140775,
          -0.66351056,
          1.0071229,
          0.9962777,
          -0.040116884,
          0.5506384,
          0.4208958,
          0.26345107,
          -0.23778422,
          -0.5133957,
          0.86284286,
          0.59730726,
          -0.40717304,
          -0.2932687,
          -0.21897407,
          -0.3073865,
          0.74809784,
          0.42689225,
          -0.23927434,
          0.92407733,
          0.8690014,
          -0.73754513,
          -0.9576952,
          -0.28333932,
          -0.24249426,
          0.5219804,
          -0.42432234,
          0.9059053,
          0.5834783,
          0.6878207,
          -0.31466103,
          0.86470574,
          0.97953707,
          -0.19941589,
          -1.0131466,
          -0.73463285,
          0.35136825,
          -0.27216536,
          0.011659333,
          0.5318566,
          0.7452206,
          0.72209835,
          -0.0015066635,
          0.5939554,
          -0.2899383,
          -0.7917213,
          -0.60421276,
          -0.9827359,
          -0.6318281,
          0.37397048,
          -0.7873988,
          -0.8787379,
          -0.66770196,
          -0.7338965,
          -0.6992078,
          -0.61968803,
          0.69335216,
          -0.97441304,
          -0.4526162,
          -0.98570406,
          -0.51164263,
          0.8219166,
          0.9188309,
          -0.7204475,
          0.10827004,
          0.48121363,
          0.7143405,
          -0.4444215,
          0.47769308,
          0.26860484,
          -0.26721767,
          -0.6534016,
          0.6628149,
          0.35643792,
          -0.2570595,
          -0.10887424,
          -0.47050595,
          0.7961006,
          -0.7284315,
          -0.763646,
          -0.24239136,
          0.7649821,
          -0.92940503,
          -0.5049348,
          -0.7120135,
          -1.0023599,
          -0.86267364,
          0.14106193,
          -0.024948018,
          0.5195416,
          0.43237144,
          0.5626042,
          0.8520478,
          -0.65884835,
          -0.123089366,
          0.77800024,
          -0.12952878,
          -0.8681684,
          0.15849155,
          -0.7073951,
          0.15846752,
          0.2910521,
          -0.5731972,
          0.73290575,
          -0.8730632,
          0.24881332,
          -0.14993802,
          0.21744728,
          -0.18225063,
          -0.6366959,
          0.20355207,
          -0.2769704,
          0.56388634,
          -0.7136892,
          0.26590914,
          0.34765583,
          0.55879325,
          1.0040039,
          -0.17317405,
          -0.10366928,
          -0.4887226,
          -0.053077355,
          -0.31574523,
          -0.5642835,
          0.053656705,
          -0.32221407,
          -0.9512525,
          0.52876925,
          0.46184045,
          -0.24628407,
          0.4327426,
          0.37225455,
          0.25928175,
          -0.75363606,
          0.02498322,
          -0.99626124,
          0.9848,
          0.6968207,
          0.53543794,
          0.46555954,
          -0.13190804,
          0.97259665,
          -0.8750249,
          0.105915986,
          0.6282016,
          0.34682655,
          0.76353306,
          0.89951706,
          0.85942465,
          -0.9121927,
          -0.8553239,
          0.22836512,
          -0.9380088,
          0.027033836,
          -0.27472556,
          -0.65774643,
          0.7805806,
          -0.57412326,
          0.5634104,
          -0.12346087,
          -0.5730952,
          0.8992517,
          0.061068926,
          -0.17011237,
          -0.87157875,
          0.8426674,
          -0.45338205,
          0.17174652,
          -0.9133057,
          0.33444375,
          0.39298508,
          0.013024755,
          0.23023713,
          -0.68347293,
          0.69661224,
          0.9335637,
          -0.8455251,
          0.056335304,
          0.70595723,
          -0.19448209,
          -0.23077197,
          -0.11666997,
          -0.98271793,
          0.5594261,
          0.16905919,
          0.21854876,
          -0.043897923,
          -0.68317765,
          0.3811661,
          -0.91247016,
          -0.47206953,
          0.22769165,
          -0.6309578,
          0.20729184,
          -0.4150813,
          0.59646857,
          -0.56880146,
          -0.49788162,
          0.771175,
          0.54440176,
          0.34070188,
          0.88334715,
          0.87546134,
          -0.89244276,
          0.988816,
          -0.8821486,
          0.61476445,
          -0.10803267,
          -0.59387004,
          -0.7871513,
          0.7215969,
          0.66425973,
          0.27048385,
          0.017792918,
          0.44563487,
          -0.71693677,
          0.72046983,
          -0.7507614,
          0.8602659,
          -0.4748814,
          0.6587205,
          0.24870504,
          0.29943275,
          0.5178711,
          0.60134506,
          0.95075595,
          0.17721921,
          0.98476714,
          -0.17121376,
          -0.78447175,
          0.54871815,
          -0.20666787,
          -0.6741467,
          0.56245977,
          -0.55352706,
          -0.44245228,
          0.780175,
          -0.61764324,
          0.2486068,
          -0.53403634,
          -0.19645695,
          0.60937065,
          0.8308037,
          -0.9138366,
          -0.96393865,
          0.9939328,
          -0.3112831,
          -0.47576058,
          -0.5384714,
          0.47649273,
          0.7962477,
          0.5856035,
          0.5339251,
          -0.7745214,
          0.07756031,
          0.41908157,
          0.35121885,
          -0.5926818,
          0.9760794,
          0.55741954,
          0.84690756,
          0.53727335,
          0.6051752,
          -0.9508268,
          -0.04741159,
          -0.41211864,
          -0.6908524,
          -0.6872154,
          -0.025432112,
          0.90634924,
          -0.28220752,
          -0.064068265,
          0.35505366,
          0.81562907,
          -0.82209885,
          -0.5608704,
          -0.45744228,
          0.42143622,
          0.7026318,
          -0.017896563,
          0.24135026,
          -0.6618931,
          -0.84966505,
          -0.28104424,
          -0.20816436,
          -0.19685383,
          0.66857547,
          -0.6136253,
          -0.2877339,
          -0.44980565,
          0.91868526,
          -0.4109042,
          -0.5756856,
          0.655917,
          0.28365576,
          -0.024642367,
          0.73200876,
          -0.30273223,
          0.20564,
          -0.65858775,
          -0.5301853,
          0.7671824,
          -0.84431946,
          -0.88019943,
          0.7837099,
          -0.5998946,
          0.41486892,
          0.62621653,
          -0.41878054,
          -0.6015249,
          -0.11317301,
          0.15218581,
          0.44327438,
          -0.15365991,
          0.63880795,
          -0.91883045,
          0.25198206,
          0.92317146,
          -0.9662369,
          0.6158756,
          -0.8075476,
          0.10686141,
          -0.5313418,
          -0.4044646,
          -0.97757536,
          0.38450325,
          0.028485665,
          0.55389965,
          0.4158774,
          -0.34101334,
          0.08138645,
          -0.56976104,
          0.78383815,
          0.019352216,
          -0.18998994,
          0.020140406,
          0.95258975,
          0.3289974,
          -0.40128312,
          0.24450886,
          -0.84428936,
          -0.98912716,
          -0.3493296,
          0.53974223,
          0.8983256,
          0.40198153,
          -0.08838933,
          0.6780674,
          -0.42980736,
          -0.01901359,
          0.8793991,
          -0.9336207,
          -0.86915386,
          0.2443177,
          0.4793206,
          -0.41211703,
          -0.41567016,
          0.101577885,
          0.7516122,
          0.23698056,
          0.7528688,
          0.6942265,
          0.90814817,
          -0.043095402,
          0.76851773,
          0.16751152,
          0.49762902,
          0.16959965,
          0.33041725,
          -0.7695388,
          -0.9425879,
          -0.49834225,
          0.118855216,
          0.6350712,
          -0.74728024,
          -0.44281554,
          -0.9526007,
          -0.74674183,
          -0.64370483,
          -0.97516364,
          0.18128347,
          0.8247208,
          0.29513958,
          0.47095168,
          -0.15945673,
          -0.40385914,
          -0.35613465,
          -0.72157085,
          0.12589157,
          0.9156265,
          0.22221088,
          -0.44852495,
          0.6485826,
          -0.22181,
          0.5480762,
          0.23142669,
          -0.95010877,
          -0.669641,
          -0.5819868,
          0.08210334,
          -0.20841126,
          -0.7138989,
          -0.5278775,
          -0.991354,
          0.062353212,
          0.52012986,
          0.25100103,
          0.84840226,
          -0.13727845,
          0.070666306,
          0.5967082,
          0.75672567,
          0.6410692,
          -0.35393572,
          -0.779493
        ],
        [
          0.7456312,
          -0.40204656,
          -0.45651507,
          0.2777481,
          0.373981,
          0.45045698,
          0.85405934,
          -0.23773706,
          0.546319,
          -0.15329456,
          0.31345797,
          -0.08473694,
          0.6403341,
          -0.14252074,
          0.31726187,
          0.38445908,
          -0.24032068,
          -0.8571688,
          0.97229517,
          0.43151033,
          0.6565993,
          -0.7932466,
          0.13730466,
          -0.32380533,
          0.78330195,
          -0.124340296,
          0.17588902,
          0.5667758,
          -0.7243358,
          0.65279925,
          -0.215868,
          0.26292312,
          -0.93921053,
          0.9656513,
          -0.40747666,
          -0.034919802,
          -0.8730941,
          -0.023807636,
          0.9346131,
          -0.27972764,
          -0.79961044,
          0.8685574,
          -0.77693725,
          0.7318346,
          0.4052532,
          -0.9463495,
          0.09585294,
          -0.9246294,
          0.39091915,
          -0.5384321,
          -0.18564083,
          -0.72718775,
          0.41470325,
          -0.7110394,
          0.8809196,
          0.37651098,
          -0.5462339,
          0.40385664,
          0.32932734,
          0.6423433,
          -0.2643334,
          -0.07329166,
          0.8635538,
          -0.027273264,
          0.7552141,
          0.43119174,
          -0.66267264,
          0.25849235,
          -0.86958903,
          -0.9753748,
          -0.7753105,
          -0.7452249,
          0.30338293,
          -0.7035371,
          0.1475754,
          -0.55497545,
          0.8282093,
          -0.7889502,
          -0.77742136,
          -0.16894665,
          0.19394681,
          -0.53172106,
          0.50744784,
          -0.58868456,
          0.57631123,
          -0.1484927,
          0.18551928,
          0.7245336,
          0.5187917,
          0.51470083,
          0.09530512,
          0.57758975,
          0.056237966,
          0.50183845,
          0.79430115,
          -0.31676438,
          -0.8068633,
          -0.72552186,
          0.91933626,
          -0.51879203,
          0.392843,
          0.9534223,
          0.29580113,
          0.8848208,
          0.5421674,
          -0.5838922,
          -0.4579536,
          0.6418949,
          0.99855703,
          -0.6698765,
          0.77127236,
          0.07579851,
          -0.08294475,
          0.8219461,
          0.60743064,
          0.92516255,
          0.9096669,
          -0.15895404,
          0.9058024,
          0.10328585,
          -0.32072103,
          0.9663598,
          -0.033800546,
          -0.7843598,
          0.67953706,
          0.6404453,
          0.8515982,
          -0.7374317,
          0.18813808,
          0.74812174,
          0.177654,
          -0.8093435,
          -0.13115609,
          -0.26543295,
          -0.5726991,
          0.4851083,
          -0.8176902,
          0.7734988,
          -0.722211,
          -0.93458503,
          0.4663136,
          -0.9863862,
          0.5677863,
          0.22045696,
          0.7500819,
          -0.99141496,
          0.8762887,
          0.38551366,
          0.0109688705,
          -0.20118429,
          0.60291153,
          0.9310683,
          -0.5016121,
          -0.48706385,
          0.15605219,
          -0.15905371,
          0.7697263,
          0.4651574,
          0.8608446,
          0.8798018,
          0.77510107,
          0.16039003,
          0.69877917,
          -0.8188854,
          -0.92349946,
          0.9224178,
          0.9944593,
          0.19442812,
          0.37334895,
          0.92074823,
          -0.022130879,
          0.07922376,
          0.42439082,
          -0.6404446,
          0.6985368,
          -0.8376973,
          0.73691255,
          0.6220957,
          -0.9721267,
          0.8672976,
          0.6377283,
          -0.07813938,
          -0.69179285,
          0.9203532,
          0.18718226,
          -0.85135114,
          -0.5654387,
          -0.56239825,
          -0.39606062,
          0.92312807,
          0.77731884,
          0.7967763,
          -0.47307566,
          0.32058883,
          -0.9673328,
          -0.017825965,
          -0.6447321,
          -0.8995837,
          -0.5344645,
          -0.28603405,
          0.39398116,
          -0.14820752,
          0.10681342,
          -0.2569197,
          0.57736135,
          0.28162247,
          -0.97910404,
          -0.16619743,
          0.48813382,
          0.9090075,
          -0.365077,
          0.82537615,
          -0.7337445,
          -0.69154,
          0.25408593,
          -0.76005554,
          0.78455114,
          0.10254613,
          -0.29641378,
          0.8272281,
          -0.38738707,
          -0.74456394,
          0.4144288,
          -0.6230869,
          0.8894932,
          -0.29520708,
          -0.8414342,
          -0.35089433,
          -0.5048599,
          0.91194195,
          0.32128423,
          -0.34293482,
          0.89360344,
          -0.80723715,
          -0.16810729,
          0.75196475,
          -0.7219224,
          0.4995286,
          0.44996324,
          -0.13196725,
          -0.40377033,
          0.16773883,
          -0.8075274,
          -0.09739997,
          0.11322187,
          -0.95873576,
          -0.85812783,
          -0.2534116,
          -0.63026017,
          0.7042237,
          0.8692071,
          0.2022229,
          0.50088197,
          -0.24519546,
          0.56230855,
          -0.25406492,
          -0.38840282,
          0.31863648,
          0.46478596,
          -0.98426694,
          0.5824302,
          0.08511167,
          -0.7695665,
          -0.13298641,
          -0.87874895,
          0.25793457,
          0.80360615,
          -0.07770489,
          -0.8612761,
          -0.19007441,
          -1.0284936,
          -1.0699726,
          -0.8539102,
          0.27688828,
          0.4051546,
          0.6128509,
          0.77021706,
          0.4080432,
          -0.34722868,
          0.6913165,
          0.8055754,
          0.34103662,
          -0.07415601,
          0.122293286,
          -0.8336994,
          -0.4422669,
          0.04378904,
          -0.7653933,
          -0.01465004,
          0.56082785,
          0.14218949,
          -0.7452735,
          -0.58497566,
          0.8565178,
          -0.47856018,
          -0.77936697,
          0.93990093,
          0.36202002,
          -0.76288784,
          -0.97785366,
          0.832484,
          -0.7150283,
          -0.47038278,
          -0.88570815,
          -0.117562756,
          0.84379476,
          0.008412855,
          -0.7546383,
          0.50224954,
          0.82977813,
          -0.81074584,
          0.10221771,
          -0.033271503,
          -0.7443842,
          0.87324435,
          -0.99199104,
          0.45910034,
          0.4581012,
          0.50834167,
          0.23819722,
          -0.29150906,
          -0.12641469,
          -0.038460024,
          0.59476674,
          0.48409873,
          0.123738445,
          -0.037201386,
          -0.3843916,
          -0.15603325,
          0.35280308,
          0.04508855,
          -0.2530995,
          0.26929983,
          0.95502347,
          0.80932164,
          -0.17798422,
          -0.4785869,
          0.68373597,
          -0.8951783,
          -0.3523539,
          -0.94457597,
          0.43232825,
          0.031767305,
          -0.20982806,
          0.26572132,
          -0.6310989,
          -0.3508771,
          0.42605796,
          -0.2701995,
          -0.19031377,
          -0.49990445,
          0.16981496,
          -0.5520499,
          0.8766569,
          0.9891165,
          0.9104781,
          -0.21945532,
          0.3917028,
          -0.48834276,
          -0.8090259,
          0.7177248,
          -0.46420604,
          0.9358867,
          -0.58625877,
          -0.30445445,
          0.055164617,
          0.9402482,
          -0.5477178,
          -0.08912622,
          -0.23363781,
          0.4046747,
          -0.34645963,
          0.7592677,
          0.9836773,
          0.971288,
          0.83850515,
          -0.8578868,
          0.78048086,
          -0.15634684,
          -0.87293637,
          0.6497543,
          0.96066064,
          -0.73918194,
          0.42996243,
          0.2991061,
          -0.47311267,
          -0.78664696,
          -0.41106957,
          -0.4756374,
          -0.53606904,
          0.6644356,
          -0.41509134,
          -0.6602085,
          -0.6202531,
          -0.12565488,
          -0.44936776,
          -0.08658027,
          0.17726122,
          0.22875749,
          0.703309,
          -0.92166317,
          0.36936998,
          -0.6491838,
          -0.15941879,
          0.38278222,
          0.32103488,
          -0.6451171,
          0.5842005,
          0.5576451,
          0.046276335,
          -0.3785421,
          -0.5291219,
          -0.6186836,
          -0.53452814,
          -0.580098,
          -0.8790549,
          0.6860695,
          0.784795,
          -0.37309563,
          0.96878743,
          -0.01568614,
          -0.31986582,
          -0.91288584,
          0.013398181,
          -0.6457276,
          0.49294037,
          0.41384035,
          -0.0016394187,
          -0.2167165,
          0.71301514,
          0.118330166,
          -0.8255469,
          -0.15642187,
          0.15105826,
          -0.15247843,
          0.6126038,
          0.005459789,
          -0.91382986,
          0.8983055,
          -0.15990654,
          0.18281774,
          0.9240024,
          0.9086732,
          0.9474585,
          -0.679525,
          -0.54151565,
          0.17211516,
          0.5859693,
          -0.2616423,
          -0.0023210363,
          0.6505095,
          -0.16456293,
          0.94268334,
          -1.0020186,
          -0.49032566,
          -0.09088936,
          -0.33768836,
          0.0797728,
          0.4654288,
          -0.61204314,
          -0.84542423,
          0.8699377,
          -0.15727565,
          0.4841576,
          -0.19274904,
          -0.78319806,
          0.8918232,
          -0.23515797,
          -0.59843177,
          -0.8437299,
          -0.62422115,
          0.47860447,
          0.2591295,
          -0.6962752,
          -0.5816149,
          0.59541506,
          -0.4995767,
          0.7666889,
          -0.38667583,
          -0.1688964,
          0.29725224,
          -0.15518513,
          0.10146505,
          0.64047545,
          -0.63242483,
          0.32651308,
          -0.80596906,
          0.7055181,
          0.06346238,
          0.11837838,
          0.6170682,
          0.38190657,
          0.65282696,
          0.81218874,
          -0.21744698,
          0.7235367,
          -0.15253821,
          -0.8339485,
          0.7764585,
          0.6876549,
          -0.49411282,
          -0.7929325,
          -0.19071381,
          0.63396317,
          0.662585,
          0.68714964,
          -0.06032849,
          0.17010643,
          -0.8571659,
          0.24556786,
          -0.81285745,
          -0.18495786,
          -0.8430242,
          0.37092638,
          0.44562572,
          0.92262876,
          0.19758096,
          0.39437115,
          0.6327982,
          -0.13466573,
          0.8304279,
          -0.772427,
          -0.34662858,
          -0.06667592,
          0.073539644,
          0.530764,
          0.02355671,
          0.4256403,
          0.034275666,
          -0.18050572,
          0.105460845,
          -0.60890543,
          0.5300573,
          0.1641025,
          0.58863604,
          -0.06925544,
          -0.41546413,
          -0.37241983,
          0.38970014,
          -0.56734824,
          0.76995033,
          -0.49513268,
          0.36689574,
          -0.7245421,
          -0.12531064,
          0.9371327,
          0.7719487,
          -0.13440971,
          -0.84606594,
          -0.9405348,
          0.007897031,
          0.5476288,
          0.2135824,
          0.16958158,
          0.60795164,
          0.89541143,
          0.06420693,
          -0.9477382,
          -0.87645096,
          -0.6212889,
          -0.63424873,
          -0.751927,
          -0.13582063,
          -0.42014298,
          -0.009922171,
          -0.43001828,
          0.77365875,
          -0.82267976,
          -0.7453369,
          0.31931478,
          -0.45020863,
          -0.8181847,
          0.5924096,
          -0.043408535,
          -0.055340417,
          0.6561682,
          -0.10088045,
          0.20614357,
          -0.29578495,
          0.34844148,
          -0.5544437,
          -0.77727294,
          -0.40266097,
          0.59154075,
          0.57768244,
          -0.8870489,
          0.21342728,
          -0.2208018,
          0.36266676,
          0.5697558,
